{"learner":{"attributes":{"scikit_learn":"{\"_estimator_type\": \"classifier\"}"},"feature_names":[],"feature_types":[],"gradient_booster":{"model":{"cats":{"enc":[],"feature_segments":[],"sorted_idx":[]},"gbtree_model_param":{"num_parallel_tree":"1","num_trees":"100"},"iteration_indptr":[0,1,2,3,4,5,6,7,8,9,10,11,12,13,14,15,16,17,18,19,20,21,22,23,24,25,26,27,28,29,30,31,32,33,34,35,36,37,38,39,40,41,42,43,44,45,46,47,48,49,50,51,52,53,54,55,56,57,58,59,60,61,62,63,64,65,66,67,68,69,70,71,72,73,74,75,76,77,78,79,80,81,82,83,84,85,86,87,88,89,90,91,92,93,94,95,96,97,98,99,100],"tree_info":[0,0,0,0,0,0,0,0,0,0,0,0,0,0,0,0,0,0,0,0,0,0,0,0,0,0,0,0,0,0,0,0,0,0,0,0,0,0,0,0,0,0,0,0,0,0,0,0,0,0,0,0,0,0,0,0,0,0,0,0,0,0,0,0,0,0,0,0,0,0,0,0,0,0,0,0,0,0,0,0,0,0,0,0,0,0,0,0,0,0,0,0,0,0,0,0,0,0,0,0],"trees":[{"base_weights":[-5.1009778E-8,2.4025383E0,-3.7252238E-1,1.8705336E0,4.1304927E0,-4.4280908E-1,7.0029205E-1,3.3407986E-1,1.4782482E0,1.2867646E-1,4.755253E-1,-4.8848227E-1,1.0808794E0,1.721625E-1,3.376546E-1,-2.9429102E-3,1.5793742E0,8.768972E-2,-6.0034305E-1,1.7629094E-1,-1.8248178E-2,-1.22322366E-1,1.4764433E-1,1.8059526E-1,8.184687E-1,-1.9915655E-1,8.267256E-1,-6.4345026E-1,6.8506455E-1,4.9256125E-1,-7.46429E-2,4.782651E-3,1.5936847E-1,9.143407E-2,-3.313743E-2,1.3381994E-1,-5.9721302E-2,2.3785673E-2,-6.638255E-2,-6.376594E-2,1.8445967E-1,-5.293552E-2,1.0547359E-1],"categories":[],"categories_nodes":[],"categories_segments":[],"categories_sizes":[],"default_left":[0,0,0,0,0,0,0,0,0,0,0,0,0,0,0,0,0,0,0,0,0,0,0,0,0,0,0,0,0,0,0,0,0,0,0,0,0,0,0,0,0,0,0],"id":0,"left_children":[1,3,5,7,9,11,13,-1,15,-1,-1,17,19,-1,21,-1,23,25,27,-1,-1,29,-1,-1,31,33,35,37,39,41,-1,-1,-1,-1,-1,-1,-1,-1,-1,-1,-1,-1,-1],"loss_changes":[1.5001979E2,1.2958679E1,1.1252718E1,6.038437E0,1.8213043E0,1.0048721E1,2.867012E0,0E0,2.6105194E0,0E0,0E0,8.657864E0,4.020591E0,0E0,4.4312687E0,0E0,1.242157E0,4.9512906E0,6.643215E0,0E0,0E0,2.9401884E0,0E0,0E0,3.1792088E0,2.8163989E0,5.538724E0,2.1119576E0,7.4897165E0,2.8443623E0,0E0,0E0,0E0,0E0,0E0,0E0,0E0,0E0,0E0,0E0,0E0,0E0,0E0],"parents":[2147483647,0,0,1,1,2,2,3,3,4,4,5,5,6,6,8,8,11,11,12,12,14,14,16,16,17,17,18,18,21,21,24,24,25,25,26,26,27,27,28,28,29,29],"right_children":[2,4,6,8,10,12,14,-1,16,-1,-1,18,20,-1,22,-1,24,26,28,-1,-1,30,-1,-1,32,34,36,38,40,42,-1,-1,-1,-1,-1,-1,-1,-1,-1,-1,-1,-1,-1],"split_conditions":[-1.1442218E0,9.89369E-2,1E0,1E0,-1.9186424E-1,6.042507E-1,-2.4650548E-1,3.3407986E-1,1.8614963E-1,1.2867646E-1,4.755253E-1,-1.5318865E0,9.531412E0,1.721625E-1,-8.789077E-2,-2.9429102E-3,1.6016868E0,9.89369E-2,3.009288E0,1.7629094E-1,-1.8248178E-2,-1.7242141E-1,1.4764433E-1,1.8059526E-1,-1.3223203E-1,-2.564E-1,1.6016868E0,-1.1412694E0,-1.7338984E-1,-2.3311049E-1,-7.46429E-2,4.782651E-3,1.5936847E-1,9.143407E-2,-3.313743E-2,1.3381994E-1,-5.9721302E-2,2.3785673E-2,-6.638255E-2,-6.376594E-2,1.8445967E-1,-5.293552E-2,1.0547359E-1],"split_indices":[6,3,18,12,0,1,1,0,5,0,0,5,9,0,0,0,7,3,4,0,0,1,0,0,1,0,7,6,1,0,0,0,0,0,0,0,0,0,0,0,0,0,0],"split_type":[0,0,0,0,0,0,0,0,0,0,0,0,0,0,0,0,0,0,0,0,0,0,0,0,0,0,0,0,0,0,0,0,0,0,0,0,0,0,0,0,0,0,0],"sum_hessian":[1.6562001E2,2.1501202E1,1.4411882E2,1.8032001E1,3.4692004E0,1.3580841E2,8.310401E0,2.2148001E0,1.5817202E1,1.1760001E0,2.2932003E0,1.3251561E2,3.2928004E0,1.1956002E0,7.114801E0,1.0388001E0,1.4778401E1,2.1579603E1,1.1093601E2,1.8816001E0,1.4112002E0,5.7036004E0,1.4112002E0,1.0329201E1,4.4492006E0,1.6072002E1,5.507601E0,1.0781961E2,3.1164002E0,2.9792004E0,2.7244003E0,2.7636003E0,1.6856002E0,1.0780001E0,1.4994001E1,4.0964003E0,1.4112002E0,2.1952002E0,1.0562441E2,1.6660001E0,1.4504001E0,1.0780001E0,1.9012002E0],"tree_param":{"num_deleted":"0","num_feature":"28","num_nodes":"43","size_leaf_vector":"1"}},{"base_weights":[5.685406E-3,1.8244537E0,-3.4638542E-1,1.5705986E0,3.6103007E-1,3.8628027E-1,-4.448836E-1,1.8094352E0,3.1012487E-1,1.0534904E-1,2.3783684E-1,-6.333488E-2,-5.5742484E-1,1.4596722E0,2.6847801E0,-3.9650208E-1,9.5562637E-1,-1.6810541E-1,1.399492E-1,1.093648E0,-2.0345697E-1,-5.9891486E-1,7.134124E-1,1.1444858E0,2.7839616E-1,4.7357626E-2,3.14938E0,-2.5099958E-3,-5.5850007E-2,1.944205E-1,-5.1599126E-2,-3.9567086E-1,1.2009331E-1,3.2770082E-2,1.392173E-1,-5.029168E-1,3.1198448E-1,-6.4036345E-1,4.755054E-1,-3.570414E-3,1.0531143E-1,1.4294678E-1,-2.9341634E-3,4.4117093E-1,1.1161629E-1,-5.506065E-2,2.5616718E-2,-7.201584E-2,1.7747357E-2,1.0952369E-1,-3.8386893E-2,8.247191E-2,-6.6916674E-2,-6.059761E-2,1.3331068E-1],"categories":[],"categories_nodes":[],"categories_segments":[],"categories_sizes":[],"default_left":[0,0,0,0,0,0,0,0,0,0,0,0,0,0,0,0,0,0,0,0,0,0,0,0,0,0,0,0,0,0,0,0,0,0,0,0,0,0,0,0,0,0,0,0,0,0,0,0,0,0,0,0,0,0,0],"id":1,"left_children":[1,3,5,7,-1,9,11,13,15,17,-1,19,21,23,25,27,29,31,-1,33,35,37,39,41,-1,-1,43,-1,-1,-1,-1,45,-1,-1,-1,47,49,51,53,-1,-1,-1,-1,-1,-1,-1,-1,-1,-1,-1,-1,-1,-1,-1,-1],"loss_changes":[1.0671486E2,6.582657E0,1.0249132E1,7.0957108E0,0E0,9.310027E0,5.2702045E0,2.5643005E0,2.7774303E0,5.9039993E0,0E0,4.967927E0,5.451378E0,4.0437813E0,3.4952583E0,1.7954397E-1,5.4277315E0,4.8732314E0,0E0,3.026712E-1,4.317096E0,4.4379044E0,9.203465E-1,5.2904186E0,0E0,0E0,4.9168625E0,0E0,0E0,0E0,0E0,1.4395106E0,0E0,0E0,0E0,2.7042265E0,6.1549907E0,4.3411407E0,4.537695E0,0E0,0E0,0E0,0E0,0E0,0E0,0E0,0E0,0E0,0E0,0E0,0E0,0E0,0E0,0E0,0E0],"parents":[2147483647,0,0,1,1,2,2,3,3,5,5,6,6,7,7,8,8,9,9,11,11,12,12,13,13,14,14,15,15,16,16,17,17,19,19,20,20,21,21,22,22,23,23,26,26,31,31,35,35,36,36,37,37,38,38],"right_children":[2,4,6,8,-1,10,12,14,16,18,-1,20,22,24,26,28,30,32,-1,34,36,38,40,42,-1,-1,44,-1,-1,-1,-1,46,-1,-1,-1,48,50,52,54,-1,-1,-1,-1,-1,-1,-1,-1,-1,-1,-1,-1,-1,-1,-1,-1],"split_conditions":[-1.1442218E0,1.3456745E-1,1E0,-7.751634E-2,3.6103007E-1,1E0,-8.055269E-1,9.89369E-2,-5.8533205E-3,2.5190175E0,2.3783684E-1,-2.54763E-1,6.042507E-1,-1.15768895E-1,-2.0769793E-1,-3.816877E-1,1.1696805E-1,9.09886E-2,1.399492E-1,-2.6174697E-1,-1.3997938E-1,3.009288E0,-3.9734393E-1,-1.3581364E-1,2.7839616E-1,4.7357626E-2,-1.7484246E-1,-2.5099958E-3,-5.5850007E-2,1.944205E-1,-5.1599126E-2,1.7550814E0,1.2009331E-1,3.2770082E-2,1.392173E-1,7.03957E-1,-6.734794E-2,-4.1534734E-1,-1.7338984E-1,-3.570414E-3,1.0531143E-1,1.4294678E-1,-2.9341634E-3,4.4117093E-1,1.1161629E-1,-5.506065E-2,2.5616718E-2,-7.201584E-2,1.7747357E-2,1.0952369E-1,-3.8386893E-2,8.247191E-2,-6.6916674E-2,-6.059761E-2,1.3331068E-1],"split_indices":[6,1,12,1,0,18,5,3,1,3,0,0,1,1,0,2,0,1,0,0,1,4,2,0,0,0,1,0,0,0,0,6,0,0,0,3,1,2,1,0,0,0,0,0,0,0,0,0,0,0,0,0,0,0,0],"split_type":[0,0,0,0,0,0,0,0,0,0,0,0,0,0,0,0,0,0,0,0,0,0,0,0,0,0,0,0,0,0,0,0,0,0,0,0,0,0,0,0,0,0,0,0,0,0,0,0,0,0,0,0,0,0,0],"sum_hessian":[1.6466774E2,2.6027872E1,1.3863986E2,2.4434078E1,1.593793E0,1.6083462E1,1.22556404E2,2.0175646E1,4.2584333E0,1.5018398E1,1.0650631E0,2.8271221E1,9.428518E1,1.6321556E1,3.8540905E0,2.2171152E0,2.0413182E0,1.3116883E1,1.901515E0,2.3189306E0,2.595229E1,9.181631E1,2.468873E0,1.4689596E1,1.6319588E0,1.0198003E0,2.83429E0,1.0241207E0,1.1929945E0,1.0289638E0,1.0123545E0,1.185697E1,1.2599127E0,1.2386274E0,1.0803032E0,1.6430716E1,9.521575E0,8.879481E1,3.021503E0,1.0494666E0,1.4194064E0,1.164471E1,3.0448866E0,1.0269116E0,1.8073785E0,9.705393E0,2.151577E0,1.2409911E1,4.020804E0,4.2094603E0,5.312115E0,1.1792494E0,8.7615555E1,1.4660902E0,1.5554128E0],"tree_param":{"num_deleted":"0","num_feature":"28","num_nodes":"55","size_leaf_vector":"1"}},{"base_weights":[1.441082E-2,1.4788367E0,-3.2003173E-1,1.1849517E0,2.331224E0,-3.906252E-1,6.263211E-1,2.1295462E0,9.340517E-1,2.8355965E-1,-8.82468E-3,-4.3651322E-1,8.586139E-1,1.9811922E-1,1.7422585E-1,2.3768745E-2,2.9118368E-1,7.712958E-1,1.9073597E-1,9.1289334E-2,-5.5037165E-1,1.3705608E0,-1.9414878E-2,-1.9846687E-1,1.4135556E-1,1.0171298E0,-3.3646658E-1,-1.8563123E-1,7.7086514E-1,-5.9555596E-1,5.684338E-1,3.1130532E-2,1.863063E-1,8.49511E-2,-5.3087294E-1,7.7487476E-2,2.0079413E-1,2.9349534E-2,-6.9422305E-2,7.715574E-2,-3.518344E-2,1.6209279E-1,-2.490074E-2,-6.325561E-2,-4.922846E-3,-6.0867038E-2,1.3745752E-1,-8.1148274E-2,3.0309705E-2],"categories":[],"categories_nodes":[],"categories_segments":[],"categories_sizes":[],"default_left":[0,0,0,0,0,0,0,0,0,0,0,0,0,0,0,0,0,0,0,0,0,0,0,0,0,0,0,0,0,0,0,0,0,0,0,0,0,0,0,0,0,0,0,0,0,0,0,0,0],"id":2,"left_children":[1,3,5,7,9,11,13,15,17,-1,-1,19,21,-1,23,-1,-1,25,-1,27,29,31,-1,33,-1,35,37,39,41,43,45,-1,-1,-1,47,-1,-1,-1,-1,-1,-1,-1,-1,-1,-1,-1,-1,-1,-1],"loss_changes":[8.089209E1,4.9294357E0,9.229636E0,3.9042892E0,8.595474E0,7.584732E0,5.6087627E0,5.875334E0,1.9235039E0,0E0,0E0,7.3805637E0,2.8494992E0,0E0,4.15334E0,0E0,0E0,5.7991343E0,0E0,4.377743E0,5.4179115E0,1.167203E0,0E0,3.0020032E0,0E0,2.4399815E0,1.1932888E0,2.943078E0,6.2198524E0,1.9309502E0,5.023289E0,0E0,0E0,0E0,1.6910411E0,0E0,0E0,0E0,0E0,0E0,0E0,0E0,0E0,0E0,0E0,0E0,0E0,0E0,0E0],"parents":[2147483647,0,0,1,1,2,2,3,3,4,4,5,5,6,6,7,7,8,8,11,11,12,12,14,14,17,17,19,19,20,20,21,21,23,23,25,25,26,26,27,27,28,28,29,29,30,30,34,34],"right_children":[2,4,6,8,10,12,14,16,18,-1,-1,20,22,-1,24,-1,-1,26,-1,28,30,32,-1,34,-1,36,38,40,42,44,46,-1,-1,-1,48,-1,-1,-1,-1,-1,-1,-1,-1,-1,-1,-1,-1,-1,-1],"split_conditions":[-1.1442218E0,9.89369E-2,1E0,1E0,1.947554E0,6.042507E-1,1E0,-1.795118E-1,3.15715E-1,2.8355965E-1,-8.82468E-3,-1.5318865E0,9.531412E0,1.9811922E-1,-2.2316447E-2,2.3768745E-2,2.9118368E-1,-7.751634E-2,1.9073597E-1,-1.272427E-1,3.009288E0,-3.9236552E-1,-1.9414878E-2,-2.4650548E-1,1.4135556E-1,-1.1383206E-1,-4.025215E-1,-2.564E-1,-4.4978928E-2,6.919917E-2,-1.7338984E-1,3.1130532E-2,1.863063E-1,8.49511E-2,1E0,7.7487476E-2,2.0079413E-1,2.9349534E-2,-6.9422305E-2,7.715574E-2,-3.518344E-2,1.6209279E-1,-2.490074E-2,-6.325561E-2,-4.922846E-3,-6.0867038E-2,1.3745752E-1,-8.1148274E-2,3.0309705E-2],"split_indices":[6,3,18,12,8,1,12,0,0,0,0,5,9,0,1,0,0,1,0,0,4,2,0,1,0,1,2,0,0,1,1,0,0,0,16,0,0,0,0,0,0,0,0,0,0,0,0,0,0],"split_type":[0,0,0,0,0,0,0,0,0,0,0,0,0,0,0,0,0,0,0,0,0,0,0,0,0,0,0,0,0,0,0,0,0,0,0,0,0,0,0,0,0,0,0,0,0,0,0,0,0],"sum_hessian":[1.6319832E2,2.970538E1,1.3349295E2,2.3866776E1,5.838603E0,1.2477272E2,8.720226E0,3.4375112E0,2.0429264E1,4.689104E0,1.1494993E0,1.20979385E2,3.793332E0,1.3355402E0,7.3846865E0,1.3870244E0,2.0504868E0,1.9038164E1,1.3911014E0,2.1502153E1,9.9477234E1,2.3491137E0,1.4442185E0,6.323066E0,1.0616205E0,1.5647497E1,3.3906665E0,1.5793355E1,5.7087975E0,9.606521E1,3.4120255E0,1.2635679E0,1.0855457E0,1.1480289E0,5.1750374E0,1.4005251E1,1.6422457E0,1.2931764E0,2.09749E0,1.7977269E0,1.3995628E1,2.7921772E0,2.9166203E0,8.9824036E1,6.2411714E0,1.4864755E0,1.92555E0,3.8923306E0,1.2827066E0],"tree_param":{"num_deleted":"0","num_feature":"28","num_nodes":"49","size_leaf_vector":"1"}},{"base_weights":[1.9667411E-2,1.1546477E0,-3.1090266E-1,8.71141E-1,1.7719065E0,-9.5387526E-2,-5.6774133E-1,2.592506E-1,6.713704E-1,-6.24772E-2,2.2452002E0,-2.1194522E-1,1.0043266E0,-6.9339806E-1,1.5210915E-1,8.0241925E-1,-6.630381E-2,7.017824E-2,2.4161015E-1,-5.397185E-1,9.7399145E-2,1.2663738E0,-1.1504925E-2,-8.325404E-1,-4.012422E-1,-2.91467E-1,9.83845E-1,1.6737117E0,5.753125E-1,1.6651915E-1,-6.267153E-1,9.0427524E-1,-4.661002E-2,1.5807909E0,-4.6102894E-3,-8.828045E-2,-2.0008583E-1,-1.2512457E-1,-7.545423E-1,1.7098482E-1,-7.418043E-2,1.3988398E-1,-1.7075784E-3,-6.205534E-3,2.2600584E-1,1.0292424E-1,2.7703052E-2,-8.326872E-3,4.8543636E-2,-6.854211E-2,4.7925785E-2,-2.040606E-2,1.3954423E-1,7.496267E-2,-1.8193563E-2,3.051366E-2,1.9775382E-1,-6.340575E-2,4.645745E-2,-6.1870802E-2,7.049875E-2,-8.641779E-2,-3.3277073E-3,-6.525145E-2,1.0446941E-1],"categories":[],"categories_nodes":[],"categories_segments":[],"categories_sizes":[],"default_left":[0,0,0,0,0,0,0,0,0,0,0,0,0,0,0,0,0,0,0,0,0,0,0,0,0,0,0,0,0,0,0,0,0,0,0,0,0,0,0,0,0,0,0,0,0,0,0,0,0,0,0,0,0,0,0,0,0,0,0,0,0,0,0,0,0],"id":3,"left_children":[1,3,5,7,9,11,13,-1,15,-1,17,19,21,23,25,27,-1,-1,-1,29,31,33,-1,35,37,39,41,43,45,47,49,51,53,55,-1,-1,57,59,61,63,-1,-1,-1,-1,-1,-1,-1,-1,-1,-1,-1,-1,-1,-1,-1,-1,-1,-1,-1,-1,-1,-1,-1,-1,-1],"loss_changes":[6.159345E1,4.935791E0,6.985776E0,7.6608524E0,1.3524578E1,9.231218E0,5.336109E0,0E0,5.0517693E0,0E0,7.1575165E-1,6.58647E0,2.174564E0,1.6746254E0,3.7599766E0,3.7835617E0,0E0,0E0,0E0,2.036108E0,3.9927723E0,2.4200888E0,0E0,8.5783386E-1,1.6489835E0,1.5661505E0,1.4789245E0,4.6548557E0,2.4974852E0,3.7805316E-1,2.159606E0,3.114492E0,3.3474874E0,1.7333021E0,0E0,0E0,1.3585935E0,5.0375357E0,5.754776E-1,3.7196867E0,0E0,0E0,0E0,0E0,0E0,0E0,0E0,0E0,0E0,0E0,0E0,0E0,0E0,0E0,0E0,0E0,0E0,0E0,0E0,0E0,0E0,0E0,0E0,0E0,0E0],"parents":[2147483647,0,0,1,1,2,2,3,3,4,4,5,5,6,6,8,8,10,10,11,11,12,12,13,13,14,14,15,15,19,19,20,20,21,21,23,23,24,24,25,25,26,26,27,27,28,28,29,29,30,30,31,31,32,32,33,33,36,36,37,37,38,38,39,39],"right_children":[2,4,6,8,10,12,14,-1,16,-1,18,20,22,24,26,28,-1,-1,-1,30,32,34,-1,36,38,40,42,44,46,48,50,52,54,56,-1,-1,58,60,62,64,-1,-1,-1,-1,-1,-1,-1,-1,-1,-1,-1,-1,-1,-1,-1,-1,-1,-1,-1,-1,-1,-1,-1,-1,-1],"split_conditions":[-8.105953E-1,-1.849317E-1,1.2171278E-2,-2.5028095E-1,-2.154468E-1,1.0067279E-1,1.9139973E0,2.592506E-1,-1.1442218E0,-6.24772E-2,-1.8783253E-1,-3.7953797E-1,1.6016868E0,1.7550814E0,-1.1543355E-1,1E0,-6.630381E-2,7.017824E-2,2.4161015E-1,-4.146762E-1,1E0,9.89369E-2,-1.1504925E-2,1E0,-1.4336884E-1,-2.0305863E-1,1.034294E0,-1.795118E-1,-1.8035531E-1,-1.4482147E-1,8.947412E-1,-4.1349015E-1,-2.5299734E-1,2.080315E-1,-4.6102894E-3,-8.828045E-2,-1.4240043E-1,-1.9275822E-1,7.03957E-1,-2.2907394E-1,-7.418043E-2,1.3988398E-1,-1.7075784E-3,-6.205534E-3,2.2600584E-1,1.0292424E-1,2.7703052E-2,-8.326872E-3,4.8543636E-2,-6.854211E-2,4.7925785E-2,-2.040606E-2,1.3954423E-1,7.496267E-2,-1.8193563E-2,3.051366E-2,1.9775382E-1,-6.340575E-2,4.645745E-2,-6.1870802E-2,7.049875E-2,-8.641779E-2,-3.3277073E-3,-6.525145E-2,1.0446941E-1],"split_indices":[6,2,5,0,0,1,3,0,6,0,0,6,7,6,0,12,0,0,0,2,12,3,0,21,1,0,5,0,0,1,4,2,0,0,0,0,1,1,3,1,0,0,0,0,0,0,0,0,0,0,0,0,0,0,0,0,0,0,0,0,0,0,0,0,0],"split_type":[0,0,0,0,0,0,0,0,0,0,0,0,0,0,0,0,0,0,0,0,0,0,0,0,0,0,0,0,0,0,0,0,0,0,0,0,0,0,0,0,0,0,0,0,0,0,0,0,0,0,0,0,0,0,0,0,0,0,0,0,0,0,0,0,0],"sum_hessian":[1.6220897E2,3.602561E1,1.2618335E2,2.633929E1,9.686322E0,6.935689E1,5.6826466E1,1.4934299E0,2.4845861E1,1.544613E0,8.141709E0,6.344019E1,5.916695E0,4.8412376E1,8.414093E0,2.2987034E1,1.8588274E0,1.3207073E0,6.821002E0,3.0440989E1,3.2999203E1,4.6879253E0,1.2287699E0,3.1540997E1,1.6871378E1,5.9111586E0,2.5029342E0,3.4358232E0,1.955121E1,3.2383192E0,2.720267E1,4.1981106E0,2.8801092E1,3.6170022E0,1.0709231E0,2.8852142E1,2.6888528E0,1.0230225E1,6.6411543E0,3.2223954E0,2.688763E0,1.4883089E0,1.0146253E0,1.0933466E0,2.3424766E0,6.7810864E0,1.2770124E1,2.2303374E0,1.0079818E0,2.6192606E1,1.0100636E0,1.4686315E0,2.7294793E0,3.5244284E0,2.5276663E1,1.2777549E0,2.3392472E0,1.654582E0,1.0342709E0,6.575256E0,3.6549687E0,5.5928707E0,1.0482835E0,1.7891916E0,1.4332038E0],"tree_param":{"num_deleted":"0","num_feature":"28","num_nodes":"65","size_leaf_vector":"1"}},{"base_weights":[2.0381613E-2,9.596886E-1,-2.885815E-1,8.3280003E-1,2.0381432E0,3.021578E-1,-3.771791E-1,1.4400285E0,6.7730886E-1,3.4398854E-2,2.7403283E-1,4.2590324E-2,1.2598577E0,-1.9293778E-1,-6.009872E-1,2.0747383E-1,6.8884766E-1,8.188914E-1,-5.25473E-2,-1.4650628E-1,9.837759E-2,-4.544947E-3,1.8494223E-1,-2.7648088E-1,5.7483935E-1,-6.9820035E-1,-4.5669492E-2,-4.3391096E-3,1.28103E-1,-2.1701893E-2,8.881204E-1,-7.2079085E-2,5.4525775E-1,-3.2757422E-1,9.681215E-2,-5.2744573E-1,-4.191079E-2,1.0434655E0,-3.274214E-2,-8.130831E-1,-4.9258867E-1,-5.093688E-1,8.0426425E-2,1.6172105E-1,6.806688E-2,1.2072245E-1,-2.4401253E-2,-4.890616E-2,2.6792953E-2,-5.8542926E-2,4.622453E-2,-2.0845834E-2,5.0319333E-2,1.4576393E-1,1.6759498E-2,-8.827726E-2,-2.7832564E-3,-7.1826085E-2,-1.4959461E-2,-1.3065522E-2,-7.29517E-2],"categories":[],"categories_nodes":[],"categories_segments":[],"categories_sizes":[],"default_left":[0,0,0,0,0,0,0,0,0,0,0,0,0,0,0,0,0,0,0,0,0,0,0,0,0,0,0,0,0,0,0,0,0,0,0,0,0,0,0,0,0,0,0,0,0,0,0,0,0,0,0,0,0,0,0,0,0,0,0,0,0],"id":4,"left_children":[1,3,5,7,9,11,13,15,17,-1,-1,19,21,23,25,-1,27,29,31,33,-1,-1,-1,35,37,39,41,-1,-1,-1,43,-1,45,47,-1,49,51,53,-1,55,57,59,-1,-1,-1,-1,-1,-1,-1,-1,-1,-1,-1,-1,-1,-1,-1,-1,-1,-1,-1],"loss_changes":[4.7549633E1,3.8514671E0,6.5694427E0,2.609829E0,3.3134394E0,4.0831366E0,4.3250523E0,1.8381643E0,3.3619509E0,0E0,0E0,2.6584969E0,2.7879477E0,4.042426E0,2.567768E0,0E0,2.065642E0,2.126192E0,2.852981E0,2.8670616E0,0E0,0E0,0E0,3.2320795E0,2.9911659E0,5.658703E-1,3.6588128E0,0E0,0E0,0E0,2.7512283E0,0E0,2.290201E0,1.2481053E0,0E0,1.798204E0,2.7974987E0,1.338448E0,0E0,1.3276367E0,1.2240562E0,4.004475E-1,0E0,0E0,0E0,0E0,0E0,0E0,0E0,0E0,0E0,0E0,0E0,0E0,0E0,0E0,0E0,0E0,0E0,0E0,0E0],"parents":[2147483647,0,0,1,1,2,2,3,3,4,4,5,5,6,6,7,7,8,8,11,11,12,12,13,13,14,14,16,16,17,17,18,18,19,19,23,23,24,24,25,25,26,26,30,30,32,32,33,33,35,35,36,36,37,37,39,39,40,40,41,41],"right_children":[2,4,6,8,10,12,14,16,18,-1,-1,20,22,24,26,-1,28,30,32,34,-1,-1,-1,36,38,40,42,-1,-1,-1,44,-1,46,48,-1,50,52,54,-1,56,58,60,-1,-1,-1,-1,-1,-1,-1,-1,-1,-1,-1,-1,-1,-1,-1,-1,-1,-1,-1],"split_conditions":[-8.105953E-1,2.7268878E-1,1E0,1E0,-3.9734393E-1,-1.2685023E-1,1.2171278E-2,-4.025215E-1,-7.751634E-2,3.4398854E-2,2.7403283E-1,1E0,-1.8065298E-1,1.0890435E-1,1.9139973E0,2.0747383E-1,-1.849317E-1,-2.7120018E-1,-5.8533205E-3,2.080315E-1,9.837759E-2,-4.544947E-3,1.8494223E-1,-4.1496736E-1,-3.571733E-1,1.1882116E0,-1.1543355E-1,-4.3391096E-3,1.28103E-1,-2.1701893E-2,-2.3924235E-1,-7.2079085E-2,3.7241332E-2,1.7550814E0,9.681215E-2,8.947412E-1,1.947554E0,4.6178538E-1,-3.274214E-2,1E0,-3.9734393E-1,-2.0994969E-1,8.0426425E-2,1.6172105E-1,6.806688E-2,1.2072245E-1,-2.4401253E-2,-4.890616E-2,2.6792953E-2,-5.8542926E-2,4.622453E-2,-2.0845834E-2,5.0319333E-2,1.4576393E-1,1.6759498E-2,-8.827726E-2,-2.7832564E-3,-7.1826085E-2,-1.4959461E-2,-1.3065522E-2,-7.29517E-2],"split_indices":[6,0,12,12,2,2,5,2,1,0,0,18,1,1,3,0,2,1,1,0,0,0,0,6,2,6,0,0,0,0,1,0,1,6,0,4,8,0,0,14,2,0,0,0,0,0,0,0,0,0,0,0,0,0,0,0,0,0,0,0,0],"split_type":[0,0,0,0,0,0,0,0,0,0,0,0,0,0,0,0,0,0,0,0,0,0,0,0,0,0,0,0,0,0,0,0,0,0,0,0,0,0,0,0,0,0,0,0,0,0,0,0,0,0,0,0,0,0,0,0,0,0,0,0,0],"sum_hessian":[1.6189062E2,3.9548737E1,1.2234188E2,3.6971024E1,2.5777113E0,1.5641187E1,1.067007E2,5.852913E0,3.111811E1,1.1919029E0,1.3858083E0,1.3127645E1,2.5135424E0,5.9544815E1,4.715588E1,2.2173748E0,3.635538E0,2.5960186E1,5.157926E0,1.1634465E1,1.4931791E0,1.0692073E0,1.4443351E0,5.427857E1,5.266246E0,3.9911697E1,7.244185E0,2.0399046E0,1.5956335E0,1.4924897E0,2.4467695E1,2.3383372E0,2.8195887E0,1.0616035E1,1.0184298E0,2.5619688E1,2.8658882E1,3.3630219E0,1.9032242E0,2.3709732E1,1.6201963E1,4.946315E0,2.2978704E0,3.9145138E0,2.055318E1,1.2454641E0,1.5741246E0,8.491951E0,2.1240845E0,2.4587631E1,1.0320551E0,2.2424904E1,6.2339783E0,1.8323424E0,1.5306795E0,2.1662992E1,2.04674E0,9.112394E0,7.089569E0,2.404103E0,2.5422115E0],"tree_param":{"num_deleted":"0","num_feature":"28","num_nodes":"61","size_leaf_vector":"1"}},{"base_weights":[2.2923525E-2,8.200636E-1,-2.6675385E-1,7.123149E-1,1.7074995E0,-6.78238E-2,-5.2058184E-1,1.5809069E0,6.148481E-1,3.194515E-2,2.2094674E-1,-1.7404747E-1,7.8658783E-1,-6.509243E-1,1.3175021E-1,2.0122893E-1,3.7990138E-2,3.701526E-1,1.1132096E0,-4.885076E-1,9.365858E-2,1.7857507E-1,3.4267896E-1,-8.2064056E-1,-3.8780925E-1,-2.5732902E-1,7.465498E-1,4.6900827E-1,-6.5468885E-2,-5.6066465E-2,1.3489627E0,2.0623627E-1,-5.815844E-1,7.592459E-1,-3.616075E-2,-3.772559E-1,7.697429E-1,-8.8631696E-1,-1.08491085E-1,-1.1321617E-1,-7.6205117E-1,1.7202419E-1,-7.159864E-2,1.4721665E-1,-1.0213094E-4,1.0079145E-1,2.354779E-2,1.7856546E-1,3.1454634E-2,4.8583046E-2,-4.178165E-3,-6.451424E-2,4.7967725E-2,-2.111598E-2,1.15836225E-1,6.619945E-2,-1.6379127E-2,-5.419482E-2,-1.357863E-3,-1.3758542E-2,1.1772966E-1,-2.0706566E-2,-9.2287354E-2,4.77688E-2,-5.7599794E-2,-5.1404335E-2,5.2739214E-2,-8.664051E-2,-7.6739625E-3,-6.3361846E-2,9.4088174E-2],"categories":[],"categories_nodes":[],"categories_segments":[],"categories_sizes":[],"default_left":[0,0,0,0,0,0,0,0,0,0,0,0,0,0,0,0,0,0,0,0,0,0,0,0,0,0,0,0,0,0,0,0,0,0,0,0,0,0,0,0,0,0,0,0,0,0,0,0,0,0,0,0,0,0,0,0,0,0,0,0,0,0,0,0,0,0,0,0,0,0,0],"id":5,"left_children":[1,3,5,7,9,11,13,15,17,-1,-1,19,21,23,25,-1,-1,27,29,31,33,-1,35,37,39,41,43,45,-1,-1,47,49,51,53,55,57,59,61,63,65,67,69,-1,-1,-1,-1,-1,-1,-1,-1,-1,-1,-1,-1,-1,-1,-1,-1,-1,-1,-1,-1,-1,-1,-1,-1,-1,-1,-1,-1,-1],"loss_changes":[3.7695244E1,2.9435387E0,6.013529E0,2.4574509E0,2.07728E0,6.3365397E0,4.5483103E0,1.0232458E0,4.2290688E0,0E0,0E0,5.2292643E0,2.8186202E0,1.6426353E0,2.481812E0,0E0,0E0,3.0448647E0,5.5055437E0,1.9613013E0,2.9738052E0,0E0,2.317387E0,1.110445E0,1.8779812E0,1.4240317E0,2.1529973E0,2.937749E0,0E0,0E0,4.336218E0,3.0478075E-1,2.020918E0,2.4176822E0,2.735992E0,1.7985946E-1,1.813798E0,3.9194298E-1,1.1843514E0,3.403579E0,4.9954033E-1,3.209019E0,0E0,0E0,0E0,0E0,0E0,0E0,0E0,0E0,0E0,0E0,0E0,0E0,0E0,0E0,0E0,0E0,0E0,0E0,0E0,0E0,0E0,0E0,0E0,0E0,0E0,0E0,0E0,0E0,0E0],"parents":[2147483647,0,0,1,1,2,2,3,3,4,4,5,5,6,6,7,7,8,8,11,11,12,12,13,13,14,14,17,17,18,18,19,19,20,20,22,22,23,23,24,24,25,25,26,26,27,27,30,30,31,31,32,32,33,33,34,34,35,35,36,36,37,37,38,38,39,39,40,40,41,41],"right_children":[2,4,6,8,10,12,14,16,18,-1,-1,20,22,24,26,-1,-1,28,30,32,34,-1,36,38,40,42,44,46,-1,-1,48,50,52,54,56,58,60,62,64,66,68,70,-1,-1,-1,-1,-1,-1,-1,-1,-1,-1,-1,-1,-1,-1,-1,-1,-1,-1,-1,-1,-1,-1,-1,-1,-1,-1,-1,-1,-1],"split_conditions":[-8.105953E-1,2.7268878E-1,1.2171278E-2,-2.5028095E-1,-3.9734393E-1,1.0067279E-1,1.9139973E0,-3.9236552E-1,-1.849317E-1,3.194515E-2,2.2094674E-1,-3.7953797E-1,-4.146762E-1,1.1882116E0,-1.1543355E-1,2.0122893E-1,3.7990138E-2,-1.1442218E0,-2.154468E-1,-4.146762E-1,1E0,1.7857507E-1,-3.9734393E-1,6.919917E-2,-1.4336884E-1,-2.0305863E-1,-5.1162295E-2,-4.137727E-1,-6.5468885E-2,-5.6066465E-2,-1.1383206E-1,-2.1864213E-1,3.009288E0,-2.169687E-1,-2.5299734E-1,3.5246176E-1,-8.055269E-1,-6.89545E-1,2.1010415E-1,-1.9275822E-1,7.03957E-1,-2.2907394E-1,-7.159864E-2,1.4721665E-1,-1.0213094E-4,1.0079145E-1,2.354779E-2,1.7856546E-1,3.1454634E-2,4.8583046E-2,-4.178165E-3,-6.451424E-2,4.7967725E-2,-2.111598E-2,1.15836225E-1,6.619945E-2,-1.6379127E-2,-5.419482E-2,-1.357863E-3,-1.3758542E-2,1.1772966E-1,-2.0706566E-2,-9.2287354E-2,4.77688E-2,-5.7599794E-2,-5.1404335E-2,5.2739214E-2,-8.664051E-2,-7.6739625E-3,-6.3361846E-2,9.4088174E-2],"split_indices":[6,0,5,0,2,1,3,2,2,0,0,6,2,6,0,0,0,6,0,2,12,0,2,1,1,0,0,2,0,0,1,0,4,1,0,1,5,6,1,1,3,1,0,0,0,0,0,0,0,0,0,0,0,0,0,0,0,0,0,0,0,0,0,0,0,0,0,0,0,0,0],"split_type":[0,0,0,0,0,0,0,0,0,0,0,0,0,0,0,0,0,0,0,0,0,0,0,0,0,0,0,0,0,0,0,0,0,0,0,0,0,0,0,0,0,0,0,0,0,0,0,0,0,0,0,0,0,0,0,0,0,0,0,0,0,0,0,0,0,0,0,0,0,0,0],"sum_hessian":[1.612967E2,4.250357E1,1.1879314E2,3.95092E1,2.994371E0,6.730896E1,5.1484177E1,2.4505737E0,3.7058624E1,1.2298825E0,1.7644886E0,6.0574417E1,6.7345448E0,4.2912067E1,8.572107E0,1.3059813E0,1.1445923E0,2.6023722E1,1.1034904E1,2.7475552E1,3.3098866E1,1.1417885E0,5.5927563E0,2.4797857E1,1.8114212E1,5.6058545E0,2.9662528E0,2.422897E1,1.7947533E0,1.19217E0,9.842733E0,3.1024525E0,2.4373098E1,4.610781E0,2.8488087E1,2.1257849E0,3.4669712E0,2.2480112E1,2.3177452E0,1.1199389E1,6.9148226E0,3.2182045E0,2.3876498E0,1.0133736E0,1.9528791E0,6.322612E0,1.7906357E1,6.410301E0,3.4324324E0,1.0076556E0,2.094797E0,2.3365839E1,1.0072602E0,1.4809507E0,3.1298306E0,3.7559197E0,2.4732166E1,1.1257815E0,1.0000032E0,1.2799209E0,2.1870503E0,1.4884132E0,2.0991697E1,1.0186913E0,1.299054E0,7.010504E0,4.188886E0,5.771703E0,1.1431197E0,1.657402E0,1.5608025E0],"tree_param":{"num_deleted":"0","num_feature":"28","num_nodes":"71","size_leaf_vector":"1"}},{"base_weights":[2.3935243E-2,7.0524955E-1,-2.4637224E-1,1.2306525E0,5.74895E-1,2.9034287E-1,-3.3316013E-1,1.5912315E0,5.46471E-1,3.6585203E-1,1.0069788E0,5.4287154E-2,1.0788839E0,-2.3484418E-1,-7.4852985E-1,2.4952829E-2,2.0298603E-1,8.9315705E-2,-1.6432142E-2,9.927937E-1,9.072958E-2,-6.271478E-2,1.3067867E0,-6.814985E-2,2.3688523E-1,-4.0160804E-3,1.5235563E-1,-3.132372E-1,3.6077434E-1,-8.154215E-2,-3.742513E-1,-5.998038E-2,1.3887205E0,-2.291288E-1,5.245047E-1,9.6114486E-1,1.9791918E-1,5.4593897E-1,-2.561201E-1,-3.5604775E-1,5.847527E-1,7.017962E-1,-2.971992E-1,-2.4019883E-3,-6.341848E-2,1.7028241E-1,-9.786762E-3,-2.1852183E-3,-7.4252635E-2,1.4885305E-1,-3.2749862E-4,1.39437E-1,-3.6484003E-2,-2.2655712E-2,1.03830814E-1,2.205671E-2,-6.821908E-2,-2.598676E-3,-5.0471276E-2,-5.3408075E-2,1.2569712E-1,-5.623435E-2,1.06967844E-1,-6.704579E-2,3.2028835E-2],"categories":[],"categories_nodes":[],"categories_segments":[],"categories_sizes":[],"default_left":[0,0,0,0,0,0,0,0,0,0,0,0,0,0,0,0,0,0,0,0,0,0,0,0,0,0,0,0,0,0,0,0,0,0,0,0,0,0,0,0,0,0,0,0,0,0,0,0,0,0,0,0,0,0,0,0,0,0,0,0,0,0,0,0,0],"id":6,"left_children":[1,3,5,7,9,11,13,15,17,19,21,23,25,27,29,-1,-1,-1,-1,31,33,-1,35,-1,37,-1,-1,39,41,-1,43,-1,45,47,49,51,-1,53,55,57,59,61,63,-1,-1,-1,-1,-1,-1,-1,-1,-1,-1,-1,-1,-1,-1,-1,-1,-1,-1,-1,-1,-1,-1],"loss_changes":[2.9984282E1,2.4592628E0,5.5294657E0,1.1816759E0,3.1472845E0,3.062756E0,3.9431896E0,2.39011E0,1.2292227E0,4.705476E0,6.7576437E0,2.0367887E0,1.9572468E0,3.9891925E0,1.6668892E-1,0E0,0E0,0E0,0E0,6.116355E0,2.953886E0,0E0,5.533123E-1,0E0,1.9568057E0,0E0,0E0,3.0489907E0,2.4793563E0,0E0,4.1318607E-1,0E0,3.441001E0,1.3087888E0,4.5698967E0,5.6343317E0,0E0,3.14472E0,1.2219849E0,3.478321E0,3.4849439E0,3.8396802E0,1.1728905E0,0E0,0E0,0E0,0E0,0E0,0E0,0E0,0E0,0E0,0E0,0E0,0E0,0E0,0E0,0E0,0E0,0E0,0E0,0E0,0E0,0E0,0E0],"parents":[2147483647,0,0,1,1,2,2,3,3,4,4,5,5,6,6,7,7,8,8,9,9,10,10,11,11,12,12,13,13,14,14,19,19,20,20,22,22,24,24,27,27,28,28,30,30,32,32,33,33,34,34,35,35,37,37,38,38,39,39,40,40,41,41,42,42],"right_children":[2,4,6,8,10,12,14,16,18,20,22,24,26,28,30,-1,-1,-1,-1,32,34,-1,36,-1,38,-1,-1,40,42,-1,44,-1,46,48,50,52,-1,54,56,58,60,62,64,-1,-1,-1,-1,-1,-1,-1,-1,-1,-1,-1,-1,-1,-1,-1,-1,-1,-1,-1,-1,-1,-1],"split_conditions":[-8.105953E-1,1E0,1E0,-3.816877E-1,-1.2685023E-1,-1.2685023E-1,1.034294E0,-1.795118E-1,-7.908394E-2,-2.2423184E-1,-2.0769793E-1,-4.799212E-1,-1.8065298E-1,6.919917E-2,1.947554E0,2.4952829E-2,2.0298603E-1,8.9315705E-2,-1.6432142E-2,-4.1403085E-1,-1.1383206E-1,-6.271478E-2,-5.8533205E-3,-6.814985E-2,1.2171278E-2,-4.0160804E-3,1.5235563E-1,3.009288E0,-3.571733E-1,-8.154215E-2,-3.571733E-1,-5.998038E-2,-2.9590148E-1,-1.2560572E-1,-7.751634E-2,-1.1964257E-1,1.9791918E-1,-8.403226E-1,-4.1254827E-1,-8.055269E-1,-1.7338984E-1,-4.799212E-1,5.935232E-1,-2.4019883E-3,-6.341848E-2,1.7028241E-1,-9.786762E-3,-2.1852183E-3,-7.4252635E-2,1.4885305E-1,-3.2749862E-4,1.39437E-1,-3.6484003E-2,-2.2655712E-2,1.03830814E-1,2.205671E-2,-6.821908E-2,-2.598676E-3,-5.0471276E-2,-5.3408075E-2,1.2569712E-1,-5.623435E-2,1.06967844E-1,-6.704579E-2,3.2028835E-2],"split_indices":[6,12,12,2,2,2,5,0,0,1,0,6,1,1,8,0,0,0,0,2,1,0,1,0,5,0,0,4,2,0,2,0,2,0,1,1,0,5,2,5,1,6,0,0,0,0,0,0,0,0,0,0,0,0,0,0,0,0,0,0,0,0,0,0,0],"split_type":[0,0,0,0,0,0,0,0,0,0,0,0,0,0,0,0,0,0,0,0,0,0,0,0,0,0,0,0,0,0,0,0,0,0,0,0,0,0,0,0,0,0,0,0,0,0,0,0,0,0,0,0,0,0,0,0,0,0,0,0,0,0,0,0,0],"sum_hessian":[1.6086914E2,4.523771E1,1.1563143E2,7.314659E0,3.792305E1,1.5768732E1,9.98627E1,3.9219558E0,3.3927033E0,2.6802607E1,1.1120442E1,1.2958386E1,2.810346E0,8.201544E1,1.784726E1,1.3528037E0,2.569152E0,2.10798E0,1.2847235E0,7.3789964E0,1.942361E1,1.554684E0,9.565759E0,2.0332198E0,1.0925166E1,1.0578606E0,1.7524853E0,7.289533E1,9.120105E0,1.4141262E1,3.7059965E0,1.3666747E0,6.012322E0,1.1451356E1,7.9722548E0,7.9226356E0,1.643123E0,6.649425E0,4.275741E0,7.015432E1,2.7410152E0,5.9629555E0,3.1571493E0,2.0441456E0,1.6618509E0,4.843478E0,1.1688439E0,8.900482E0,2.5508735E0,2.1764526E0,5.795802E0,5.932725E0,1.9899106E0,2.7985468E0,3.8508785E0,2.245643E0,2.0300984E0,2.2150759E1,4.8003563E1,1.1058859E0,1.6351293E0,1.2249861E0,4.7379694E0,1.9142439E0,1.2429054E0],"tree_param":{"num_deleted":"0","num_feature":"28","num_nodes":"65","size_leaf_vector":"1"}},{"base_weights":[2.3237508E-2,6.126563E-1,-2.2862627E-1,4.935647E-1,1.1406715E0,-5.0357625E-2,-4.7296304E-1,5.693307E-1,-6.857171E-2,-3.2466545E-3,1.3112462E0,-1.4555517E-1,6.2464666E-1,-6.101034E-1,1.5894169E-1,1.3251125E0,4.849948E-1,1.5674671E0,5.0807667E-1,-4.4655E-1,9.15485E-2,1.405376E-1,2.5996786E-1,-7.9342353E-1,-3.4148118E-1,-2.1642229E-1,6.9744694E-1,3.143799E-2,1.7589006E-1,7.147953E-2,6.92468E-1,1.8564841E-1,3.375585E-2,-1.2006091E-2,9.432533E-2,2.2375984E-1,-5.434818E-1,-1.16289124E-1,4.377331E-1,-5.806127E-2,5.542589E-1,-8.665178E-1,-7.821311E-2,-6.331798E-2,-7.3776627E-1,2.0196147E-1,-6.932535E-2,1.4770123E-1,-3.977871E-2,3.628072E-2,-7.659413E-2,1.9283818E-1,5.1697183E-2,-2.2125945E-3,4.8344143E-2,-6.084455E-2,3.897949E-2,-4.0407456E-2,5.7787444E-2,-3.695887E-2,6.253371E-2,9.0047225E-2,-5.2244145E-2,-1.8104607E-2,-9.075571E-2,4.7506176E-2,-5.53249E-2,3.2582168E-2,-7.82462E-2,-8.50678E-2,-4.7528115E-3,-6.044156E-2,8.815809E-2,-5.2378215E-2,4.6914585E-2],"categories":[],"categories_nodes":[],"categories_segments":[],"categories_sizes":[],"default_left":[0,0,0,0,0,0,0,0,0,0,0,0,0,0,0,0,0,0,0,0,0,0,0,0,0,0,0,0,0,0,0,0,0,0,0,0,0,0,0,0,0,0,0,0,0,0,0,0,0,0,0,0,0,0,0,0,0,0,0,0,0,0,0,0,0,0,0,0,0,0,0,0,0,0,0],"id":7,"left_children":[1,3,5,7,9,11,13,15,-1,-1,17,19,21,23,25,27,29,31,33,35,37,-1,39,41,43,45,47,-1,-1,49,51,-1,-1,-1,-1,53,55,57,59,-1,61,63,65,67,69,71,-1,-1,73,-1,-1,-1,-1,-1,-1,-1,-1,-1,-1,-1,-1,-1,-1,-1,-1,-1,-1,-1,-1,-1,-1,-1,-1,-1,-1],"loss_changes":[2.4139887E1,2.4975662E0,4.941504E0,4.096327E0,1.682374E0,4.397995E0,4.25381E0,1.8762646E0,0E0,0E0,6.8086815E-1,4.2910323E0,2.0472064E0,1.6801157E0,2.0403314E0,9.333072E-1,3.135954E0,1.1374111E0,9.922809E-1,1.8376689E0,2.5074377E0,0E0,2.054104E0,1.123826E0,1.91835E0,1.3910772E0,2.4013386E0,0E0,0E0,3.5763006E0,4.340786E0,0E0,0E0,0E0,0E0,2.6898515E-1,1.653842E0,4.65323E0,2.2027957E0,0E0,2.5946229E0,4.146576E-1,1.1072114E0,3.4922915E0,5.252578E-1,2.7877877E0,0E0,0E0,1.0016166E0,0E0,0E0,0E0,0E0,0E0,0E0,0E0,0E0,0E0,0E0,0E0,0E0,0E0,0E0,0E0,0E0,0E0,0E0,0E0,0E0,0E0,0E0,0E0,0E0,0E0,0E0],"parents":[2147483647,0,0,1,1,2,2,3,3,4,4,5,5,6,6,7,7,10,10,11,11,12,12,13,13,14,14,15,15,16,16,17,17,18,18,19,19,20,20,22,22,23,23,24,24,25,25,26,26,29,29,30,30,35,35,36,36,37,37,38,38,40,40,41,41,42,42,43,43,44,44,45,45,48,48],"right_children":[2,4,6,8,10,12,14,16,-1,-1,18,20,22,24,26,28,30,32,34,36,38,-1,40,42,44,46,48,-1,-1,50,52,-1,-1,-1,-1,54,56,58,60,-1,62,64,66,68,70,72,-1,-1,74,-1,-1,-1,-1,-1,-1,-1,-1,-1,-1,-1,-1,-1,-1,-1,-1,-1,-1,-1,-1,-1,-1,-1,-1,-1,-1],"split_conditions":[-8.105953E-1,-5.8533205E-3,1.2171278E-2,-6.347426E-2,-4.137727E-1,1.0067279E-1,1.9139973E0,-2.5211808E-1,-6.857171E-2,-3.2466545E-3,1.6016868E0,-3.7953797E-1,-4.146762E-1,1.1882116E0,-1.1543355E-1,-2.5871605E-1,-1.9186424E-1,4.6178538E-1,2.1010415E-1,-4.146762E-1,-3.6919016E-1,1.405376E-1,-4.1403085E-1,6.919917E-2,-1.4336884E-1,-2.0305863E-1,-6.0084794E-2,3.143799E-2,1.7589006E-1,-2.1261081E-1,-1.8426548E-1,1.8564841E-1,3.375585E-2,-1.2006091E-2,9.432533E-2,-1.467583E-1,3.009288E0,1.6016868E0,-2.469897E-1,-5.806127E-2,1E0,-6.89545E-1,2.1010415E-1,-3.9236552E-1,7.03957E-1,-2.2907394E-1,-6.932535E-2,1.4770123E-1,8.9591926E-1,3.628072E-2,-7.659413E-2,1.9283818E-1,5.1697183E-2,-2.2125945E-3,4.8344143E-2,-6.084455E-2,3.897949E-2,-4.0407456E-2,5.7787444E-2,-3.695887E-2,6.253371E-2,9.0047225E-2,-5.2244145E-2,-1.8104607E-2,-9.075571E-2,4.7506176E-2,-5.53249E-2,3.2582168E-2,-7.82462E-2,-8.50678E-2,-4.7528115E-3,-6.044156E-2,8.815809E-2,-5.2378215E-2,4.6914585E-2],"split_indices":[6,1,5,1,2,1,3,0,0,0,7,6,2,6,0,0,0,0,1,2,2,0,2,1,1,0,1,0,0,1,0,0,0,0,0,1,4,7,1,0,14,6,1,2,3,1,0,0,6,0,0,0,0,0,0,0,0,0,0,0,0,0,0,0,0,0,0,0,0,0,0,0,0,0,0],"split_type":[0,0,0,0,0,0,0,0,0,0,0,0,0,0,0,0,0,0,0,0,0,0,0,0,0,0,0,0,0,0,0,0,0,0,0,0,0,0,0,0,0,0,0,0,0,0,0,0,0,0,0,0,0,0,0,0,0,0,0,0,0,0,0,0,0,0,0,0,0,0,0,0,0,0,0],"sum_hessian":[1.6066583E2,4.767139E1,1.1299444E2,4.047678E1,7.1946106E0,6.6027054E1,4.6967384E1,3.8519238E1,1.9575446E0,1.0160848E0,6.178526E0,5.855348E1,7.473579E0,3.8620247E1,8.347137E0,2.3898766E0,3.612936E1,3.962756E0,2.21577E0,2.5411327E1,3.314215E1,1.4708803E0,6.002699E0,2.1793615E1,1.6826632E1,5.271061E0,3.0760765E0,1.2356125E0,1.1542641E0,1.25200815E1,2.360928E1,2.7962213E0,1.1665347E0,1.2031881E0,1.012582E0,3.045113E0,2.2366215E1,2.1124058E1,1.2018092E1,1.3043051E0,4.698394E0,1.9580898E1,2.2127173E0,1.0568262E1,6.258369E0,3.114644E0,2.156417E0,1.0073742E0,2.0687025E0,9.709151E0,2.81093E0,1.6936626E0,2.1915617E1,2.0339828E0,1.0111302E0,2.1236065E1,1.13015E0,1.5228531E1,5.895527E0,2.0832276E0,9.934864E0,3.6790636E0,1.01933E0,1.4117773E0,1.816912E1,1.0221562E0,1.190561E0,7.2124357E0,3.3558264E0,5.1787653E0,1.0796032E0,1.4750885E0,1.6395556E0,1.0453486E0,1.0233538E0],"tree_param":{"num_deleted":"0","num_feature":"28","num_nodes":"75","size_leaf_vector":"1"}},{"base_weights":[2.2743411E-2,5.3748465E-1,-2.120111E-1,4.5638967E-1,1.220577E0,2.782904E-1,-2.963581E-1,1.1173912E0,3.831812E-1,1.7593604E-1,4.469499E-1,-2.4390668E-1,5.483328E-1,-2.0500265E-1,-7.1418285E-1,1.4886225E0,-2.405905E-3,-3.461818E-1,4.8098293E-1,-1.6550122E-2,9.12805E-2,-4.6467087E-1,4.6487194E-2,-3.424419E-2,7.7007395E-1,-3.6644968E-1,3.307225E-2,-7.872215E-2,-3.3181143E-1,1.8394469E-1,4.1604657E-2,2.7736738E-2,-5.9078735E-1,2.8112385E-1,8.313151E-1,-1.4490394E-1,-6.795995E-2,1.4145857E0,2.3275028E-1,-5.8797747E-1,-1.4726943E-1,8.934359E-1,-1.6107328E-1,1.4825944E-3,-6.0670048E-2,-7.451438E-2,-3.7884042E-3,7.852072E-2,5.2451347E-3,1.0660654E-1,1.8444397E-2,-1.9441394E-2,-1.2006597E-3,6.157521E-2,1.9208443E-1,-7.145094E-2,9.476999E-2,2.1551168E-2,-8.006319E-2,-7.743442E-2,-2.2645637E-3,1.3605548E-1,-5.609823E-2,-2.5793184E-2,4.8083495E-2],"categories":[],"categories_nodes":[],"categories_segments":[],"categories_sizes":[],"default_left":[0,0,0,0,0,0,0,0,0,0,0,0,0,0,0,0,0,0,0,0,0,0,0,0,0,0,0,0,0,0,0,0,0,0,0,0,0,0,0,0,0,0,0,0,0,0,0,0,0,0,0,0,0,0,0,0,0,0,0,0,0,0,0,0,0],"id":8,"left_children":[1,3,5,7,9,11,13,15,17,-1,19,21,23,25,27,29,-1,31,33,-1,-1,35,-1,-1,37,39,41,-1,43,-1,-1,-1,45,47,49,51,-1,53,55,57,59,61,63,-1,-1,-1,-1,-1,-1,-1,-1,-1,-1,-1,-1,-1,-1,-1,-1,-1,-1,-1,-1,-1,-1],"loss_changes":[1.9627396E1,2.2604885E0,4.698656E0,1.8492212E0,1.214489E0,2.516849E0,3.507371E0,1.8031187E0,3.2974205E0,0E0,1.095803E0,1.2256587E0,2.5247524E0,3.085149E0,2.0718479E-1,4.2492104E-1,0E0,1.0440938E0,2.5053968E0,0E0,0E0,2.7403605E-1,0E0,0E0,2.9514747E0,2.2306952E0,5.693738E0,0E0,4.3001267E-1,0E0,0E0,0E0,3.5279584E-1,3.0043347E0,1.8837128E0,2.0364054E-2,0E0,4.7943878E-1,4.986573E0,4.1710443E0,1.9614952E0,5.0229115E0,1.8621378E0,0E0,0E0,0E0,0E0,0E0,0E0,0E0,0E0,0E0,0E0,0E0,0E0,0E0,0E0,0E0,0E0,0E0,0E0,0E0,0E0,0E0,0E0],"parents":[2147483647,0,0,1,1,2,2,3,3,4,4,5,5,6,6,7,7,8,8,10,10,11,11,12,12,13,13,14,14,15,15,17,17,18,18,21,21,24,24,25,25,26,26,28,28,32,32,33,33,34,34,35,35,37,37,38,38,39,39,40,40,41,41,42,42],"right_children":[2,4,6,8,10,12,14,16,18,-1,20,22,24,26,28,30,-1,32,34,-1,-1,36,-1,-1,38,40,42,-1,44,-1,-1,-1,46,48,50,52,-1,54,56,58,60,62,64,-1,-1,-1,-1,-1,-1,-1,-1,-1,-1,-1,-1,-1,-1,-1,-1,-1,-1,-1,-1,-1,-1],"split_conditions":[-8.105953E-1,2.7268878E-1,1E0,-2.5028095E-1,3.035566E-1,-4.1349015E-1,1.034294E0,-3.816877E-1,-2.421476E-1,1.7593604E-1,6.955628E0,1.947554E0,-2.2616868E-1,-1.4482147E-1,1.947554E0,-2.6490545E-1,-2.405905E-3,-2.3887925E-1,-1.849317E-1,-1.6550122E-2,9.12805E-2,-1.5014778E-1,4.6487194E-2,-3.424419E-2,-1.6709511E-1,-4.025215E-1,-4.146762E-1,-7.872215E-2,-3.571733E-1,1.8394469E-1,4.1604657E-2,2.7736738E-2,1.6016868E0,-4.137727E-1,-7.6825045E-2,-1.9856873E-1,-6.795995E-2,-1.0791282E-1,-1.01737216E-1,-2.4817932E-1,-2.5957915E-1,-1.270114E-1,9.168587E-1,1.4825944E-3,-6.0670048E-2,-7.451438E-2,-3.7884042E-3,7.852072E-2,5.2451347E-3,1.0660654E-1,1.8444397E-2,-1.9441394E-2,-1.2006597E-3,6.157521E-2,1.9208443E-1,-7.145094E-2,9.476999E-2,2.1551168E-2,-8.006319E-2,-7.743442E-2,-2.2645637E-3,1.3605548E-1,-5.609823E-2,-2.5793184E-2,4.8083495E-2],"split_indices":[6,0,12,0,1,2,5,2,1,0,1,8,1,1,8,1,0,0,2,0,0,1,0,0,1,2,2,0,2,0,0,0,7,2,0,1,0,6,0,0,1,5,5,0,0,0,0,0,0,0,0,0,0,0,0,0,0,0,0,0,0,0,0,0,0],"split_type":[0,0,0,0,0,0,0,0,0,0,0,0,0,0,0,0,0,0,0,0,0,0,0,0,0,0,0,0,0,0,0,0,0,0,0,0,0,0,0,0,0,0,0,0,0,0,0,0,0,0,0,0,0,0,0,0,0,0,0,0,0,0,0,0,0],"sum_hessian":[1.6048457E2,4.9862522E1,1.10622055E2,4.6062252E1,3.8002698E0,1.5899625E1,9.472243E1,3.170705E0,4.289155E1,1.4890603E0,2.3112094E0,5.452529E0,1.0447096E1,7.8950836E1,1.5771594E1,2.1630657E0,1.0076395E0,4.7711005E0,3.8120445E1,1.2770422E0,1.0341674E0,4.420177E0,1.032352E0,1.9737703E0,8.473326E0,4.6725437E1,3.22254E1,1.2353168E1,3.418426E0,1.0911771E0,1.0718886E0,1.3065362E0,3.464564E0,2.5420752E1,1.2699695E1,2.4497213E0,1.9704558E0,3.110126E0,5.3632E0,2.2401443E1,2.4323994E1,5.2698708E0,2.6955528E1,1.9303298E0,1.4880962E0,2.4366271E0,1.027937E0,7.173592E0,1.824716E1,8.842652E0,3.8570423E0,1.4475559E0,1.0021654E0,2.0661674E0,1.0439587E0,2.3070848E0,3.0561152E0,4.6852713E0,1.7716171E1,3.1683283E0,2.1155664E1,4.0376315E0,1.232239E0,2.3941185E1,3.0143437E0],"tree_param":{"num_deleted":"0","num_feature":"28","num_nodes":"65","size_leaf_vector":"1"}},{"base_weights":[2.2633754E-2,4.7604817E-1,-1.9616322E-1,9.210198E-1,3.6922243E-1,-2.5793678E-1,4.1837767E-1,1.2032429E0,3.9522326E-1,2.594528E-1,8.021814E-1,-6.9470555E-1,-1.5520397E-1,8.9283854E-1,8.470814E-2,2.980185E-2,1.6038816E-1,6.771094E-1,-1.9072538E-2,7.627345E-1,1.2097554E-1,1.0829553E-1,1.7126201E-1,2.9095037E-2,-7.850435E-1,-2.6406118E-1,3.2899347E-1,-9.4306525E-3,1.3069974E-1,-4.119027E-1,8.09507E-1,-4.0478404E-3,9.967226E-2,-5.4715063E-2,1.0637615E0,-7.198476E-2,2.1514621E-1,-5.9102207E-2,4.1930687E-1,-8.303248E-2,-6.917705E-3,-7.6860285E-1,-1.4843772E-1,1.2588733E0,5.258749E-2,3.1294316E-2,-7.459294E-2,1.3833301E-1,-1.0906521E-2,-2.0661166E-2,1.4524275E-1,2.9171258E-2,-6.320193E-2,1.2823491E-1,-4.227753E-2,-3.158244E-2,-8.999539E-2,-2.245785E-2,5.8335822E-2,1.6242866E-1,3.2684024E-2,-4.6567827E-2,5.9982117E-2],"categories":[],"categories_nodes":[],"categories_segments":[],"categories_sizes":[],"default_left":[0,0,0,0,0,0,0,0,0,0,0,0,0,0,0,0,0,0,0,0,0,0,0,0,0,0,0,0,0,0,0,0,0,0,0,0,0,0,0,0,0,0,0,0,0,0,0,0,0,0,0,0,0,0,0,0,0,0,0,0,0,0,0],"id":9,"left_children":[1,3,5,7,9,11,13,15,17,19,21,23,25,27,29,-1,-1,31,-1,33,35,37,-1,-1,39,41,43,-1,-1,45,47,-1,-1,-1,49,-1,51,-1,53,-1,-1,55,57,59,61,-1,-1,-1,-1,-1,-1,-1,-1,-1,-1,-1,-1,-1,-1,-1,-1,-1,-1],"loss_changes":[1.6088997E1,2.1684494E0,4.2634397E0,9.412117E-1,1.8937025E0,4.3830233E0,1.5676104E0,1.5977774E0,9.2589694E-1,2.4695342E0,5.163288E0,1.8997812E0,4.4255133E0,1.8325386E0,2.9246073E0,0E0,0E0,8.377389E-1,0E0,3.63524E0,2.531508E0,1.5250137E0,0E0,0E0,5.0869846E-1,3.8388004E0,3.9316268E0,0E0,0E0,1.4281974E0,1.8714244E0,0E0,0E0,0E0,3.5765452E0,0E0,1.9851387E0,0E0,3.9212399E0,0E0,0E0,4.5286608E-1,3.271694E0,6.681137E-1,3.9758701E0,0E0,0E0,0E0,0E0,0E0,0E0,0E0,0E0,0E0,0E0,0E0,0E0,0E0,0E0,0E0,0E0,0E0,0E0],"parents":[2147483647,0,0,1,1,2,2,3,3,4,4,5,5,6,6,7,7,8,8,9,9,10,10,11,11,12,12,13,13,14,14,17,17,19,19,20,20,21,21,24,24,25,25,26,26,29,29,30,30,34,34,36,36,38,38,41,41,42,42,43,43,44,44],"right_children":[2,4,6,8,10,12,14,16,18,20,22,24,26,28,30,-1,-1,32,-1,34,36,38,-1,-1,40,42,44,-1,-1,46,48,-1,-1,-1,50,-1,52,-1,54,-1,-1,56,58,60,62,-1,-1,-1,-1,-1,-1,-1,-1,-1,-1,-1,-1,-1,-1,-1,-1,-1,-1],"split_conditions":[-8.105953E-1,1E0,1E0,-3.816877E-1,1.8750244E0,-2.3391603E-1,-2.068003E-1,-1.8501087E-1,-7.908394E-2,-2.3924235E-1,-1.2496888E-1,-2.701249E-1,1.9139973E0,-2.5570548E-1,-8.789077E-2,2.980185E-2,1.6038816E-1,-1.2685023E-1,-1.9072538E-2,-4.1403085E-1,-2.2088674E-1,-2.1842133E-1,1.7126201E-1,2.9095037E-2,1E0,1E0,-2.068003E-1,-9.4306525E-3,1.3069974E-1,1E0,1.0892958E-2,-4.0478404E-3,9.967226E-2,-5.4715063E-2,-2.7120018E-1,-7.198476E-2,-1.1442218E0,-5.9102207E-2,-1.7532668E-1,-8.303248E-2,-6.917705E-3,-4.144697E-1,2.7268878E-1,-6.489464E-1,-1.1543355E-1,3.1294316E-2,-7.459294E-2,1.3833301E-1,-1.0906521E-2,-2.0661166E-2,1.4524275E-1,2.9171258E-2,-6.320193E-2,1.2823491E-1,-4.227753E-2,-3.158244E-2,-8.999539E-2,-2.245785E-2,5.8335822E-2,1.6242866E-1,3.2684024E-2,-4.6567827E-2,5.9982117E-2],"split_indices":[6,12,18,2,2,1,1,1,0,1,1,0,3,1,0,0,0,2,0,2,0,1,0,0,21,19,1,0,0,21,0,0,0,0,1,0,6,0,1,0,0,2,0,5,0,0,0,0,0,0,0,0,0,0,0,0,0,0,0,0,0,0,0],"split_type":[0,0,0,0,0,0,0,0,0,0,0,0,0,0,0,0,0,0,0,0,0,0,0,0,0,0,0,0,0,0,0,0,0,0,0,0,0,0,0,0,0,0,0,0,0,0,0,0,0,0,0,0,0,0,0,0,0,0,0,0,0,0,0],"sum_hessian":[1.6023683E2,5.1772526E1,1.084643E2,8.547421E0,4.3225105E1,9.908462E1,9.37969E0,4.723596E0,3.8238254E0,3.5758408E1,7.4666996E0,1.7770597E1,8.131402E1,3.180858E0,6.1988325E0,1.9842145E0,2.7393818E0,2.476744E0,1.3470815E0,6.743138E0,2.9015268E1,4.8722725E0,2.594427E0,1.3055335E0,1.6465065E1,6.675974E1,1.4554276E1,1.1683636E0,2.0124943E0,3.934636E0,2.2641962E0,1.032331E0,1.444413E0,1.1072874E0,5.6358504E0,2.2531815E0,2.6762087E1,1.2226921E0,3.6495805E0,1.5335168E1,1.1298972E0,1.1393761E1,5.536598E1,2.5204818E0,1.2033794E1,1.2611123E0,2.673524E0,1.0821998E0,1.1819965E0,1.4300556E0,4.205795E0,2.5145144E1,1.6169442E0,1.544157E0,2.1054235E0,3.3276143E0,8.066146E0,5.0776028E1,4.5899515E0,1.2770616E0,1.2434204E0,6.2570214E0,5.776773E0],"tree_param":{"num_deleted":"0","num_feature":"28","num_nodes":"63","size_leaf_vector":"1"}},{"base_weights":[2.2770707E-2,4.1888404E-1,-1.7929274E-1,3.7371984E-1,1.3933231E-1,-2.2167073E-1,6.815427E-1,8.197315E-1,2.6511124E-1,-6.251481E-2,-4.5748645E-1,-2.118676E-1,1.706411E-1,1.0545812E0,3.626621E-1,3.7204316E-1,-1.8239726E-1,-1.5158197E-1,5.41796E-1,-5.65063E-1,4.896691E-3,2.6877204E-2,-5.9506442E-2,4.0718925E-1,1.5744184E-1,-1.8088458E-2,6.200763E-1,1.9638087E-1,6.8839157E-1,5.6536656E-2,-4.003879E-1,-4.4693306E-1,5.63041E-2,6.219178E-3,8.272118E-1,-7.398709E-1,-3.2890192E-1,-2.1377322E-1,7.017115E-2,-6.0640294E-2,1.1213219E-1,1.5533733E-2,8.7738864E-2,4.3697625E-2,-3.9604686E-2,3.215894E-2,1.6039471E-1,-1.1275602E-2,-7.4276395E-2,2.568473E-2,-5.6295317E-2,-1.0532498E-2,5.658896E-2,3.136301E-2,-2.6060004E-2,-1.3296999E-2,1.1531611E-1,-8.294679E-2,4.0218434E-3,-6.578833E-3,-7.048312E-2,4.9136363E-2,-3.9920148E-2],"categories":[],"categories_nodes":[],"categories_segments":[],"categories_sizes":[],"default_left":[0,0,0,0,0,0,0,0,0,0,0,0,0,0,0,0,0,0,0,0,0,0,0,0,0,0,0,0,0,0,0,0,0,0,0,0,0,0,0,0,0,0,0,0,0,0,0,0,0,0,0,0,0,0,0,0,0,0,0,0,0,0,0],"id":10,"left_children":[1,3,5,7,-1,9,11,13,15,17,19,21,-1,23,25,27,29,31,33,35,37,-1,-1,39,-1,-1,41,43,45,-1,47,49,51,53,55,57,59,61,-1,-1,-1,-1,-1,-1,-1,-1,-1,-1,-1,-1,-1,-1,-1,-1,-1,-1,-1,-1,-1,-1,-1,-1,-1],"loss_changes":[1.2954316E1,1.8846331E0,4.0637856E0,2.3791208E0,0E0,3.8362827E0,5.1939683E0,6.9293356E-1,2.2012436E0,3.453689E0,2.0589285E0,8.431059E-1,0E0,1.4097018E0,8.0118567E-1,1.8827305E0,1.7373179E0,3.4251678E0,1.2582598E0,1.1414204E0,1.4898944E0,0E0,0E0,3.6207683E0,0E0,0E0,2.9034638E-1,3.7004113E0,3.7040586E0,0E0,6.80683E-1,2.021563E0,2.8095624E0,4.0005377E-1,1.8384068E0,1.3246613E0,1.5429672E0,1.1715138E0,0E0,0E0,0E0,0E0,0E0,0E0,0E0,0E0,0E0,0E0,0E0,0E0,0E0,0E0,0E0,0E0,0E0,0E0,0E0,0E0,0E0,0E0,0E0,0E0,0E0],"parents":[2147483647,0,0,1,1,2,2,3,3,5,5,6,6,7,7,8,8,9,9,10,10,11,11,13,13,14,14,15,15,16,16,17,17,18,18,19,19,20,20,23,23,26,26,27,27,28,28,30,30,31,31,32,32,33,33,34,34,35,35,36,36,37,37],"right_children":[2,4,6,8,-1,10,12,14,16,18,20,22,-1,24,26,28,30,32,34,36,38,-1,-1,40,-1,-1,42,44,46,-1,48,50,52,54,56,58,60,62,-1,-1,-1,-1,-1,-1,-1,-1,-1,-1,-1,-1,-1,-1,-1,-1,-1,-1,-1,-1,-1,-1,-1,-1,-1],"split_conditions":[-8.105953E-1,5.123835E0,3.009288E0,1E0,1.3933231E-1,1.2171278E-2,4.9438643E-1,-3.816877E-1,1.947554E0,9.002574E-2,1.9139973E0,-6.837421E-1,1.706411E-1,1E0,-1.849317E-1,-1.210952E-1,-2.4069497E-1,-3.7953797E-1,-8.055269E-1,1.1882116E0,1E0,2.6877204E-2,-5.9506442E-2,-1.4552116E-1,1.5744184E-1,-1.8088458E-2,-1.210952E-1,-1.7484246E-1,1.8750244E0,5.6536656E-2,-1.0705312E-1,-4.146762E-1,1.947554E0,3.035566E-1,-7.367841E-1,1E0,-1.4336884E-1,-2.325958E-1,7.017115E-2,-6.0640294E-2,1.1213219E-1,1.5533733E-2,8.7738864E-2,4.3697625E-2,-3.9604686E-2,3.215894E-2,1.6039471E-1,-1.1275602E-2,-7.4276395E-2,2.568473E-2,-5.6295317E-2,-1.0532498E-2,5.658896E-2,3.136301E-2,-2.6060004E-2,-1.3296999E-2,1.1531611E-1,-8.294679E-2,4.0218434E-3,-6.578833E-3,-7.048312E-2,4.9136363E-2,-3.9920148E-2],"split_indices":[6,4,4,12,0,5,6,2,8,0,3,5,0,16,2,1,1,6,5,6,24,0,0,0,0,0,1,1,2,0,1,2,8,1,6,21,1,0,0,0,0,0,0,0,0,0,0,0,0,0,0,0,0,0,0,0,0,0,0,0,0,0,0],"split_type":[0,0,0,0,0,0,0,0,0,0,0,0,0,0,0,0,0,0,0,0,0,0,0,0,0,0,0,0,0,0,0,0,0,0,0,0,0,0,0,0,0,0,0,0,0,0,0,0,0,0,0,0,0,0,0,0,0,0,0,0,0,0,0],"sum_hessian":[1.5990967E2,5.3654835E1,1.0625483E2,5.2600388E1,1.0544472E0,1.01977104E2,4.2777286E0,9.0183E0,4.358209E1,6.164021E1,4.033689E1,2.7092566E0,1.568472E0,5.0937715E0,3.9245286E0,3.531276E1,8.269329E0,5.437521E1,7.264997E0,3.254339E1,7.7935033E0,1.3342841E0,1.3749726E0,3.0627742E0,2.0309975E0,1.356819E0,2.5677097E0,2.3747177E1,1.1565583E1,1.5068638E0,6.7624655E0,2.1987251E1,3.238796E1,2.8808777E0,4.384119E0,1.7475214E1,1.5068175E1,6.4596057E0,1.3338978E0,1.3283114E0,1.7344626E0,1.4865332E0,1.0811765E0,1.707508E1,6.6720953E0,9.222137E0,2.3434463E0,4.3974657E0,2.3649998E0,2.939905E0,1.9047346E1,2.5191193E1,7.1967683E0,1.2570964E0,1.6237812E0,1.2611312E0,3.122988E0,1.5618102E1,1.857112E0,9.555362E0,5.5128136E0,1.001452E0,5.4581537E0],"tree_param":{"num_deleted":"0","num_feature":"28","num_nodes":"63","size_leaf_vector":"1"}},{"base_weights":[2.3804516E-2,3.7595084E-1,-1.6411589E-1,3.10347E-1,9.324266E-1,2.92584E-1,-2.4734779E-1,9.048364E-1,2.4703598E-1,1.8548869E-1,2.866727E-1,-2.0730811E-1,5.344268E-1,-1.6503347E-1,-6.6447484E-1,1.2118328E0,-5.6513785E-3,-3.9616048E-1,3.3381426E-1,-5.7062842E-2,7.724507E-1,-4.2966846E-1,4.4503424E-2,-3.0198006E-2,7.209899E-1,-2.0821476E-1,6.0665894E-1,-7.4678056E-2,-2.6891816E-1,1.5037082E-1,3.3920955E-2,1.7420225E-2,-6.151264E-1,1.3912426E-1,2.7390125E-1,-1.4998848E-2,1.4024942E-1,-1.0849825E-1,-6.568581E-2,1.685242E-1,3.840477E-1,-2.3737194E-1,8.916002E-2,-5.1851362E-2,1.1263051E0,-5.760176E-2,9.095816E-3,-7.516977E-2,-1.0400553E-2,1.5443829E-2,6.983081E-2,-9.80197E-4,-1.4701654E-2,-5.6636967E-2,6.2349003E-2,4.3913234E-2,-2.7442023E-2,1.4489514E-1,3.269365E-2],"categories":[],"categories_nodes":[],"categories_segments":[],"categories_sizes":[],"default_left":[0,0,0,0,0,0,0,0,0,0,0,0,0,0,0,0,0,0,0,0,0,0,0,0,0,0,0,0,0,0,0,0,0,0,0,0,0,0,0,0,0,0,0,0,0,0,0,0,0,0,0,0,0,0,0,0,0,0,0],"id":11,"left_children":[1,3,5,7,9,11,13,15,17,-1,19,21,23,25,27,29,-1,31,33,-1,35,37,-1,-1,39,41,43,-1,45,-1,-1,-1,47,-1,49,-1,-1,51,-1,-1,53,55,-1,-1,57,-1,-1,-1,-1,-1,-1,-1,-1,-1,-1,-1,-1,-1,-1],"loss_changes":[1.0679862E1,1.759954E0,4.0757675E0,1.7228789E0,2.6974978E0,2.1289396E0,2.9676943E0,1.426609E0,2.8176649E0,0E0,2.2613747E0,1.0852469E0,2.0168922E0,2.6650002E0,2.693286E-1,3.896432E-1,0E0,8.785811E-1,2.3390684E0,0E0,2.0790215E0,3.0125237E-1,0E0,0E0,2.5115705E0,2.5491118E0,3.0938878E0,0E0,4.999953E-1,0E0,0E0,0E0,2.4878526E-1,0E0,2.015433E0,0E0,0E0,1.1153869E-2,0E0,0E0,2.2874627E0,1.9200401E0,0E0,0E0,3.649478E-1,0E0,0E0,0E0,0E0,0E0,0E0,0E0,0E0,0E0,0E0,0E0,0E0,0E0,0E0],"parents":[2147483647,0,0,1,1,2,2,3,3,4,4,5,5,6,6,7,7,8,8,10,10,11,11,12,12,13,13,14,14,15,15,17,17,18,18,20,20,21,21,24,24,25,25,26,26,28,28,32,32,34,34,37,37,40,40,41,41,44,44],"right_children":[2,4,6,8,10,12,14,16,18,-1,20,22,24,26,28,30,-1,32,34,-1,36,38,-1,-1,40,42,44,-1,46,-1,-1,-1,48,-1,50,-1,-1,52,-1,-1,54,56,-1,-1,58,-1,-1,-1,-1,-1,-1,-1,-1,-1,-1,-1,-1,-1,-1],"split_conditions":[-8.105953E-1,2.7268878E-1,1E0,-2.5028095E-1,2.3189358E-1,-4.1349015E-1,1.034294E0,-3.816877E-1,-2.421476E-1,1.8548869E-1,-3.9734393E-1,1.947554E0,-2.2616868E-1,3.009288E0,1.947554E0,-2.6490545E-1,-5.6513785E-3,-2.3887925E-1,-2.3924235E-1,-5.7062842E-2,6.042507E-1,-1.5014778E-1,4.4503424E-2,-3.0198006E-2,-2.0002136E-1,6.9832277E0,-1.7338984E-1,-7.4678056E-2,-4.025215E-1,1.5037082E-1,3.3920955E-2,1.7420225E-2,-2.4892654E-1,1.3912426E-1,1.8750244E0,-1.4998848E-2,1.4024942E-1,-2.1842133E-1,-6.568581E-2,1.685242E-1,-1.8065298E-1,-4.1519454E-1,8.916002E-2,-5.1851362E-2,-1.035958E-1,-5.760176E-2,9.095816E-3,-7.516977E-2,-1.0400553E-2,1.5443829E-2,6.983081E-2,-9.80197E-4,-1.4701654E-2,-5.6636967E-2,6.2349003E-2,4.3913234E-2,-2.7442023E-2,1.4489514E-1,3.269365E-2],"split_indices":[6,0,12,0,1,2,5,2,1,0,2,8,1,4,8,1,0,0,1,0,1,1,0,0,1,1,1,0,2,0,0,0,1,0,2,0,0,1,0,0,1,2,0,0,0,0,0,0,0,0,0,0,0,0,0,0,0,0,0],"split_type":[0,0,0,0,0,0,0,0,0,0,0,0,0,0,0,0,0,0,0,0,0,0,0,0,0,0,0,0,0,0,0,0,0,0,0,0,0,0,0,0,0,0,0,0,0,0,0,0,0,0,0,0,0,0,0,0,0,0,0],"sum_hessian":[1.5945464E2,5.5135315E1,1.0431932E2,5.071423E1,4.421085E0,1.5693357E1,8.862596E1,3.6017663E0,4.7112465E1,1.0494739E0,3.371611E0,5.1633816E0,1.0529976E1,7.51849E1,1.3441067E1,2.532491E0,1.0692754E0,5.176833E0,4.193563E1,1.1563013E0,2.2153099E0,4.1053567E0,1.0580251E0,1.8075675E0,8.722408E0,7.1892235E1,3.2926617E0,1.0391025E1,3.0500429E0,1.3557987E0,1.1766922E0,1.492805E0,3.6840281E0,1.0571167E0,4.0878513E1,1.2082561E0,1.0070537E0,2.3130474E0,1.7923092E0,1.2224516E0,7.4999566E0,7.079944E1,1.0927911E0,1.0409365E0,2.2517254E0,1.3216325E0,1.7284102E0,2.5357828E0,1.1482453E0,3.2963707E1,7.914806E0,1.0014597E0,1.3115876E0,1.2344985E0,6.265458E0,3.1124763E0,6.7686966E1,1.0252768E0,1.2264485E0],"tree_param":{"num_deleted":"0","num_feature":"28","num_nodes":"59","size_leaf_vector":"1"}},{"base_weights":[2.5379693E-2,-9.442728E-3,1.6804346E0,2.8985053E-1,-1.754699E-1,2.5131553E-1,-4.4189566E-3,6.808396E-1,1.9409427E-1,-3.8317636E-2,-3.8776833E-1,4.808967E-1,1.25905E-1,2.831671E-1,-1.9274238E-1,-8.533288E-2,8.8278234E-2,-5.113178E-1,9.596941E-2,7.610402E-1,-2.2053733E-1,1.02104686E-1,2.1697876E-1,4.946412E-2,-3.997005E-1,-1.798452E-1,2.3387605E-1,-6.9566655E-1,-2.210848E-1,6.8724915E-2,-1.6488105E-1,1.5673639E-1,3.133815E-2,-6.4957224E-2,3.8759474E-2,-7.0104934E-2,2.906685E-2,-1.2758306E-2,-7.3303424E-2,-4.788166E-3,-5.04955E-2,-4.0010307E-2,9.124728E-2,-7.758763E-2,1.3083899E-4,5.6552347E-3,-6.499823E-2,5.1551707E-2,-5.9805896E-2],"categories":[],"categories_nodes":[],"categories_segments":[],"categories_sizes":[],"default_left":[0,0,0,0,0,0,0,0,0,0,0,0,0,0,0,0,0,0,0,0,0,0,0,0,0,0,0,0,0,0,0,0,0,0,0,0,0,0,0,0,0,0,0,0,0,0,0,0,0],"id":12,"left_children":[1,3,5,7,9,-1,-1,11,13,15,17,19,-1,21,23,25,-1,27,29,31,33,-1,35,-1,37,39,41,43,45,-1,47,-1,-1,-1,-1,-1,-1,-1,-1,-1,-1,-1,-1,-1,-1,-1,-1,-1,-1],"loss_changes":[9.233429E0,7.883829E0,4.8521423E0,1.9877319E0,2.9554727E0,0E0,0E0,6.3619137E-1,1.6699412E0,2.8072543E0,2.4354076E0,2.0539749E0,0E0,1.6593254E0,1.5305976E0,1.8803539E0,0E0,1.5563583E0,1.4960645E0,2.0657673E0,1.1688071E0,0E0,2.680501E0,0E0,6.0984135E-1,2.017058E0,6.540605E0,1.0677433E0,1.6897693E0,0E0,2.3794916E0,0E0,0E0,0E0,0E0,0E0,0E0,0E0,0E0,0E0,0E0,0E0,0E0,0E0,0E0,0E0,0E0,0E0,0E0],"parents":[2147483647,0,0,1,1,2,2,3,3,4,4,7,7,8,8,9,9,10,10,11,11,13,13,14,14,15,15,17,17,18,18,19,19,20,20,22,22,24,24,25,25,26,26,27,27,28,28,30,30],"right_children":[2,4,6,8,10,-1,-1,12,14,16,18,20,-1,22,24,26,-1,28,30,32,34,-1,36,-1,38,40,42,44,46,-1,48,-1,-1,-1,-1,-1,-1,-1,-1,-1,-1,-1,-1,-1,-1,-1,-1,-1,-1],"split_conditions":[7.2383823E0,-8.105953E-1,1E0,1E0,1.2171278E-2,2.5131553E-1,-4.4189566E-3,1.3030853E-2,1.947554E0,-2.0095219E-1,1.9139973E0,-7.908394E-2,1.25905E-1,-2.5299734E-1,-2.4069497E-1,1.947554E0,8.8278234E-2,1.7550814E0,-3.571733E-1,-4.137727E-1,-2.2118349E-2,1.02104686E-1,-2.3962268E-1,4.946412E-2,-1.0705312E-1,1.6016868E0,-1.6582261E-1,6.919917E-2,-1.4336884E-1,6.8724915E-2,-2.0305863E-1,1.5673639E-1,3.133815E-2,-6.4957224E-2,3.8759474E-2,-7.0104934E-2,2.906685E-2,-1.2758306E-2,-7.3303424E-2,-4.788166E-3,-5.04955E-2,-4.0010307E-2,9.124728E-2,-7.758763E-2,1.3083899E-4,5.6552347E-3,-6.499823E-2,5.1551707E-2,-5.9805896E-2],"split_indices":[4,6,23,12,5,0,0,1,8,5,3,0,0,0,1,8,0,6,2,2,0,0,0,0,1,7,0,1,1,0,0,0,0,0,0,0,0,0,0,0,0,0,0,0,0,0,0,0,0],"split_type":[0,0,0,0,0,0,0,0,0,0,0,0,0,0,0,0,0,0,0,0,0,0,0,0,0,0,0,0,0,0,0,0,0,0,0,0,0,0,0,0,0,0,0,0,0,0,0,0,0],"sum_hessian":[1.5893542E2,1.5663412E2,2.3012938E0,5.5621243E1,1.0101289E2,1.2436086E0,1.0576851E0,9.740203E0,4.588104E1,6.2084564E1,3.8928326E1,8.598556E0,1.1416478E0,3.7511623E1,8.369415E0,5.9932804E1,2.151762E0,3.0963144E1,7.9651823E0,6.0837917E0,2.5147636E0,1.9003035E0,3.5611317E1,1.6150821E0,6.7543335E0,4.657834E1,1.3354463E1,1.8081379E1,1.2881766E1,1.9378762E0,6.027306E0,1.2789311E0,4.8048606E0,1.4345505E0,1.0802132E0,2.0135052E0,3.3597813E1,4.479906E0,2.2744277E0,3.3946556E1,1.2631784E1,7.11638E0,6.2380824E0,1.611376E1,1.9676191E0,8.346798E0,4.534968E0,2.2706637E0,3.7566423E0],"tree_param":{"num_deleted":"0","num_feature":"28","num_nodes":"49","size_leaf_vector":"1"}},{"base_weights":[2.5065232E-2,-7.6461597E-3,1.453797E0,-3.1891875E-2,1.7428459E-1,2.150356E-1,-6.704107E-3,2.473299E-1,-1.9333623E-1,6.1604017E-1,1.5583837E-1,1.0151507E-1,-2.7488643E-1,4.3611747E-1,1.12945795E-1,2.594057E-1,-1.3796943E-1,-1.267409E-1,5.6114984E-1,-3.4469748E-1,2.059957E-1,8.382451E-2,-6.840213E-4,-6.330458E-2,3.1699654E-2,-5.0496113E-2,2.9595712E-2,6.943811E-2,-2.5176674E-2,9.24708E-2,-5.9835255E-2,-1.9047437E-2,-6.1058577E-2,9.064687E-2,-2.065071E-3],"categories":[],"categories_nodes":[],"categories_segments":[],"categories_sizes":[],"default_left":[0,0,0,0,0,0,0,0,0,0,0,0,0,0,0,0,0,0,0,0,0,0,0,0,0,0,0,0,0,0,0,0,0,0,0],"id":13,"left_children":[1,3,5,7,-1,-1,-1,9,11,13,15,17,19,21,-1,23,25,27,29,31,33,-1,-1,-1,-1,-1,-1,-1,-1,-1,-1,-1,-1,-1,-1],"loss_changes":[7.475963E0,6.7250795E0,3.9370003E0,7.0791726E0,0E0,0E0,0E0,1.8465271E0,2.4178822E0,5.336685E-1,1.4803859E0,2.4070423E0,2.6939073E0,1.7612627E0,0E0,2.0226195E0,2.223805E0,1.7858676E0,3.7453487E0,2.6967115E0,1.6905317E0,0E0,0E0,0E0,0E0,0E0,0E0,0E0,0E0,0E0,0E0,0E0,0E0,0E0,0E0],"parents":[2147483647,0,0,1,1,2,2,3,3,7,7,8,8,9,9,10,10,11,11,12,12,13,13,15,15,16,16,17,17,18,18,19,19,20,20],"right_children":[2,4,6,8,-1,-1,-1,10,12,14,16,18,20,22,-1,24,26,28,30,32,34,-1,-1,-1,-1,-1,-1,-1,-1,-1,-1,-1,-1,-1,-1],"split_conditions":[7.2383823E0,6.9938803E0,8.295655E0,-8.105953E-1,1.7428459E-1,2.150356E-1,-6.704107E-3,1E0,-1.5318865E0,1.3030853E-2,1.6016868E0,9.89369E-2,1E0,-4.025215E-1,1.12945795E-1,-2.7120018E-1,-1.272427E-1,-2.564E-1,1.6016868E0,-2.5326285E-1,-2.4650548E-1,8.382451E-2,-6.840213E-4,-6.330458E-2,3.1699654E-2,-5.0496113E-2,2.9595712E-2,6.943811E-2,-2.5176674E-2,9.24708E-2,-5.9835255E-2,-1.9047437E-2,-6.1058577E-2,9.064687E-2,-2.065071E-3],"split_indices":[4,1,4,6,0,0,0,12,5,1,7,3,18,2,0,1,0,0,7,2,1,0,0,0,0,0,0,0,0,0,0,0,0,0,0],"split_type":[0,0,0,0,0,0,0,0,0,0,0,0,0,0,0,0,0,0,0,0,0,0,0,0,0,0,0,0,0,0,0,0,0,0,0],"sum_hessian":[1.587244E2,1.5614406E2,2.5803332E0,1.5497925E2,1.1648054E0,1.4858642E0,1.0944691E0,5.6583973E1,9.839528E1,1.010949E1,4.647448E1,2.1265028E1,7.713025E1,8.855573E0,1.2539171E0,3.4448475E1,1.2026007E1,1.4692799E1,6.57223E0,6.759979E1,9.53046E0,4.1739655E0,4.6816077E0,1.4825245E0,3.296595E1,6.4268346E0,5.5991716E0,1.339774E0,1.33530245E1,5.1575823E0,1.4146472E0,4.3870163E1,2.3729628E1,1.596582E0,7.933878E0],"tree_param":{"num_deleted":"0","num_feature":"28","num_nodes":"35","size_leaf_vector":"1"}},{"base_weights":[2.5329502E-2,-5.2784462E-3,1.2632774E0,-2.8221095E-2,1.5049462E-1,1.881104E-1,-9.209835E-3,2.2016045E-1,-1.7737505E-1,5.512481E-1,1.3657373E-1,-6.137459E-2,-3.6511E-1,3.8863936E-1,1.0161187E-1,2.1011733E-1,-1.9120134E-1,9.145978E-2,-1.0257085E-1,-5.474778E-1,-1.0403698E-1,6.335773E-2,-2.3880327E-2,3.252549E-2,-1.3177975E-2,4.7052946E-2,-3.945742E-2,-3.9337717E-2,5.1307804E-3,-6.947623E-2,-1.2050587E-2,-7.5286485E-2,8.847574E-3],"categories":[],"categories_nodes":[],"categories_segments":[],"categories_sizes":[],"default_left":[0,0,0,0,0,0,0,0,0,0,0,0,0,0,0,0,0,0,0,0,0,0,0,0,0,0,0,0,0,0,0,0,0],"id":14,"left_children":[1,3,5,7,-1,-1,-1,9,11,13,15,17,19,21,-1,23,25,-1,27,29,31,-1,-1,-1,-1,-1,-1,-1,-1,-1,-1,-1,-1],"loss_changes":[6.0464168E0,5.46662E0,3.397304E0,5.788264E0,0E0,0E0,0E0,1.5484245E0,2.101208E0,4.7419333E-1,1.2014567E0,2.5654924E0,1.706572E0,1.709219E0,0E0,1.6104903E0,1.4442022E0,0E0,2.6999328E0,1.2728949E0,2.123539E0,0E0,0E0,0E0,0E0,0E0,0E0,0E0,0E0,0E0,0E0,0E0,0E0],"parents":[2147483647,0,0,1,1,2,2,3,3,7,7,8,8,9,9,10,10,11,11,12,12,13,13,15,15,16,16,18,18,19,19,20,20],"right_children":[2,4,6,8,-1,-1,-1,10,12,14,16,18,20,22,-1,24,26,-1,28,30,32,-1,-1,-1,-1,-1,-1,-1,-1,-1,-1,-1,-1],"split_conditions":[7.2383823E0,6.9938803E0,1E0,-8.105953E-1,1.5049462E-1,1.881104E-1,-9.209835E-3,1E0,1.2171278E-2,1.3030853E-2,1.947554E0,-2.6856655E-1,1.7550814E0,-7.908394E-2,1.0161187E-1,1.6016868E0,-2.4069497E-1,9.145978E-2,-2.0707603E-1,1.6016868E0,1.0125468E0,6.335773E-2,-2.3880327E-2,3.252549E-2,-1.3177975E-2,4.7052946E-2,-3.945742E-2,-3.9337717E-2,5.1307804E-3,-6.947623E-2,-1.2050587E-2,-7.5286485E-2,8.847574E-3],"split_indices":[4,1,23,6,0,0,0,12,5,1,8,0,6,0,0,7,1,0,0,7,5,0,0,0,0,0,0,0,0,0,0,0,0],"split_type":[0,0,0,0,0,0,0,0,0,0,0,0,0,0,0,0,0,0,0,0,0,0,0,0,0,0,0,0,0,0,0,0,0],"sum_hessian":[1.5839777E2,1.5554764E2,2.8501399E0,1.5418661E2,1.3610197E0,1.6913027E0,1.1588372E0,5.7671673E1,9.651494E1,1.0497212E1,4.717446E1,6.0474796E1,3.6040146E1,9.137123E0,1.3600893E0,3.882269E1,8.35177E0,1.5906249E0,5.888417E1,2.0572542E1,1.5467602E1,6.564665E0,2.5724583E0,2.907877E1,9.743919E0,1.6545613E0,6.6972094E0,1.983768E1,3.904649E1,1.4829801E1,5.742742E0,2.8732216E0,1.259438E1],"tree_param":{"num_deleted":"0","num_feature":"28","num_nodes":"33","size_leaf_vector":"1"}},{"base_weights":[2.4496008E-2,-4.0451777E-3,1.1068236E0,-2.565218E-2,1.3059404E-1,1.6353355E-1,-1.0818624E-2,1.9716753E-1,-1.6381438E-1,6.8561196E-1,1.4837146E-1,1.7248592E-1,-2.2755943E-1,6.7625165E-2,1.2721325E-1,-3.9714786E-1,2.1236044E-1,-5.7013113E-2,2.763545E-1,-1.359452E-1,-5.0683033E-1,-5.7147354E-2,6.0982224E-2,1.8375402E-2,-6.1791874E-2,1.1774713E-1,1.6392628E-2,8.247983E-3,7.99887E-2,-2.302081E-2,1.0099335E-1,-4.1310093E-3,-7.742337E-2],"categories":[],"categories_nodes":[],"categories_segments":[],"categories_sizes":[],"default_left":[0,0,0,0,0,0,0,0,0,0,0,0,0,0,0,0,0,0,0,0,0,0,0,0,0,0,0,0,0,0,0,0,0],"id":15,"left_children":[1,3,5,7,-1,-1,-1,9,11,13,15,17,19,21,-1,23,25,-1,27,29,31,-1,-1,-1,-1,-1,-1,-1,-1,-1,-1,-1,-1],"loss_changes":[4.923864E0,4.453448E0,2.8066468E0,4.7917614E0,0E0,0E0,0E0,1.3194149E0,2.09673E0,1.7768476E0,2.021224E0,1.3810712E0,2.0064096E0,1.5816714E0,0E0,9.052931E-1,2.1588295E0,0E0,1.4148269E0,6.977308E0,2.416545E0,0E0,0E0,0E0,0E0,0E0,0E0,0E0,0E0,0E0,0E0,0E0,0E0],"parents":[2147483647,0,0,1,1,2,2,3,3,7,7,8,8,9,9,10,10,11,11,12,12,13,13,15,15,16,16,18,18,19,19,20,20],"right_children":[2,4,6,8,-1,-1,-1,10,12,14,16,18,20,22,-1,24,26,-1,28,30,32,-1,-1,-1,-1,-1,-1,-1,-1,-1,-1,-1,-1],"split_conditions":[7.2383823E0,6.9938803E0,8.295655E0,-8.105953E-1,1.3059404E-1,1.6353355E-1,-1.0818624E-2,-2.5028095E-1,1E0,-2.556637E-1,-2.421476E-1,-5.803044E-1,-2.4533643E-1,-2.678107E-1,1.2721325E-1,-2.3887925E-1,-2.3924235E-1,-5.7013113E-2,-1.2685023E-1,9.4596505E-1,-1.9469506E-1,-5.7147354E-2,6.0982224E-2,1.8375402E-2,-6.1791874E-2,1.1774713E-1,1.6392628E-2,8.247983E-3,7.99887E-2,-2.302081E-2,1.0099335E-1,-4.1310093E-3,-7.742337E-2],"split_indices":[4,1,4,6,0,0,0,0,12,0,1,6,2,1,0,0,1,0,2,3,1,0,0,0,0,0,0,0,0,0,0,0,0],"split_type":[0,0,0,0,0,0,0,0,0,0,0,0,0,0,0,0,0,0,0,0,0,0,0,0,0,0,0,0,0,0,0,0,0],"sum_hessian":[1.5825029E2,1.5515508E2,3.0952065E0,1.5360197E2,1.5531046E0,1.9158812E0,1.1793253E0,5.8626156E1,9.4975815E1,4.139507E0,5.448665E1,1.4862058E1,8.011376E1,2.5587654E0,1.5807414E0,5.173657E0,4.9312992E1,1.2728369E0,1.3589221E1,6.1443977E1,1.8669785E1,1.1496515E0,1.4091139E0,1.4709363E0,3.7027204E0,1.2425661E0,4.8070427E1,1.0761547E1,2.8276734E0,5.7511993E1,3.9319835E0,7.232783E0,1.1437001E1],"tree_param":{"num_deleted":"0","num_feature":"28","num_nodes":"33","size_leaf_vector":"1"}},{"base_weights":[2.452867E-2,7.7002846E-2,-5.168363E-1,4.660308E-2,1.1503639E0,-7.300877E-1,1.2729861E-1,2.3989411E-2,1.2603949E-1,4.0633164E-2,1.4965074E-1,-2.4311616E-1,-8.803908E-2,-4.0694547E-1,9.167859E-2,3.5214522E-1,-4.7406342E-2,-6.0380258E-2,2.2462549E-2,-5.734856E-2,-1.2868143E-3,4.6516424E-1,-6.604862E-2,1.3614078E-1,-1.6560791E-1,1.9517898E-3,6.793307E-2,4.5307625E-2,-7.066873E-2,-4.1668396E-2,1.7325835E-2,-1.2551404E-2,-7.7321865E-2],"categories":[],"categories_nodes":[],"categories_segments":[],"categories_sizes":[],"default_left":[0,0,0,0,0,0,0,0,0,0,0,0,0,0,0,0,0,0,0,0,0,0,0,0,0,0,0,0,0,0,0,0,0],"id":16,"left_children":[1,3,5,7,9,11,13,15,-1,-1,-1,17,-1,19,-1,21,23,-1,-1,-1,-1,25,27,29,31,-1,-1,-1,-1,-1,-1,-1,-1],"loss_changes":[4.5566063E0,4.7044854E0,2.040681E0,3.8906431E0,4.153819E-1,5.765419E-1,2.2197585E0,3.3260968E0,0E0,0E0,0E0,7.984832E-1,0E0,2.0945066E-1,0E0,1.2292912E0,2.5586214E0,0E0,0E0,0E0,0E0,1.9039989E0,2.40573E0,1.0230411E0,1.646138E0,0E0,0E0,0E0,0E0,0E0,0E0,0E0,0E0],"parents":[2147483647,0,0,1,1,2,2,3,3,4,4,5,5,6,6,7,7,11,11,13,13,15,15,16,16,21,21,22,22,23,23,24,24],"right_children":[2,4,6,8,10,12,14,16,-1,-1,-1,18,-1,20,-1,22,24,-1,-1,-1,-1,26,28,30,32,-1,-1,-1,-1,-1,-1,-1,-1],"split_conditions":[1E0,7.2383823E0,1.9139973E0,6.9938803E0,-1.3852675E-1,-4.144697E-1,1.6016868E0,1E0,1.2603949E-1,4.0633164E-2,1.4965074E-1,-4.146762E-1,-8.803908E-2,-1.2642151E-1,9.167859E-2,6.390563E-1,-1.1442218E0,-6.0380258E-2,2.2462549E-2,-5.734856E-2,-1.2868143E-3,-1.8200658E-1,-1.5014778E-1,-2.678107E-1,1E0,1.9517898E-3,6.793307E-2,4.5307625E-2,-7.066873E-2,-4.1668396E-2,1.7325835E-2,-1.2551404E-2,-7.7321865E-2],"split_indices":[17,4,3,1,1,2,7,12,0,0,0,2,0,1,0,6,6,0,0,0,0,0,1,1,15,0,0,0,0,0,0,0,0],"split_type":[0,0,0,0,0,0,0,0,0,0,0,0,0,0,0,0,0,0,0,0,0,0,0,0,0,0,0,0,0,0,0,0,0],"sum_hessian":[1.5799956E2,1.4482E2,1.3179555E1,1.4184605E2,2.9739513E0,9.80125E0,3.3783042E0,1.4025282E2,1.5932304E0,1.6344972E0,1.339454E0,2.9289994E0,6.872251E0,2.3038437E0,1.0744606E0,2.4359074E1,1.1589375E2,1.4895128E0,1.4394867E0,1.2994319E0,1.0044118E0,1.90881E1,5.2709737E0,4.533867E1,7.055508E1,6.5499105E0,1.2538191E1,3.0733435E0,2.19763E0,2.209191E0,4.312948E1,6.7319496E1,3.2355845E0],"tree_param":{"num_deleted":"0","num_feature":"28","num_nodes":"33","size_leaf_vector":"1"}},{"base_weights":[2.2324052E-2,7.0148006E-2,-4.9501693E-1,4.175803E-2,1.0240159E0,-7.125287E-1,1.1990463E-1,2.0678747E-2,1.10324286E-1,1.4046971E-1,-5.6212675E-3,-2.3238602E-1,-8.69771E-2,-3.931435E-1,8.27913E-2,3.0861843E-1,-4.400661E-2,-5.8902305E-2,2.0847833E-2,-5.590875E-2,-1.2231263E-3,8.4317577E-1,2.106943E-1,-1.9730936E-1,7.6565266E-2,1.3840045E-1,9.924717E-3,3.0463362E-2,-6.381687E-2,-3.723597E-2,8.203988E-3,3.914181E-2,-9.2291115E-3],"categories":[],"categories_nodes":[],"categories_segments":[],"categories_sizes":[],"default_left":[0,0,0,0,0,0,0,0,0,0,0,0,0,0,0,0,0,0,0,0,0,0,0,0,0,0,0,0,0,0,0,0,0],"id":17,"left_children":[1,3,5,7,9,11,13,15,-1,-1,-1,17,-1,19,-1,21,23,-1,-1,-1,-1,25,27,29,31,-1,-1,-1,-1,-1,-1,-1,-1],"loss_changes":[3.9696784E0,3.9234624E0,1.9021091E0,3.1829238E0,1.8022466E0,5.6625557E-1,1.9255617E0,2.6490939E0,0E0,0E0,0E0,7.3211235E-1,0E0,1.9746795E-1,0E0,1.1876147E0,2.166993E0,0E0,0E0,0E0,0E0,1.3532877E0,2.058495E0,2.550489E0,3.5389736E0,0E0,0E0,0E0,0E0,0E0,0E0,0E0,0E0],"parents":[2147483647,0,0,1,1,2,2,3,3,4,4,5,5,6,6,7,7,11,11,13,13,15,15,16,16,21,21,22,22,23,23,24,24],"right_children":[2,4,6,8,10,12,14,16,-1,-1,-1,18,-1,20,-1,22,24,-1,-1,-1,-1,26,28,30,32,-1,-1,-1,-1,-1,-1,-1,-1],"split_conditions":[1E0,7.2383823E0,1.9139973E0,6.9938803E0,8.295655E0,-4.144697E-1,1.6016868E0,1E0,1.10324286E-1,1.4046971E-1,-5.6212675E-3,-4.146762E-1,-8.69771E-2,-1.2642151E-1,8.27913E-2,1E0,-4.025215E-1,-5.8902305E-2,2.0847833E-2,-5.590875E-2,-1.2231263E-3,1E0,1E0,-1.3997938E-1,-2.9590148E-1,1.3840045E-1,9.924717E-3,3.0463362E-2,-6.381687E-2,-3.723597E-2,8.203988E-3,3.914181E-2,-9.2291115E-3],"split_indices":[17,4,3,1,4,2,7,12,0,0,0,2,0,1,0,19,2,0,0,0,0,21,27,1,2,0,0,0,0,0,0,0,0],"split_type":[0,0,0,0,0,0,0,0,0,0,0,0,0,0,0,0,0,0,0,0,0,0,0,0,0,0,0,0,0,0,0,0,0],"sum_hessian":[1.5804398E2,1.4546164E2,1.2582336E1,1.4227101E2,3.1906362E0,9.177363E0,3.4049735E0,1.405004E2,1.7706176E0,2.1371255E0,1.0535107E0,2.8753388E0,6.3020244E0,2.2321773E0,1.1727962E0,2.5081556E1,1.1541884E2,1.403729E0,1.47161E0,1.2290037E0,1.0031737E0,2.704961E0,2.2376596E1,5.0532345E1,6.488649E1,1.0680789E0,1.6368822E0,2.0724274E1,1.6523218E0,3.0860863E1,1.9671484E1,2.2190886E1,4.2695602E1],"tree_param":{"num_deleted":"0","num_feature":"28","num_nodes":"33","size_leaf_vector":"1"}},{"base_weights":[2.1018805E-2,6.572966E-2,-4.7889966E-1,4.0247448E-2,8.6427504E-1,-6.9901484E-1,1.0393181E-1,-1.3161179E-3,4.6191496E-1,1.2245604E-1,-9.7718565E-3,-8.697616E-2,-1.3620584E-1,-5.560851E-2,5.2103364E-1,3.5443446E-1,-3.969432E-2,1.2183906E-1,1.6783974E-1,-6.0291606E-4,-1.8719157E-2,8.88545E-2,-8.051638E-3,6.5196E-1,-2.3410514E-1,-6.987646E-2,-3.8479336E-3,-7.1426116E-2,4.7144395E-1,9.6760266E-2,-3.3090618E-2,-5.292828E-2,4.7886956E-2,-1.7125238E-2,1.2230767E-2,-1.9623755E-2,1.0408076E-1],"categories":[],"categories_nodes":[],"categories_segments":[],"categories_sizes":[],"default_left":[0,0,0,0,0,0,0,0,0,0,0,0,0,0,0,0,0,0,0,0,0,0,0,0,0,0,0,0,0,0,0,0,0,0,0,0,0],"id":18,"left_children":[1,3,5,7,9,11,13,15,17,-1,-1,-1,19,-1,21,23,25,-1,27,-1,-1,-1,-1,29,31,-1,33,-1,35,-1,-1,-1,-1,-1,-1,-1,-1],"loss_changes":[3.586473E0,2.9538283E0,1.7631986E0,2.5134332E0,1.676888E0,8.1315994E-1,1.5238777E0,1.8095783E0,2.6579947E0,0E0,0E0,0E0,2.17181E-2,0E0,7.929742E-1,2.4126158E0,2.8229704E0,0E0,3.128716E0,0E0,0E0,0E0,0E0,3.06169E0,1.3203661E0,0E0,2.437786E0,0E0,3.3816538E0,0E0,0E0,0E0,0E0,0E0,0E0,0E0,0E0],"parents":[2147483647,0,0,1,1,2,2,3,3,4,4,5,5,6,6,7,7,8,8,12,12,14,14,15,15,16,16,18,18,23,23,24,24,26,26,28,28],"right_children":[2,4,6,8,10,12,14,16,18,-1,-1,-1,20,-1,22,24,26,-1,28,-1,-1,-1,-1,30,32,-1,34,-1,36,-1,-1,-1,-1,-1,-1,-1,-1],"split_conditions":[1.034294E0,7.2383823E0,1.6842227E0,2.7268878E-1,1E0,1.6016868E0,-4.1403085E-1,-2.5141755E-1,3.035566E-1,1.2245604E-1,-9.7718565E-3,-8.697616E-2,-1.8122026E-1,-5.560851E-2,-1.7532668E-1,-3.816877E-1,-2.5618967E-1,1.2183906E-1,6.042507E-1,-6.0291606E-4,-1.8719157E-2,8.88545E-2,-8.051638E-3,-2.469897E-1,-2.4069497E-1,-6.987646E-2,-3.9734393E-1,-7.1426116E-2,-3.9236552E-1,9.6760266E-2,-3.3090618E-2,-5.292828E-2,4.7886956E-2,-1.7125238E-2,1.2230767E-2,-1.9623755E-2,1.0408076E-1],"split_indices":[5,4,6,0,23,7,2,0,1,0,0,0,0,0,1,2,1,0,1,0,0,0,0,1,1,0,2,0,2,0,0,0,0,0,0,0,0],"split_type":[0,0,0,0,0,0,0,0,0,0,0,0,0,0,0,0,0,0,0,0,0,0,0,0,0,0,0,0,0,0,0,0,0,0,0,0,0],"sum_hessian":[1.5804749E2,1.4586993E2,1.2177549E1,1.4237698E2,3.4929616E0,8.69457E0,3.4829798E0,1.3050958E2,1.1867389E1,2.3426526E0,1.1503091E0,6.2523255E0,2.442244E0,1.2197114E0,2.2632682E0,1.1906431E1,1.1860316E2,2.4421372E0,9.425252E0,1.002054E0,1.4401901E0,1.1087784E0,1.15449E0,7.8368793E0,4.0695524E0,5.1640387E0,1.1343912E2,2.067031E0,7.3582206E0,5.943639E0,1.8932405E0,3.0602314E0,1.0093207E0,4.8596134E1,6.484299E1,3.6883292E0,3.6698916E0],"tree_param":{"num_deleted":"0","num_feature":"28","num_nodes":"37","size_leaf_vector":"1"}},{"base_weights":[1.9039195E-2,5.989901E-2,-4.5779422E-1,3.570759E-2,8.0707353E-1,-6.847711E-1,1.3380706E-1,1.6470939E-2,9.409406E-2,-1.1270862E-2,1.1347363E0,-1.9969314E-1,-8.544176E-2,-5.698469E-2,6.1017877E-1,8.117226E-2,-2.248251E-1,1.3239895E-1,3.6088333E-2,-5.685654E-2,2.3022464E-2,1.4101078E-1,-5.1495206E-2,3.669164E-1,1.42844375E-2,8.100613E-1,-3.3816966E-1,2.2379255E-2,9.552404E-2,-1.1135934E-2,1.3191744E-2,-1.3080904E-2,1.4741908E-1,-7.541163E-2,-5.137215E-3],"categories":[],"categories_nodes":[],"categories_segments":[],"categories_sizes":[],"default_left":[0,0,0,0,0,0,0,0,0,0,0,0,0,0,0,0,0,0,0,0,0,0,0,0,0,0,0,0,0,0,0,0,0,0,0],"id":19,"left_children":[1,3,5,7,9,11,13,15,-1,-1,17,19,-1,-1,21,23,25,-1,-1,-1,-1,-1,-1,27,29,31,33,-1,-1,-1,-1,-1,-1,-1,-1],"loss_changes":[3.1266797E0,2.6354961E0,1.7930543E0,2.4890225E0,1.507149E0,5.9640837E-1,1.8058017E0,2.2328384E0,0E0,0E0,2.9620647E-2,7.208552E-1,0E0,0E0,3.4953144E0,2.1466985E0,3.8232388E0,0E0,0E0,0E0,0E0,0E0,0E0,1.5811031E0,1.3785082E0,2.243261E0,3.298732E0,0E0,0E0,0E0,0E0,0E0,0E0,0E0,0E0],"parents":[2147483647,0,0,1,1,2,2,3,3,4,4,5,5,6,6,7,7,10,10,11,11,14,14,15,15,16,16,23,23,24,24,25,25,26,26],"right_children":[2,4,6,8,10,12,14,16,-1,-1,18,20,-1,-1,22,24,26,-1,-1,-1,-1,-1,-1,28,30,32,34,-1,-1,-1,-1,-1,-1,-1,-1],"split_conditions":[1E0,7.2383823E0,1.9139973E0,6.9938803E0,-1.9288646E-1,-4.144697E-1,-1.9566348E-1,6.390563E-1,9.409406E-2,-1.1270862E-2,-9.675478E-2,8.82063E-1,-8.544176E-2,-5.698469E-2,-1.00758396E-1,1E0,-4.1519454E-1,1.3239895E-1,3.6088333E-2,-5.685654E-2,2.3022464E-2,1.4101078E-1,-5.1495206E-2,8.088293E-2,1.774507E-1,-1.6011104E-1,1E0,2.2379255E-2,9.552404E-2,-1.1135934E-2,1.3191744E-2,-1.3080904E-2,1.4741908E-1,-7.541163E-2,-5.137215E-3],"split_indices":[17,4,3,1,0,2,1,6,0,0,0,5,0,0,1,12,2,0,0,0,0,0,0,0,5,0,23,0,0,0,0,0,0,0,0],"split_type":[0,0,0,0,0,0,0,0,0,0,0,0,0,0,0,0,0,0,0,0,0,0,0,0,0,0,0,0,0,0,0,0,0,0,0],"sum_hessian":[1.5807234E2,1.464016E2,1.1670757E1,1.428251E2,3.5764868E0,8.320849E0,3.3499088E0,1.4085016E2,1.9749407E0,1.1117412E0,2.4647458E0,2.7201405E0,5.6007085E0,1.2731304E0,2.0767782E0,1.1159152E2,2.9258642E1,1.4092056E0,1.0555402E0,1.2904382E0,1.4297023E0,1.0657697E0,1.0110086E0,2.0316038E1,9.127548E1,2.2814152E0,2.6977228E1,1.7451046E1,2.8649936E0,4.416074E1,4.7114742E1,1.2763088E0,1.0051064E0,1.0344708E1,1.6632519E1],"tree_param":{"num_deleted":"0","num_feature":"28","num_nodes":"35","size_leaf_vector":"1"}},{"base_weights":[1.8598756E-2,5.695174E-2,-4.4191882E-1,3.485028E-2,7.0821196E-1,-6.679102E-1,9.9773504E-2,1.7497879E-2,7.911729E-2,-1.3033198E-2,1.0109632E0,-8.529525E-2,-1.0512907E-1,-5.408002E-2,4.810789E-1,3.3546854E-2,-7.234498E-2,2.5887871E-2,1.2739295E-1,-6.133418E-4,-1.4523755E-2,8.049964E-2,-7.6211207E-3,-9.879639E-4,5.234646E-1,3.2270513E-2,-3.6770701E-3,1.0365894E-1,1.5002673E-2],"categories":[],"categories_nodes":[],"categories_segments":[],"categories_sizes":[],"default_left":[0,0,0,0,0,0,0,0,0,0,0,0,0,0,0,0,0,0,0,0,0,0,0,0,0,0,0,0,0],"id":20,"left_children":[1,3,5,7,9,11,13,15,-1,-1,17,-1,19,-1,21,23,-1,-1,-1,-1,-1,-1,-1,25,27,-1,-1,-1,-1],"loss_changes":[2.830796E0,2.09873E0,1.5756128E0,1.8725017E0,1.3478796E0,8.2963467E-1,1.3589929E0,1.7072815E0,0E0,0E0,3.8887095E-1,0E0,1.2311023E-2,0E0,6.659461E-1,2.360518E0,0E0,0E0,0E0,0E0,0E0,0E0,0E0,1.532658E0,1.6048908E0,0E0,0E0,0E0,0E0],"parents":[2147483647,0,0,1,1,2,2,3,3,4,4,5,5,6,6,7,7,10,10,12,12,14,14,15,15,23,23,24,24],"right_children":[2,4,6,8,10,12,14,16,-1,-1,18,-1,20,-1,22,24,-1,-1,-1,-1,-1,-1,-1,26,28,-1,-1,-1,-1],"split_conditions":[1.034294E0,7.2383823E0,1.6842227E0,6.9938803E0,-1.9288646E-1,1.6016868E0,-4.1403085E-1,6.967733E0,7.911729E-2,-1.3033198E-2,-3.9236552E-1,-8.529525E-2,-1.764094E-1,-5.408002E-2,-1.7532668E-1,2.7268878E-1,-7.234498E-2,2.5887871E-2,1.2739295E-1,-6.133418E-4,-1.4523755E-2,8.049964E-2,-7.6211207E-3,-2.5141755E-1,3.035566E-1,3.2270513E-2,-3.6770701E-3,1.0365894E-1,1.5002673E-2],"split_indices":[5,4,6,1,0,7,2,1,0,0,2,0,0,0,1,0,0,0,0,0,0,0,0,0,1,0,0,0,0],"split_type":[0,0,0,0,0,0,0,0,0,0,0,0,0,0,0,0,0,0,0,0,0,0,0,0,0,0,0,0,0],"sum_hessian":[1.5784909E2,1.4652267E2,1.1326421E1,1.4273235E2,3.7903166E0,7.827725E0,3.4986954E0,1.4053127E2,2.2010908E0,1.1565303E0,2.6337864E0,5.5028024E0,2.3249228E0,1.149428E0,2.3492672E0,1.3848636E2,2.0448992E0,1.1964347E0,1.4373516E0,1.0027813E0,1.3221415E0,1.2046164E0,1.1446509E0,1.3029941E2,8.186957E0,1.217202E1,1.1812738E2,2.7005072E0,5.48645E0],"tree_param":{"num_deleted":"0","num_feature":"28","num_nodes":"29","size_leaf_vector":"1"}},{"base_weights":[1.770595E-2,5.297107E-2,-4.2197692E-1,3.097117E-1,-6.9928933E-3,-6.575355E-1,1.4815605E-1,9.1704184E-1,1.9922927E-1,-1.5265033E-1,1.0150305E-1,-1.7518528E-1,-8.384539E-2,-5.4834444E-2,5.8487654E-1,1.314355E-1,1.5246791E-2,2.887409E-1,-6.4750046E-2,-3.314677E-1,1.1046691E-1,-7.154374E-2,1.4014857E-1,-5.5545118E-2,2.5282769E-2,9.284521E-2,-4.2232457E-3,-9.885734E-2,4.7988725E-1,2.8506577E-1,-5.066907E-1,7.3476845E-1,-1.60703E-1,4.1826877E-1,2.3613408E-2,4.040135E-2,-7.7524595E-2,7.6607935E-2,-2.9361E-2,-1.5251509E-2,7.134964E-2,-6.1974593E-2,4.038784E-2,2.3947384E-2,1.6021568E-1,-7.5413465E-2,2.3797636E-3,9.003654E-2,3.1004946E-3,1.2614913E-2,-4.519651E-2],"categories":[],"categories_nodes":[],"categories_segments":[],"categories_sizes":[],"default_left":[0,0,0,0,0,0,0,0,0,0,0,0,0,0,0,0,0,0,0,0,0,0,0,0,0,0,0,0,0,0,0,0,0,0,0,0,0,0,0,0,0,0,0,0,0,0,0,0,0,0,0],"id":21,"left_children":[1,3,5,7,9,11,13,15,17,19,21,23,-1,-1,25,-1,-1,27,-1,29,31,-1,33,-1,-1,-1,-1,35,37,39,41,43,45,47,49,-1,-1,-1,-1,-1,-1,-1,-1,-1,-1,-1,-1,-1,-1,-1,-1],"loss_changes":[2.4845417E0,2.2790022E0,1.6958697E0,1.6976676E0,1.9256176E0,6.0414505E-1,1.6274285E0,1.0255568E0,2.0808504E0,2.483089E0,2.3061924E0,7.282565E-1,0E0,0E0,7.123569E-1,0E0,0E0,1.772988E0,0E0,3.5158603E0,3.8068504E0,0E0,2.179533E0,0E0,0E0,0E0,0E0,3.211687E0,3.7156913E0,1.523596E0,2.7890587E0,2.528161E0,1.7710339E0,3.6849818E0,2.430094E0,0E0,0E0,0E0,0E0,0E0,0E0,0E0,0E0,0E0,0E0,0E0,0E0,0E0,0E0,0E0,0E0],"parents":[2147483647,0,0,1,1,2,2,3,3,4,4,5,5,6,6,7,7,8,8,9,9,10,10,11,11,14,14,17,17,19,19,20,20,22,22,27,27,28,28,29,29,30,30,31,31,32,32,33,33,34,34],"right_children":[2,4,6,8,10,12,14,16,18,20,22,24,-1,-1,26,-1,-1,28,-1,30,32,-1,34,-1,-1,-1,-1,36,38,40,42,44,46,48,50,-1,-1,-1,-1,-1,-1,-1,-1,-1,-1,-1,-1,-1,-1,-1,-1],"split_conditions":[1E0,1E0,1.9139973E0,1E0,-4.025215E-1,-4.144697E-1,-1.9566348E-1,-1.7774773E-1,1E0,-1.3997938E-1,-2.7120018E-1,8.82063E-1,-8.384539E-2,-5.4834444E-2,-1.0560049E-1,1.314355E-1,1.5246791E-2,-1.8122026E-1,-6.4750046E-2,-2.4817932E-1,-4.146762E-1,-7.154374E-2,-3.571733E-1,-5.5545118E-2,2.5282769E-2,9.284521E-2,-4.2232457E-3,-2.1503186E-1,1.6016868E0,-2.5726494E-1,9.89369E-2,1.947554E0,-4.144697E-1,-1.8426548E-1,6.390563E-1,4.040135E-2,-7.7524595E-2,7.6607935E-2,-2.9361E-2,-1.5251509E-2,7.134964E-2,-6.1974593E-2,4.038784E-2,2.3947384E-2,1.6021568E-1,-7.5413465E-2,2.3797636E-3,9.003654E-2,3.1004946E-3,1.2614913E-2,-4.519651E-2],"split_indices":[17,12,3,19,2,2,1,1,27,1,1,5,0,0,1,0,0,0,0,0,2,0,2,0,0,0,0,1,7,0,3,8,2,0,6,0,0,0,0,0,0,0,0,0,0,0,0,0,0,0,0],"split_type":[0,0,0,0,0,0,0,0,0,0,0,0,0,0,0,0,0,0,0,0,0,0,0,0,0,0,0,0,0,0,0,0,0,0,0,0,0,0,0,0,0,0,0,0,0,0,0,0,0,0,0],"sum_hessian":[1.5779488E2,1.4689275E2,1.0902126E1,2.702368E1,1.19869064E2,7.6062107E0,3.295916E0,3.0357263E0,2.3987953E1,5.0997368E1,6.88717E1,2.6116223E0,4.9945884E0,1.1716781E0,2.124238E0,1.5244652E0,1.5112611E0,2.2290516E1,1.6974382E0,3.0207945E1,2.0789423E1,2.3198025E0,6.6551895E1,1.2252825E0,1.3863398E0,1.0619162E0,1.0623218E0,7.5215216E0,1.4768993E1,6.5465627E0,2.3661383E1,5.777814E0,1.5011609E1,1.8887117E1,4.766478E1,4.545095E0,2.9764264E0,1.0787307E1,3.9816868E0,3.557301E0,2.9892619E0,2.1332188E1,2.3291943E0,4.4900174E0,1.2877964E0,2.828032E0,1.2183578E1,7.823217E0,1.10639E1,3.981527E1,7.84951E0],"tree_param":{"num_deleted":"0","num_feature":"28","num_nodes":"51","size_leaf_vector":"1"}},{"base_weights":[1.5605259E-2,4.89258E-2,-4.0930304E-1,2.8367333E-2,6.432504E-1,-6.406471E-1,1.0498208E-1,-2.1290597E-2,2.51088E-1,1.4833076E-1,1.2656534E-1,-8.376708E-2,-8.27395E-2,-5.209898E-2,4.5289943E-1,2.9536363E-1,-6.088377E-2,-7.481774E-2,3.9343902E-1,-2.5977675E-2,5.2309003E-2,-4.9985945E-4,-1.151869E-2,7.344649E-2,-6.51627E-3,-5.131656E-3,8.4383214E-1,-3.2761478E-1,3.0274054E-2,1.3920467E-1,2.850272E-1,5.5300932E-2,-3.1352103E-2,1.3158982E-1,-1.7961338E-2,-1.07864635E-2,-7.859153E-2,5.064028E-2,-5.531838E-3,-1.1498938E-2,5.8863103E-2],"categories":[],"categories_nodes":[],"categories_segments":[],"categories_sizes":[],"default_left":[0,0,0,0,0,0,0,0,0,0,0,0,0,0,0,0,0,0,0,0,0,0,0,0,0,0,0,0,0,0,0,0,0,0,0,0,0,0,0,0,0],"id":22,"left_children":[1,3,5,7,9,11,13,15,17,19,-1,-1,21,-1,23,25,27,-1,29,-1,-1,-1,-1,-1,-1,31,33,35,37,-1,39,-1,-1,-1,-1,-1,-1,-1,-1,-1,-1],"loss_changes":[2.269125E0,1.792485E0,1.4542973E0,1.6011525E0,1.324369E0,8.3003855E-1,1.2108377E0,1.5087317E0,4.0473475E0,7.273435E-1,0E0,0E0,7.6094326E-3,0E0,5.4558206E-1,2.2104917E0,2.5998807E0,0E0,2.1743371E0,0E0,0E0,0E0,0E0,0E0,0E0,1.8329811E0,2.5283694E0,2.6561916E0,3.3005939E0,0E0,2.8222017E0,0E0,0E0,0E0,0E0,0E0,0E0,0E0,0E0,0E0,0E0],"parents":[2147483647,0,0,1,1,2,2,3,3,4,4,5,5,6,6,7,7,8,8,9,9,12,12,14,14,15,15,16,16,18,18,25,25,26,26,27,27,28,28,30,30],"right_children":[2,4,6,8,10,12,14,16,18,20,-1,-1,22,-1,24,26,28,-1,30,-1,-1,-1,-1,-1,-1,32,34,36,38,-1,40,-1,-1,-1,-1,-1,-1,-1,-1,-1,-1],"split_conditions":[1.034294E0,7.2383823E0,1.6842227E0,1.9139973E0,-1.2685023E-1,1.6016868E0,-4.1403085E-1,-2.5028095E-1,-2.368213E-1,1E0,1.2656534E-1,-8.376708E-2,-1.7299245E-1,-5.209898E-2,-1.7532668E-1,-2.556637E-1,-2.0305863E-1,-7.481774E-2,-2.271371E-1,-2.5977675E-2,5.2309003E-2,-4.9985945E-4,-1.151869E-2,7.344649E-2,-6.51627E-3,-2.666365E-1,-2.469897E-1,-2.1261081E-1,-1.8035531E-1,1.3920467E-1,-1.314674E-1,5.5300932E-2,-3.1352103E-2,1.3158982E-1,-1.7961338E-2,-1.07864635E-2,-7.859153E-2,5.064028E-2,-5.531838E-3,-1.1498938E-2,5.8863103E-2],"split_indices":[5,4,6,3,2,7,2,0,1,15,0,0,0,0,1,0,0,0,1,0,0,0,0,0,0,0,1,1,0,0,0,0,0,0,0,0,0,0,0,0,0],"split_type":[0,0,0,0,0,0,0,0,0,0,0,0,0,0,0,0,0,0,0,0,0,0,0,0,0,0,0,0,0,0,0,0,0,0,0,0,0,0,0,0,0],"sum_hessian":[1.578552E2,1.4719713E2,1.0658077E1,1.4328833E2,3.9088006E0,7.181758E0,3.4763193E0,1.1790464E2,2.538368E1,2.867196E0,1.0416045E0,4.936866E0,2.2448921E0,1.0641861E0,2.4121332E0,1.238591E1,1.0551873E2,2.6344814E0,2.2749199E1,1.5194039E0,1.3477921E0,1.0008945E0,1.2439976E0,1.2921416E0,1.1199915E0,8.64185E0,3.7440596E0,2.6215965E1,7.9302765E1,1.0683167E0,2.1680883E1,2.793249E0,5.848602E0,2.366674E0,1.3773856E0,1.8554596E1,7.66137E0,1.1334639E1,6.7968124E1,9.623105E0,1.2057778E1],"tree_param":{"num_deleted":"0","num_feature":"28","num_nodes":"41","size_leaf_vector":"1"}},{"base_weights":[1.5013565E-2,4.5675322E-2,-3.8956922E-1,-4.0756438E-2,1.7007475E-1,-6.2113756E-1,9.5972456E-2,3.2944825E-2,-4.8840117E-1,1.0959543E0,6.683122E-2,-8.252137E-2,-7.8543246E-2,-5.0783165E-2,4.1555014E-1,-1.3264485E-2,1.0616609E0,1.526762E-1,-7.166683E-1,3.6775213E-1,1.8339409E-1,-8.504768E-2,1.5370941E-1,-4.749849E-4,-1.0951682E-2,6.641557E-2,-6.193677E-3,-2.3752965E-1,1.3407974E-1,-7.7266106E-3,1.6297375E-1,-6.018586E-2,6.805422E-2,3.6809638E-3,-9.0571605E-2,1.4274381E-1,-6.780342E-2,1.4442147E0,5.6493104E-2,3.888392E-2,-4.3287583E-2,3.3963505E-2,-1.0292739E-2,2.6624E-2,1.9709735E-1,-6.2494604E-3,3.563141E-2],"categories":[],"categories_nodes":[],"categories_segments":[],"categories_sizes":[],"default_left":[0,0,0,0,0,0,0,0,0,0,0,0,0,0,0,0,0,0,0,0,0,0,0,0,0,0,0,0,0,0,0,0,0,0,0,0,0,0,0,0,0,0,0,0,0,0,0],"id":23,"left_children":[1,3,5,7,9,11,13,15,17,19,21,-1,23,-1,25,27,29,31,33,35,-1,-1,37,-1,-1,-1,-1,39,41,-1,-1,-1,-1,-1,-1,-1,-1,43,45,-1,-1,-1,-1,-1,-1,-1,-1],"loss_changes":[1.9868466E0,1.6029774E0,1.3286632E0,2.9323564E0,5.762374E0,7.96221E-1,1.081465E0,3.6664872E0,1.9472775E0,2.5819502E0,4.592657E0,0E0,6.8635345E-3,0E0,4.565677E-1,2.4942596E0,2.270924E0,2.0513818E0,1.3775806E0,5.733999E0,0E0,0E0,6.4411445E0,0E0,0E0,0E0,0E0,3.8277907E0,2.2570403E0,0E0,0E0,0E0,0E0,0E0,0E0,0E0,0E0,1.7100239E0,1.7842487E0,0E0,0E0,0E0,0E0,0E0,0E0,0E0,0E0],"parents":[2147483647,0,0,1,1,2,2,3,3,4,4,5,5,6,6,7,7,8,8,9,9,10,10,12,12,14,14,15,15,16,16,17,17,18,18,19,19,22,22,27,27,28,28,37,37,38,38],"right_children":[2,4,6,8,10,12,14,16,18,20,22,-1,24,-1,26,28,30,32,34,36,-1,-1,38,-1,-1,-1,-1,40,42,-1,-1,-1,-1,-1,-1,-1,-1,44,46,-1,-1,-1,-1,-1,-1,-1,-1],"split_conditions":[1.034294E0,-1.272427E-1,1.6842227E0,-1.5442806E-1,-1.13932386E-1,1.6016868E0,-4.1403085E-1,-1.5908882E-1,-1.71453E-1,9.89369E-2,-1.01737216E-1,-8.252137E-2,-1.7299245E-1,-5.0783165E-2,-1.7532668E-1,-4.1254827E-1,-1.7871614E-1,-1.4737259E-1,-1.1795803E0,-4.1254827E-1,1.8339409E-1,-8.504768E-2,-9.369527E-2,-4.749849E-4,-1.0951682E-2,6.641557E-2,-6.193677E-3,-2.5141755E-1,-2.4533643E-1,-7.7266106E-3,1.6297375E-1,-6.018586E-2,6.805422E-2,3.6809638E-3,-9.0571605E-2,1.4274381E-1,-6.780342E-2,-1.0560049E-1,2.7268878E-1,3.888392E-2,-4.3287583E-2,3.3963505E-2,-1.0292739E-2,2.6624E-2,1.9709735E-1,-6.2494604E-3,3.563141E-2],"split_indices":[5,0,6,0,0,7,2,0,1,3,0,0,0,0,1,2,1,0,5,2,0,0,0,0,0,0,0,0,2,0,0,0,0,0,0,0,0,1,0,0,0,0,0,0,0,0,0],"split_type":[0,0,0,0,0,0,0,0,0,0,0,0,0,0,0,0,0,0,0,0,0,0,0,0,0,0,0,0,0,0,0,0,0,0,0,0,0,0,0,0,0,0,0,0,0,0,0],"sum_hessian":[1.5772778E2,1.4744092E2,1.0286868E1,8.739318E1,6.0047733E1,6.775958E0,3.5109098E0,7.583408E1,1.1559095E1,5.0594807E0,5.498825E1,4.545482E0,2.2304761E0,1.0112332E0,2.4996765E0,7.3518776E1,2.3153136E0,3.122068E0,8.437027E0,3.300781E0,1.7586999E0,3.9969492E0,5.0991302E1,1.0004035E0,1.2300727E0,1.3867298E0,1.1129466E0,2.8907722E1,4.461105E1,1.0580446E0,1.257269E0,1.2274172E0,1.8946507E0,1.8537843E0,6.583243E0,1.4582286E0,1.8425523E0,2.6015217E0,4.8389782E1,6.6367526E0,2.227097E1,2.3658829E1,2.095222E1,1.2690389E0,1.3324828E0,3.5208435E1,1.3181347E1],"tree_param":{"num_deleted":"0","num_feature":"28","num_nodes":"47","size_leaf_vector":"1"}},{"base_weights":[1.507467E-2,2.3748244E-1,-3.704488E-2,-3.2620165E-2,3.6220077E-1,1.2894726E-1,-1.3936439E-1,3.1964028E-1,-4.8115796E-1,1.0517197E0,1.978819E-1,-4.376655E-1,1.6530748E-1,-4.3188673E-1,-6.92171E-2,-1.1498494E-1,1.257451E-1,-7.3671885E-2,-6.527441E-3,1.552279E-1,-8.6670155E-3,-1.3222839E-1,6.1694723E-1,-8.1791375E-3,-5.7596363E-2,6.1003304E-1,8.500039E-2,-6.312561E-1,4.583479E-1,6.1556035E-1,-1.07882604E-1,5.5739254E-2,-7.24448E-2,2.1123455E-1,-8.032917E-2,8.6084336E-1,-2.5356943E-2,1.0882268E0,-2.0072788E-1,-7.498144E-2,1.5589547E-1,-1.574458E-1,-7.9918647E-1,-1.3232854E-2,8.741804E-2,1.3374488E-1,-2.2699868E-2,-8.7255845E-3,-3.9958286E-1,-1.7667102E-2,1.4590658E-1,1.2299776E-1,3.3049744E-2,4.0796172E-2,1.6188367E-1,-6.18471E-2,3.7423052E-2,8.10951E-2,7.2105243E-3,5.712542E-2,-6.888296E-2,-8.814406E-2,-2.867809E-2,-1.16412565E-2,9.1941305E-2,1.2580237E-2,-5.502832E-2],"categories":[],"categories_nodes":[],"categories_segments":[],"categories_sizes":[],"default_left":[0,0,0,0,0,0,0,0,0,0,0,0,0,0,0,0,0,0,0,0,0,0,0,0,0,0,0,0,0,0,0,0,0,0,0,0,0,0,0,0,0,0,0,0,0,0,0,0,0,0,0,0,0,0,0,0,0,0,0,0,0,0,0,0,0,0,0],"id":24,"left_children":[1,3,5,7,9,11,13,15,17,19,21,23,25,27,29,31,-1,-1,-1,-1,-1,33,35,-1,-1,37,39,41,43,45,47,-1,-1,49,-1,51,-1,53,55,-1,57,59,61,-1,-1,-1,-1,63,65,-1,-1,-1,-1,-1,-1,-1,-1,-1,-1,-1,-1,-1,-1,-1,-1,-1,-1],"loss_changes":[1.8470815E0,1.03059E0,2.2147515E0,1.8081727E0,2.1453726E0,1.0992348E0,1.6219132E0,2.7799273E0,4.8386288E-1,2.2803884E0,2.5725229E0,1.1431211E-1,1.6468687E0,3.0189126E0,1.8170749E0,2.589723E0,0E0,0E0,0E0,0E0,0E0,2.680967E0,1.9402945E0,0E0,0E0,2.9762645E0,2.5701091E0,9.0741634E-1,9.4915795E-1,2.5437155E0,1.8313627E0,0E0,0E0,4.1295E0,0E0,8.783455E-1,0E0,1.0108118E0,1.0680755E0,0E0,2.0839841E0,2.191537E0,1.409769E-1,0E0,0E0,0E0,0E0,4.941102E0,1.3416586E0,0E0,0E0,0E0,0E0,0E0,0E0,0E0,0E0,0E0,0E0,0E0,0E0,0E0,0E0,0E0,0E0,0E0,0E0],"parents":[2147483647,0,0,1,1,2,2,3,3,4,4,5,5,6,6,7,7,8,8,9,9,10,10,11,11,12,12,13,13,14,14,15,15,21,21,22,22,25,25,26,26,27,27,28,28,29,29,30,30,33,33,35,35,37,37,38,38,40,40,41,41,42,42,47,47,48,48],"right_children":[2,4,6,8,10,12,14,16,18,20,22,24,26,28,30,32,-1,-1,-1,-1,-1,34,36,-1,-1,38,40,42,44,46,48,-1,-1,50,-1,52,-1,54,56,-1,58,60,62,-1,-1,-1,-1,64,66,-1,-1,-1,-1,-1,-1,-1,-1,-1,-1,-1,-1,-1,-1,-1,-1,-1,-1],"split_conditions":[1E0,-4.1349015E-1,-1.1442218E0,-1.3465306E-1,-3.9734393E-1,-2.678107E-1,-2.3391603E-1,-1.5665121E-1,-1.3390154E-2,-1.6011104E-1,-1.210952E-1,-2.8524226E-1,-2.3924235E-1,1E0,-2.4386883E-1,-2.2747755E-1,1.257451E-1,-7.3671885E-2,-6.527441E-3,1.552279E-1,-8.6670155E-3,-1.7091228E-1,4.2648014E-1,-8.1791375E-3,-5.7596363E-2,-2.2137283E-1,-2.276213E-1,-2.678107E-1,-2.54763E-1,-2.2616868E-1,-2.4533643E-1,5.5739254E-2,-7.24448E-2,-1.8360783E-1,-8.032917E-2,-1.7050599E-1,-2.5356943E-2,-2.3962268E-1,-2.4311602E-1,-7.498144E-2,-4.1403085E-1,-1.1795803E0,8.9591926E-1,-1.3232854E-2,8.741804E-2,1.3374488E-1,-2.2699868E-2,9.4596505E-1,-1.9469506E-1,-1.7667102E-2,1.4590658E-1,1.2299776E-1,3.3049744E-2,4.0796172E-2,1.6188367E-1,-6.18471E-2,3.7423052E-2,8.10951E-2,7.2105243E-3,5.712542E-2,-6.888296E-2,-8.814406E-2,-2.867809E-2,-1.16412565E-2,9.1941305E-2,1.2580237E-2,-5.502832E-2],"split_indices":[12,2,6,1,2,1,1,0,0,0,1,1,1,14,0,0,0,0,0,0,0,0,6,0,0,0,1,1,0,1,2,0,0,0,0,5,0,0,1,0,2,5,6,0,0,0,0,3,1,0,0,0,0,0,0,0,0,0,0,0,0,0,0,0,0,0,0],"split_type":[0,0,0,0,0,0,0,0,0,0,0,0,0,0,0,0,0,0,0,0,0,0,0,0,0,0,0,0,0,0,0,0,0,0,0,0,0,0,0,0,0,0,0,0,0,0,0,0,0,0,0,0,0,0,0,0,0,0,0,0,0,0,0,0,0,0,0],"sum_hessian":[1.5758495E2,2.9242603E1,1.2834235E2,9.470589E0,1.9772015E1,4.884357E1,7.949878E1,5.4655647E0,4.005024E0,2.7657647E0,1.700625E1,2.2797997E0,4.656377E1,1.437916E1,6.511962E1,4.3342576E0,1.131307E0,2.0028288E0,2.0021951E0,1.6685259E0,1.0972389E0,9.895633E0,7.1106176E0,1.0833906E0,1.1964092E0,6.1132865E0,4.0450485E1,1.1985827E1,2.393333E0,2.6829872E0,6.243663E1,2.1013849E0,2.2328727E0,6.9987593E0,2.8968737E0,5.5630956E0,1.5475222E0,3.6300328E0,2.4832537E0,2.4166913E0,3.8033794E1,3.6434667E0,8.3423605E0,1.2704604E0,1.1228727E0,1.128632E0,1.5543553E0,4.7365646E1,1.5070986E1,5.9938927E0,1.0048667E0,2.5022602E0,3.0608354E0,2.365812E0,1.2642207E0,1.3944324E0,1.0888214E0,3.3291113E0,3.470468E1,1.5048275E0,2.1386395E0,6.5678525E0,1.7745082E0,4.3225048E1,4.1405983E0,3.3961687E0,1.1674817E1],"tree_param":{"num_deleted":"0","num_feature":"28","num_nodes":"67","size_leaf_vector":"1"}},{"base_weights":[1.5992222E-2,4.3690506E-2,-3.6466447E-1,4.1298681E-1,1.2229884E-2,-6.1246675E-1,1.7147245E-1,9.699296E-2,1.9699791E-1,-2.8223658E-2,3.741696E-1,-1.1680351E-1,-8.1433505E-2,-5.1861383E-2,5.628914E-1,-1.5430942E-1,7.610828E-1,4.961702E-2,-4.1916716E-1,9.2682505E-1,1.1668706E-1,-5.317366E-2,3.2331802E-2,8.922175E-2,-4.459225E-3,3.1967378E-1,-7.2239004E-2,1.120463E-1,-7.659404E-3,-8.345893E-3,1.0656422E0,-6.138095E-1,2.8725722E-1,1.086707E0,2.616154E-2,-7.081608E-2,3.8465282E-1,-5.5634346E-2,8.100318E-2,1.4102678E-2,-1.3694003E-2,1.4844805E-1,-1.734632E-2,-3.837617E-2,-8.7486796E-2,-4.3353833E-2,1.0487397E-1,1.443321E-1,2.3835061E-2,-2.0717645E-2,8.6573526E-2],"categories":[],"categories_nodes":[],"categories_segments":[],"categories_sizes":[],"default_left":[0,0,0,0,0,0,0,0,0,0,0,0,0,0,0,0,0,0,0,0,0,0,0,0,0,0,0,0,0,0,0,0,0,0,0,0,0,0,0,0,0,0,0,0,0,0,0,0,0,0,0],"id":25,"left_children":[1,3,5,7,9,11,13,-1,15,17,19,21,-1,-1,23,25,27,29,31,33,35,-1,-1,-1,-1,37,-1,-1,-1,39,41,43,45,47,-1,-1,49,-1,-1,-1,-1,-1,-1,-1,-1,-1,-1,-1,-1,-1,-1],"loss_changes":[1.6845498E0,1.7193148E0,1.5453895E0,1.2068266E0,2.0281544E0,6.686609E-1,1.4286338E0,0E0,2.0254567E0,3.8208814E0,1.8731158E0,7.8855056E-1,0E0,0E0,6.729257E-1,2.0523708E0,1.2489674E0,6.194486E0,3.041954E0,1.710198E-1,2.6246316E0,0E0,0E0,0E0,0E0,2.332546E0,0E0,0E0,0E0,1.9470112E0,3.2034626E0,6.6466E-1,3.2995462E0,6.04275E-1,0E0,0E0,2.65089E0,0E0,0E0,0E0,0E0,0E0,0E0,0E0,0E0,0E0,0E0,0E0,0E0,0E0,0E0],"parents":[2147483647,0,0,1,1,2,2,3,3,4,4,5,5,6,6,8,8,9,9,10,10,11,11,14,14,15,15,16,16,17,17,18,18,19,19,20,20,25,25,29,29,30,30,31,31,32,32,33,33,36,36],"right_children":[2,4,6,8,10,12,14,-1,16,18,20,22,-1,-1,24,26,28,30,32,34,36,-1,-1,-1,-1,38,-1,-1,-1,40,42,44,46,48,-1,-1,50,-1,-1,-1,-1,-1,-1,-1,-1,-1,-1,-1,-1,-1,-1],"split_conditions":[1E0,1E0,1.9139973E0,-2.4650548E-1,2.7268878E-1,-4.144697E-1,-1.9566348E-1,9.699296E-2,-8.789077E-2,-6.0084794E-2,3.035566E-1,8.82063E-1,-8.1433505E-2,-5.1861383E-2,-1.0560049E-1,-1.7242141E-1,1.3456745E-1,-8.187422E-2,1.9139973E0,3.8092983E-1,6.042507E-1,-5.317366E-2,3.2331802E-2,8.922175E-2,-4.459225E-3,-2.3311049E-1,-7.2239004E-2,1.120463E-1,-7.659404E-3,-1.1442218E0,1.6016868E0,-4.1496736E-1,1E0,-3.9236552E-1,2.616154E-2,-7.081608E-2,-3.9236552E-1,-5.5634346E-2,8.100318E-2,1.4102678E-2,-1.3694003E-2,1.4844805E-1,-1.734632E-2,-3.837617E-2,-8.7486796E-2,-4.3353833E-2,1.0487397E-1,1.443321E-1,2.3835061E-2,-2.0717645E-2,8.6573526E-2],"split_indices":[17,19,3,1,0,2,1,0,0,1,1,5,0,0,1,1,1,1,3,0,1,0,0,0,0,0,0,0,0,6,7,6,15,2,0,0,2,0,0,0,0,0,0,0,0,0,0,0,0,0,0],"split_type":[0,0,0,0,0,0,0,0,0,0,0,0,0,0,0,0,0,0,0,0,0,0,0,0,0,0,0,0,0,0,0,0,0,0,0,0,0,0,0,0,0,0,0,0,0,0,0,0,0,0,0],"sum_hessian":[1.5725972E2,1.4741814E2,9.84158E0,1.0620752E1,1.367974E2,6.6333013E0,3.2082796E0,1.9924453E0,8.628307E0,1.2387415E2,1.2923236E1,2.376559E0,4.256742E0,1.0435332E0,2.1647463E0,5.7646036E0,2.8637037E0,1.040332E2,1.9840946E1,3.281126E0,9.642109E0,1.1161389E0,1.2604202E0,1.0998116E0,1.0649347E0,3.3809505E0,2.3836532E0,1.7677288E0,1.095975E0,9.935681E1,4.6763906E0,1.5657821E1,4.1831245E0,2.1344779E0,1.1466483E0,1.9615058E0,7.6806035E0,1.1650466E0,2.215904E0,4.5920128E1,5.3436687E1,3.347017E0,1.3293737E0,9.636256E0,6.021565E0,2.3702166E0,1.8129078E0,1.0090152E0,1.1254627E0,3.699195E0,3.9814086E0],"tree_param":{"num_deleted":"0","num_feature":"28","num_nodes":"51","size_leaf_vector":"1"}},{"base_weights":[1.5562344E-2,4.1503195E-2,-3.4925207E-1,2.2653105E-2,5.761504E-1,-5.870081E-1,1.11454874E-1,7.3343366E-3,6.528747E-1,-1.7510593E-2,8.581705E-1,-8.056648E-2,-4.9392954E-2,3.7290372E-2,-2.2702958E-2,2.3173321E-2,-7.268083E-2,-5.919075E-3,9.861643E-2,1.04340926E-1,2.432247E-2,-6.871914E-4,-6.625405E-3,4.6831868E-3,5.394591E-1,2.2869967E-3,-7.373186E-2,-5.458976E-2,9.972173E-2],"categories":[],"categories_nodes":[],"categories_segments":[],"categories_sizes":[],"default_left":[0,0,0,0,0,0,0,0,0,0,0,0,0,0,0,0,0,0,0,0,0,0,0,0,0,0,0,0,0],"id":26,"left_children":[1,3,5,7,9,11,13,15,17,-1,19,-1,21,-1,-1,23,-1,-1,-1,-1,-1,-1,-1,25,27,-1,-1,-1,-1],"loss_changes":[1.509914E0,1.482763E0,1.2261183E0,1.3893565E0,1.2125348E0,8.005953E-1,4.7824377E-1,1.6679405E0,8.689418E-1,0E0,1.8076634E-1,0E0,1.7903899E-3,0E0,0E0,1.3335849E0,0E0,0E0,0E0,0E0,0E0,0E0,0E0,1.8539151E0,2.9443305E0,0E0,0E0,0E0,0E0],"parents":[2147483647,0,0,1,1,2,2,3,3,4,4,5,5,6,6,7,7,8,8,10,10,12,12,15,15,23,23,24,24],"right_children":[2,4,6,8,10,12,14,16,18,-1,20,-1,22,-1,-1,24,-1,-1,-1,-1,-1,-1,-1,26,28,-1,-1,-1,-1],"split_conditions":[1.034294E0,7.2383823E0,1.6842227E0,6.9938803E0,-1.9288646E-1,1.6016868E0,-1.7532668E-1,6.967733E0,-3.9734393E-1,-1.7510593E-2,-9.675478E-2,-8.056648E-2,-1.6515827E-1,3.7290372E-2,-2.2702958E-2,6.042507E-1,-7.268083E-2,-5.919075E-3,9.861643E-2,1.04340926E-1,2.432247E-2,-6.871914E-4,-6.625405E-3,3.035566E-1,-6.837421E-1,2.2869967E-3,-7.373186E-2,-5.458976E-2,9.972173E-2],"split_indices":[5,4,6,1,0,7,1,1,2,0,0,0,1,0,0,1,0,0,0,0,0,0,0,1,5,0,0,0,0],"split_type":[0,0,0,0,0,0,0,0,0,0,0,0,0,0,0,0,0,0,0,0,0,0,0,0,0,0,0,0,0],"sum_hessian":[1.5701807E2,1.474216E2,9.596469E0,1.4340784E2,4.013768E0,6.149014E0,3.4474552E0,1.4099237E2,2.4154577E0,1.1989797E0,2.8147886E0,4.016748E0,2.1322658E0,1.8876945E0,1.5597607E0,1.3896272E2,2.0296588E0,1.0323244E0,1.3831332E0,1.6277232E0,1.1870654E0,1.0051061E0,1.1271598E0,1.351322E2,3.8305209E0,1.3284528E2,2.2869165E0,1.0791891E0,2.7513318E0],"tree_param":{"num_deleted":"0","num_feature":"28","num_nodes":"29","size_leaf_vector":"1"}},{"base_weights":[1.3910305E-2,2.1117312E-1,-3.331748E-2,4.1536668E-1,4.9050022E-2,-5.5595475E-1,-6.2665083E-3,9.393497E-2,1.8881749E-1,2.553752E-1,-5.067994E-1,-8.20175E-2,1.627454E-2,8.30821E-1,-2.8372262E-2,3.5014668E-1,-7.2333835E-2,-1.8255144E-1,4.8676163E-1,-7.568147E-2,-1.1385819E-5,1.4297986E-1,-9.72383E-3,-1.7121476E-1,6.999759E-2,-6.706094E-2,8.0524194E-1,3.6230724E-2,-4.0118206E-1,7.1418625E-1,-3.1919353E-2,-3.879133E-1,9.921847E-2,1.5131916E-1,-1.7406838E-1,7.6040365E-2,-4.3003585E-2,-1.5380059E-3,1.3399409E-1,-6.954275E-2,4.0884237E-3,-1.1176543E-3,9.5172234E-2,-2.1572834E-2,-8.7958805E-2,6.223693E-2,-1.3419442E-2,3.837714E-2,-5.9275026E-3,-6.8391405E-2,2.3230234E-2],"categories":[],"categories_nodes":[],"categories_segments":[],"categories_sizes":[],"default_left":[0,0,0,0,0,0,0,0,0,0,0,0,0,0,0,0,0,0,0,0,0,0,0,0,0,0,0,0,0,0,0,0,0,0,0,0,0,0,0,0,0,0,0,0,0,0,0,0,0,0,0],"id":27,"left_children":[1,3,5,7,9,11,13,15,-1,17,19,-1,-1,21,23,25,-1,27,29,-1,-1,-1,-1,31,33,35,37,-1,39,41,-1,43,45,47,49,-1,-1,-1,-1,-1,-1,-1,-1,-1,-1,-1,-1,-1,-1,-1,-1],"loss_changes":[1.4797616E0,9.9502194E-1,1.8119335E0,6.1857E0,2.220311E0,1.3312938E0,2.301481E0,2.7839055E0,0E0,1.5035332E0,6.675663E-1,0E0,0E0,1.9179888E0,1.7108034E0,1.9289206E0,0E0,8.069213E-1,1.9522734E0,0E0,0E0,0E0,0E0,2.9448838E0,1.4614427E0,2.151612E0,2.1267037E0,0E0,6.056944E-1,1.3280191E0,0E0,2.1584005E0,2.874772E0,2.703886E0,3.999227E0,0E0,0E0,0E0,0E0,0E0,0E0,0E0,0E0,0E0,0E0,0E0,0E0,0E0,0E0,0E0,0E0],"parents":[2147483647,0,0,1,1,2,2,3,3,4,4,5,5,6,6,7,7,9,9,10,10,13,13,14,14,15,15,17,17,18,18,23,23,24,24,25,25,26,26,28,28,29,29,31,31,32,32,33,33,34,34],"right_children":[2,4,6,8,10,12,14,16,-1,18,20,-1,-1,22,24,26,-1,28,30,-1,-1,-1,-1,32,34,36,38,-1,40,42,-1,44,46,48,50,-1,-1,-1,-1,-1,-1,-1,-1,-1,-1,-1,-1,-1,-1,-1,-1],"split_conditions":[1E0,-1.7532668E-1,-2.7120018E-1,-1.8065298E-1,1.6016868E0,1.6016868E0,-2.6490545E-1,-2.0002136E-1,1.8881749E-1,-4.1254827E-1,-1.3390154E-2,-8.20175E-2,1.627454E-2,-1.1412694E0,-4.025215E-1,-2.2907394E-1,-7.2333835E-2,-1.3465306E-1,4.2648014E-1,-7.568147E-2,-1.1385819E-5,1.4297986E-1,-9.72383E-3,-1.3997938E-1,-6.0084794E-2,-2.6174697E-1,-4.799212E-1,3.6230724E-2,-1.3390154E-2,-1.210952E-1,-3.1919353E-2,-4.1349015E-1,-4.146762E-1,-2.4533643E-1,9.09886E-2,7.6040365E-2,-4.3003585E-2,-1.5380059E-3,1.3399409E-1,-6.954275E-2,4.0884237E-3,-1.1176543E-3,9.5172234E-2,-2.1572834E-2,-8.7958805E-2,6.223693E-2,-1.3419442E-2,3.837714E-2,-5.9275026E-3,-6.8391405E-2,2.3230234E-2],"split_indices":[12,1,1,1,7,7,1,1,0,2,0,0,0,6,2,1,0,1,6,0,0,0,0,1,1,0,6,0,0,1,0,2,2,2,1,0,0,0,0,0,0,0,0,0,0,0,0,0,0,0,0],"split_type":[0,0,0,0,0,0,0,0,0,0,0,0,0,0,0,0,0,0,0,0,0,0,0,0,0,0,0,0,0,0,0,0,0,0,0,0,0,0,0,0,0,0,0,0,0,0,0,0,0,0,0],"sum_hessian":[1.570808E2,2.9672441E1,1.27408356E2,1.2440996E1,1.7231445E1,5.3077655E0,1.22100586E2,1.10854435E1,1.3555532E0,1.2961023E1,4.270422E0,3.777739E0,1.5300262E0,2.2002153E0,1.19900375E2,8.874799E0,2.2106447E0,4.553683E0,8.407341E0,2.5289147E0,1.7415069E0,1.0086141E0,1.1916014E0,4.8595093E1,7.1305275E1,5.0749726E0,3.7998261E0,1.1157955E0,3.4378874E0,6.6458707E0,1.7614698E0,2.67366E1,2.1858492E1,5.376954E1,1.753574E1,1.2135509E0,3.8614216E0,1.8822714E0,1.9175547E0,1.7199415E0,1.717946E0,1.8745415E0,4.7713294E0,2.0867533E1,5.869068E0,6.229611E0,1.5628881E1,2.5167511E1,2.8602028E1,7.474727E0,1.0061012E1],"tree_param":{"num_deleted":"0","num_feature":"28","num_nodes":"51","size_leaf_vector":"1"}},{"base_weights":[1.2936343E-2,3.671163E-2,-3.314501E-1,1.8744336E-2,5.4490906E-1,-5.852729E-1,1.7503028E-1,4.2642816E-3,6.058192E-1,8.247901E-1,-1.6545182E-2,-8.082996E-2,-1.9691805E-3,-5.5261124E-2,6.5039545E-2,1.9251443E-2,-7.146753E-2,1.6260793E-2,8.43027E-2,2.759513E-2,1.11717306E-1,6.5176845E-2,-1.6630995E-1,1.3071418E-2,-1.2252819E-2,8.86282E-3,-6.2361743E-2],"categories":[],"categories_nodes":[],"categories_segments":[],"categories_sizes":[],"default_left":[0,0,0,0,0,0,0,0,0,0,0,0,0,0,0,0,0,0,0,0,0,0,0,0,0,0,0],"id":28,"left_children":[1,3,5,7,9,11,13,15,17,19,-1,-1,-1,-1,-1,21,-1,-1,-1,-1,-1,23,25,-1,-1,-1,-1],"loss_changes":[1.3061495E0,1.3478354E0,1.4272676E0,1.2273868E0,1.1391305E0,8.790736E-1,1.8157032E0,1.5460708E0,2.2832716E-1,2.9907537E-1,0E0,0E0,0E0,0E0,0E0,1.2063159E0,0E0,0E0,0E0,0E0,0E0,1.4081862E0,3.3327637E0,0E0,0E0,0E0,0E0],"parents":[2147483647,0,0,1,1,2,2,3,3,4,4,5,5,6,6,7,7,8,8,9,9,15,15,21,21,22,22],"right_children":[2,4,6,8,10,12,14,16,18,20,-1,-1,-1,-1,-1,22,-1,-1,-1,-1,-1,24,26,-1,-1,-1,-1],"split_conditions":[1E0,7.2383823E0,1.6016868E0,6.9938803E0,1E0,-1.01737216E-1,-1.9614768E-1,6.967733E0,-3.9236552E-1,1.6016868E0,-1.6545182E-2,-8.082996E-2,-1.9691805E-3,-5.5261124E-2,6.5039545E-2,6.390563E-1,-7.146753E-2,1.6260793E-2,8.43027E-2,2.759513E-2,1.11717306E-1,1.6016868E0,-3.571733E-1,1.3071418E-2,-1.2252819E-2,8.86282E-3,-6.2361743E-2],"split_indices":[17,4,7,1,23,0,1,1,2,7,0,0,0,0,0,6,0,0,0,0,0,7,2,0,0,0,0],"split_type":[0,0,0,0,0,0,0,0,0,0,0,0,0,0,0,0,0,0,0,0,0,0,0,0,0,0,0],"sum_hessian":[1.5703606E2,1.4773062E2,9.305428E0,1.4368745E2,4.043179E0,6.095232E0,3.2101958E0,1.4121176E2,2.4756887E0,2.7848616E0,1.2583174E0,4.0636544E0,2.0315778E0,1.2042903E0,2.0059056E0,1.392815E2,1.930268E0,1.4506769E0,1.0250119E0,1.6435382E0,1.1413232E0,1.12169044E2,2.7112448E1,8.336553E1,2.8803509E1,1.7925564E1,9.186885E0],"tree_param":{"num_deleted":"0","num_feature":"28","num_nodes":"27","size_leaf_vector":"1"}},{"base_weights":[1.145824E-2,1.9236049E-1,-3.2370083E-2,3.8437098E-1,3.8654577E-2,-5.340067E-1,-7.459585E-3,9.0004675E-2,1.6191311E-1,6.556335E-1,-1.298919E-1,-8.056137E-2,1.597279E-2,7.618972E-1,-2.845809E-2,3.2408226E-1,-7.0568055E-2,-3.0073201E-2,1.4925675E-1,-3.0391064E-1,5.445431E-1,1.2762675E-1,-9.593984E-3,-8.4679484E-2,2.0329155E-1,-5.710673E-2,7.1627814E-1,-8.3456665E-2,-7.897183E-2,9.231149E-2,-1.4895941E-2,-1.0848376E-1,3.4743097E-1,-6.723826E-2,5.779948E-1,6.901585E-2,-4.0890586E-2,-1.3691972E-3,1.1573722E-1,-7.1461394E-2,1.9267304E-2,4.0911894E-2,-1.3113605E-2,-3.90433E-2,8.3642885E-2,4.2139318E-2,-5.5717357E-2,1.04210675E-1,-3.1344704E-2],"categories":[],"categories_nodes":[],"categories_segments":[],"categories_sizes":[],"default_left":[0,0,0,0,0,0,0,0,0,0,0,0,0,0,0,0,0,0,0,0,0,0,0,0,0,0,0,0,0,0,0,0,0,0,0,0,0,0,0,0,0,0,0,0,0,0,0,0,0],"id":29,"left_children":[1,3,5,7,9,11,13,15,-1,17,19,-1,-1,21,23,25,-1,-1,-1,27,29,-1,-1,31,33,35,37,39,-1,-1,-1,41,43,45,47,-1,-1,-1,-1,-1,-1,-1,-1,-1,-1,-1,-1,-1,-1],"loss_changes":[1.2595831E0,8.9927304E-1,1.5968301E0,4.8189774E0,1.9896853E0,1.2679636E0,2.0097501E0,2.4802103E0,0E0,3.7265804E0,1.9517226E0,0E0,0E0,1.5809848E0,1.5905529E0,1.5397892E0,0E0,0E0,0E0,1.2985021E0,1.0510781E0,0E0,0E0,1.0445411E0,2.458445E0,1.8622867E0,1.6307528E0,1.8598187E0,0E0,0E0,0E0,1.1503493E0,2.2564619E0,3.7676399E0,4.5102515E0,0E0,0E0,0E0,0E0,0E0,0E0,0E0,0E0,0E0,0E0,0E0,0E0,0E0,0E0],"parents":[2147483647,0,0,1,1,2,2,3,3,4,4,5,5,6,6,7,7,9,9,10,10,13,13,14,14,15,15,19,19,20,20,23,23,24,24,25,25,26,26,27,27,31,31,32,32,33,33,34,34],"right_children":[2,4,6,8,10,12,14,16,-1,18,20,-1,-1,22,24,26,-1,-1,-1,28,30,-1,-1,32,34,36,38,40,-1,-1,-1,42,44,46,48,-1,-1,-1,-1,-1,-1,-1,-1,-1,-1,-1,-1,-1,-1],"split_conditions":[1E0,-1.7532668E-1,-2.7120018E-1,-1.8065298E-1,-9.01215E-1,1.6016868E0,-2.6490545E-1,-2.0002136E-1,1.6191311E-1,-2.4533643E-1,2.7268878E-1,-8.056137E-2,1.597279E-2,-2.54763E-1,1.9139973E0,-2.2907394E-1,-7.0568055E-2,-3.0073201E-2,1.4925675E-1,1.6016868E0,6.955628E0,1.2762675E-1,-9.593984E-3,5.123835E0,-1.2496888E-1,-2.6174697E-1,-4.799212E-1,1.3395612E-1,-7.897183E-2,9.231149E-2,-1.4895941E-2,-4.1519454E-1,-1.5256882E-1,-1.9469506E-1,2.5190175E0,6.901585E-2,-4.0890586E-2,-1.3691972E-3,1.1573722E-1,-7.1461394E-2,1.9267304E-2,4.0911894E-2,-1.3113605E-2,-3.90433E-2,8.3642885E-2,4.2139318E-2,-5.5717357E-2,1.04210675E-1,-3.1344704E-2],"split_indices":[12,1,1,1,5,7,1,1,0,2,0,0,0,0,3,1,0,0,0,7,1,0,0,4,1,0,6,5,0,0,0,2,1,1,3,0,0,0,0,0,0,0,0,0,0,0,0,0,0],"split_type":[0,0,0,0,0,0,0,0,0,0,0,0,0,0,0,0,0,0,0,0,0,0,0,0,0,0,0,0,0,0,0,0,0,0,0,0,0,0,0,0,0,0,0,0,0,0,0,0,0],"sum_hessian":[1.5707957E2,2.997368E1,1.27105896E2,1.2659124E1,1.7314556E1,5.046415E0,1.2205948E2,1.1088518E1,1.5706058E0,3.0950246E0,1.4219532E1,3.5106673E0,1.5357472E0,2.3055048E0,1.19753975E2,9.025936E0,2.0625825E0,1.7434529E0,1.3515717E0,1.1739797E1,2.4797354E0,1.1363568E0,1.169148E0,9.688478E1,2.2869194E1,5.010473E0,4.015463E0,8.881337E0,2.8584595E0,1.3899133E0,1.089822E0,9.2536064E1,4.3487196E0,1.3757241E1,9.111953E0,1.2959392E0,3.7145336E0,1.877437E0,2.138026E0,2.2197132E0,6.661624E0,3.1645913E0,8.937147E1,1.813635E0,2.535085E0,6.957829E0,6.7994123E0,5.8810735E0,3.2308793E0],"tree_param":{"num_deleted":"0","num_feature":"28","num_nodes":"49","size_leaf_vector":"1"}},{"base_weights":[1.2499942E-2,3.4775667E-2,-3.1664655E-1,-3.5466682E-2,1.3294719E-1,-5.021017E-1,2.3982576E-1,3.258884E-2,-4.6557117E-1,9.911381E-1,3.4893338E-2,-7.473833E-2,-2.1584417E-1,4.7570135E-2,-8.916789E-3,-9.807705E-3,9.1153026E-1,1.0710206E-1,-6.898564E-1,3.670846E-1,1.5504725E-1,-8.343113E-2,1.1124158E-1,4.9193677E-2,-5.1270485E-1,-2.7068692E-1,8.442072E-2,-1.2137338E-2,1.4266741E-1,-5.8045197E-2,5.500061E-1,5.4639294E-3,-8.913409E-2,1.2778805E-1,-6.551342E-2,1.2021841E0,2.2964813E-2,-6.759923E-2,-1.2764286E-3,3.540806E-2,-5.327345E-2,1.936919E-2,-3.43641E-2,-4.939241E-3,8.759352E-2,2.3384118E-2,1.5872876E-1,7.844346E-3,-4.6407662E-2],"categories":[],"categories_nodes":[],"categories_segments":[],"categories_sizes":[],"default_left":[0,0,0,0,0,0,0,0,0,0,0,0,0,0,0,0,0,0,0,0,0,