{"learner":{"attributes":{"scikit_learn":"{\"_estimator_type\": \"classifier\"}"},"feature_names":[],"feature_types":[],"gradient_booster":{"model":{"cats":{"enc":[],"feature_segments":[],"sorted_idx":[]},"gbtree_model_param":{"num_parallel_tree":"1","num_trees":"300"},"iteration_indptr":[0,1,2,3,4,5,6,7,8,9,10,11,12,13,14,15,16,17,18,19,20,21,22,23,24,25,26,27,28,29,30,31,32,33,34,35,36,37,38,39,40,41,42,43,44,45,46,47,48,49,50,51,52,53,54,55,56,57,58,59,60,61,62,63,64,65,66,67,68,69,70,71,72,73,74,75,76,77,78,79,80,81,82,83,84,85,86,87,88,89,90,91,92,93,94,95,96,97,98,99,100,101,102,103,104,105,106,107,108,109,110,111,112,113,114,115,116,117,118,119,120,121,122,123,124,125,126,127,128,129,130,131,132,133,134,135,136,137,138,139,140,141,142,143,144,145,146,147,148,149,150,151,152,153,154,155,156,157,158,159,160,161,162,163,164,165,166,167,168,169,170,171,172,173,174,175,176,177,178,179,180,181,182,183,184,185,186,187,188,189,190,191,192,193,194,195,196,197,198,199,200,201,202,203,204,205,206,207,208,209,210,211,212,213,214,215,216,217,218,219,220,221,222,223,224,225,226,227,228,229,230,231,232,233,234,235,236,237,238,239,240,241,242,243,244,245,246,247,248,249,250,251,252,253,254,255,256,257,258,259,260,261,262,263,264,265,266,267,268,269,270,271,272,273,274,275,276,277,278,279,280,281,282,283,284,285,286,287,288,289,290,291,292,293,294,295,296,297,298,299,300],"tree_info":[0,0,0,0,0,0,0,0,0,0,0,0,0,0,0,0,0,0,0,0,0,0,0,0,0,0,0,0,0,0,0,0,0,0,0,0,0,0,0,0,0,0,0,0,0,0,0,0,0,0,0,0,0,0,0,0,0,0,0,0,0,0,0,0,0,0,0,0,0,0,0,0,0,0,0,0,0,0,0,0,0,0,0,0,0,0,0,0,0,0,0,0,0,0,0,0,0,0,0,0,0,0,0,0,0,0,0,0,0,0,0,0,0,0,0,0,0,0,0,0,0,0,0,0,0,0,0,0,0,0,0,0,0,0,0,0,0,0,0,0,0,0,0,0,0,0,0,0,0,0,0,0,0,0,0,0,0,0,0,0,0,0,0,0,0,0,0,0,0,0,0,0,0,0,0,0,0,0,0,0,0,0,0,0,0,0,0,0,0,0,0,0,0,0,0,0,0,0,0,0,0,0,0,0,0,0,0,0,0,0,0,0,0,0,0,0,0,0,0,0,0,0,0,0,0,0,0,0,0,0,0,0,0,0,0,0,0,0,0,0,0,0,0,0,0,0,0,0,0,0,0,0,0,0,0,0,0,0,0,0,0,0,0,0,0,0,0,0,0,0,0,0,0,0,0,0,0,0,0,0,0,0,0,0,0,0,0,0,0,0,0,0,0,0,0,0,0,0,0,0],"trees":[{"base_weights":[2.14741E-2,-8.8469076E-1,8.146704E0,-2.7807263E-1,-9.700077E-1,1.0120897E1,3.322709E-1,-4.2459238E-1,4.0653244E-1,-9.73094E-1,-1.0359536E-1,-4.4340947E-1,5.2761585E-1,-5.750447E-1,2.189488E-1,-4.8009422E-1,4.065707E-1,-5.3353536E-1,6.6321266E-1,-9.7616535E-1,-1.5498641E-1,2.2017997E-2,-2.8811729E-2,-2.8458126E-3,-2.9828632E-2,-8.372023E-1,3.7009303E-2,9.282036E-3,-5.525553E-1,-1.7158529E-2,4.8745524E-2,-2.8458126E-3,-3.4589916E-2,1.3439717E0,2.1718495E-1,-8.257893E-1,-9.942227E-1,-3.0769844E-2,2.2017997E-2,-2.8458126E-3,-9.0568066E-1,-2.905339E-2,2.0047978E-2,-5.514058E-3,-3.196327E-2,2.2788307E-2,1.0175692E-1,-1.1414943E-2,7.033153E-2,-6.4984704E-3,-4.2391423E-2,-1.5967425E-2,-4.97947E-2,-4.932239E-2,-6.887037E-3],"categories":[],"categories_nodes":[],"categories_segments":[],"categories_sizes":[],"default_left":[0,0,0,0,0,0,0,0,0,0,0,0,0,0,0,0,0,0,0,0,0,0,0,0,0,0,0,0,0,0,0,0,0,0,0,0,0,0,0,0,0,0,0,0,0,0,0,0,0,0,0,0,0,0,0],"id":0,"left_children":[1,3,5,7,9,11,13,15,17,19,21,23,-1,25,-1,27,29,31,33,35,37,-1,-1,-1,-1,39,-1,41,43,-1,-1,-1,-1,45,47,49,51,-1,-1,-1,53,-1,-1,-1,-1,-1,-1,-1,-1,-1,-1,-1,-1,-1,-1],"loss_changes":[5.229332E3,3.280139E1,1.0960005E3,8.216471E0,1.3960571E0,2.6380566E2,5.908378E1,3.2649202E0,3.8883376E0,1.2501221E0,1.0523267E0,1.5490603E-1,0E0,5.263576E0,0E0,2.233365E0,2.34018E0,2.3941004E-1,3.3371878E0,6.871948E-1,1.1685894E0,0E0,0E0,0E0,0E0,5.73575E-1,0E0,2.3342903E0,2.029108E0,0E0,0E0,0E0,0E0,1.858532E0,4.7793574E0,8.934822E-1,2.3571777E-1,0E0,0E0,0E0,5.2706146E-1,0E0,0E0,0E0,0E0,0E0,0E0,0E0,0E0,0E0,0E0,0E0,0E0,0E0,0E0],"parents":[2147483647,0,0,1,1,2,2,3,3,4,4,5,5,6,6,7,7,8,8,9,9,10,10,11,11,13,13,15,15,16,16,17,17,18,18,19,19,20,20,25,25,27,27,28,28,33,33,34,34,35,35,36,36,40,40],"right_children":[2,4,6,8,10,12,14,16,18,20,22,24,-1,26,-1,28,30,32,34,36,38,-1,-1,-1,-1,40,-1,42,44,-1,-1,-1,-1,46,48,50,52,-1,-1,-1,54,-1,-1,-1,-1,-1,-1,-1,-1,-1,-1,-1,-1,-1,-1],"split_conditions":[1.6077532E0,-1.1327937E0,-5.953051E-1,5.176502E-2,6.942044E0,-2.47688E-1,7.1307E-2,2.528484E-1,-2.5212142E-1,1.6092067E0,-1.2983239E-1,-1.9581667E-1,5.2761585E-1,1.7090511E0,2.189488E-1,-4.3586698E-1,-4.2508236E-1,-2.9204E-1,-2.1183306E-1,1E0,-4.155659E-1,2.2017997E-2,-2.8811729E-2,-2.8458126E-3,-2.9828632E-2,-1.14959E0,3.7009303E-2,-2.5097018E-1,-2.7561206E-1,-1.7158529E-2,4.8745524E-2,-2.8458126E-3,-3.4589916E-2,-2.2451237E-1,7.726854E-3,-7.175686E-1,-1.3836715E0,-3.0769844E-2,2.2017997E-2,-2.8458126E-3,5.176502E-2,-2.905339E-2,2.0047978E-2,-5.514058E-3,-3.196327E-2,2.2788307E-2,1.0175692E-1,-1.1414943E-2,7.033153E-2,-6.4984704E-3,-4.2391423E-2,-1.5967425E-2,-4.97947E-2,-4.932239E-2,-6.887037E-3],"split_indices":[5,7,6,3,1,9,1,0,0,4,6,0,0,2,0,2,2,1,1,17,2,0,0,0,0,9,0,1,1,0,0,0,0,0,0,7,9,0,0,0,3,0,0,0,0,0,0,0,0,0,0,0,0,0,0],"split_type":[0,0,0,0,0,0,0,0,0,0,0,0,0,0,0,0,0,0,0,0,0,0,0,0,0,0,0,0,0,0,0,0,0,0,0,0,0,0,0,0,0,0,0,0,0,0,0,0,0,0,0,0,0,0,0],"sum_hessian":[7.0825824E2,6.379969E2,7.0261375E1,7.919148E1,5.588054E2,5.5855267E1,1.440611E1,6.554359E1,1.3647893E1,5.566993E2,2.1061563E0,2.1904027E0,5.3664864E1,1.2468446E1,1.9376639E0,6.183675E1,3.7068353E0,2.6958802E0,1.0952013E1,5.544246E2,2.274649E0,1.0109551E0,1.0952014E0,1.0109551E0,1.1794475E0,1.0699274E1,1.7691714E0,8.087641E0,5.374911E1,1.7691714E0,1.9376639E0,1.0109551E0,1.6849251E0,3.5383427E0,7.4136705E0,6.444839E1,4.8997623E2,1.2636938E0,1.0109551E0,1.0109551E0,9.688319E0,3.0328653E0,5.054775E0,9.182842E0,4.456627E1,2.274649E0,1.2636938E0,5.981484E0,1.4321864E0,2.1904027E0,6.2257984E1,1.6849251E0,4.882913E2,8.508872E0,1.1794475E0],"tree_param":{"num_deleted":"0","num_feature":"33","num_nodes":"55","size_leaf_vector":"1"}},{"base_weights":[-4.5517553E-3,-8.6710846E-1,6.5335035E0,-2.5472137E-1,-9.5694107E-1,-9.989855E-2,3.352608E-1,-3.700847E-1,1.3770063E0,-9.697072E-1,-4.4590947E-1,-2.8131321E-2,2.0563392E-2,-4.187231E-1,5.623215E-2,1.7177966E-1,1.04940966E-1,-9.728075E-1,-2.190444E-1,4.266357E-2,-6.596855E-1,-5.938335E-1,-1.7998634E-1,-7.55407E-3,2.2030681E-2,-8.3923477E-1,-9.9323606E-1,-3.309479E-2,2.2125622E-2,-8.584056E-1,4.4877615E-2,9.058301E-3,-3.1207994E-2,1.1831218E-3,-4.1927405E-2,-1.1938416E-2,-4.383143E-2,-3.3704255E-2,-4.997735E-2,-4.9136613E-2,-2.017705E-2],"categories":[],"categories_nodes":[],"categories_segments":[],"categories_sizes":[],"default_left":[0,0,0,0,0,0,0,0,0,0,0,0,0,0,0,0,0,0,0,0,0,0,0,0,0,0,0,0,0,0,0,0,0,0,0,0,0,0,0,0,0],"id":1,"left_children":[1,3,5,7,9,11,-1,13,15,17,19,-1,-1,21,-1,23,-1,25,27,-1,29,31,33,-1,-1,35,37,-1,-1,39,-1,-1,-1,-1,-1,-1,-1,-1,-1,-1,-1],"loss_changes":[4.0644458E3,3.4783234E1,9.63501E1,1.6098856E1,3.1877136E0,9.657971E-1,0E0,6.151412E0,4.580989E0,1.0448608E0,4.8331404E0,0E0,0E0,3.0870914E0,0E0,3.457738E-1,0E0,6.3449097E-1,1.3223543E0,0E0,5.0306697E0,1.1387148E0,4.547898E0,0E0,0E0,1.5379791E0,2.5509644E-1,0E0,0E0,3.2276535E-1,0E0,0E0,0E0,0E0,0E0,0E0,0E0,0E0,0E0,0E0,0E0],"parents":[2147483647,0,0,1,1,2,2,3,3,4,4,5,5,7,7,8,8,9,9,10,10,13,13,15,15,17,17,18,18,20,20,21,21,22,22,25,25,26,26,29,29],"right_children":[2,4,6,8,10,12,-1,14,16,18,20,-1,-1,22,-1,24,-1,26,28,-1,30,32,34,-1,-1,36,38,-1,-1,40,-1,-1,-1,-1,-1,-1,-1,-1,-1,-1,-1],"split_conditions":[1.5482323E0,-1.0977043E0,3.196194E-1,1.14309505E-1,1.6092067E0,-2.2543457E-1,3.352608E-1,2.6014163E0,-4.2376748E-1,6.942044E0,-1.14959E0,-2.8131321E-2,2.0563392E-2,-3.0765364E-1,5.623215E-2,5.4346555E-1,1.04940966E-1,-1.1820354E0,-6.194644E-1,4.266357E-2,1E0,-2.9092565E-1,1.9497086E0,-7.55407E-3,2.2030681E-2,-2.9287016E-1,-1.342363E0,-3.309479E-2,2.2125622E-2,-2.8522223E-1,4.4877615E-2,9.058301E-3,-3.1207994E-2,1.1831218E-3,-4.1927405E-2,-1.1938416E-2,-4.383143E-2,-3.3704255E-2,-4.997735E-2,-4.9136613E-2,-2.017705E-2],"split_indices":[10,7,4,1,4,0,0,5,10,1,9,0,0,10,0,0,0,6,9,0,23,0,13,0,0,0,9,0,0,2,0,0,0,0,0,0,0,0,0,0,0],"split_type":[0,0,0,0,0,0,0,0,0,0,0,0,0,0,0,0,0,0,0,0,0,0,0,0,0,0,0,0,0,0,0,0,0,0,0,0,0,0,0,0,0],"sum_hessian":[7.1871295E2,6.3571173E2,8.3001205E1,8.181514E1,5.538966E2,2.1049087E0,8.08963E1,7.713489E1,4.68025E0,5.3952124E2,1.4375339E1,1.0519607E0,1.052948E0,7.54012E1,1.7336874E0,2.216798E0,2.463452E0,5.370074E2,2.5138488E0,1.6085106E0,1.2766828E1,4.263879E1,3.276241E1,1.2062011E0,1.0105969E0,7.681728E1,4.6019012E2,1.5055256E0,1.0083232E0,1.17199955E1,1.0468322E0,1.4183567E0,4.1220432E1,2.5760494E1,7.001916E0,4.9362755E0,7.1881004E1,1.1013928E1,4.491762E2,8.292845E0,3.4271502E0],"tree_param":{"num_deleted":"0","num_feature":"33","num_nodes":"41","size_leaf_vector":"1"}},{"base_weights":[1.9413657E-2,-8.4921515E-1,5.0114627E0,-2.7579707E-1,-9.3595064E-1,2.3770195E-3,2.5460872E-1,-3.368791E-1,9.813562E-2,-9.4285923E-1,4.99036E-1,-4.5489764E-1,5.8477104E-1,-9.6955335E-1,-5.104989E-1,-6.918926E-3,4.7155146E-2,-5.224218E-1,6.2223285E-1,-3.326313E-1,1.0634056E0,-9.8049086E-1,-5.377996E-1,6.2776583E-1,-7.033435E-1,5.4474396E-5,-2.9707864E-2,-3.2859407E-3,5.7703502E-2,-3.6784016E-2,2.161379E-2,7.239926E-2,9.772374E-3,-1.3370532E-2,-4.9110267E-2,3.1961154E-2,-3.8497068E-2,5.215738E-2,-1.2683891E-2,-4.0245634E-2,-2.0792733E-3],"categories":[],"categories_nodes":[],"categories_segments":[],"categories_sizes":[],"default_left":[0,0,0,0,0,0,0,0,0,0,0,0,0,0,0,0,0,0,0,0,0,0,0,0,0,0,0,0,0,0,0,0,0,0,0,0,0,0,0,0,0],"id":2,"left_children":[1,3,5,7,9,-1,-1,11,-1,13,15,17,19,21,23,-1,-1,25,27,29,31,33,35,37,39,-1,-1,-1,-1,-1,-1,-1,-1,-1,-1,-1,-1,-1,-1,-1,-1],"loss_changes":[3.0997563E3,3.0026886E1,4.22063E1,1.1794205E1,5.7098694E0,0E0,0E0,8.979986E0,0E0,5.579468E0,1.0323439E0,5.531313E0,4.539031E0,1.8082886E0,7.6232204E0,0E0,0E0,2.5506592E0,1.7877954E0,1.560337E0,1.8873229E0,3.2562256E-1,4.4362364E0,2.1935325E0,1.8786945E0,0E0,0E0,0E0,0E0,0E0,0E0,0E0,0E0,0E0,0E0,0E0,0E0,0E0,0E0,0E0,0E0],"parents":[2147483647,0,0,1,1,2,2,3,3,4,4,7,7,9,9,10,10,11,11,12,12,13,13,14,14,17,17,18,18,19,19,20,20,21,21,22,22,23,23,24,24],"right_children":[2,4,6,8,10,-1,-1,12,-1,14,16,18,20,22,24,-1,-1,26,28,30,32,34,36,38,40,-1,-1,-1,-1,-1,-1,-1,-1,-1,-1,-1,-1,-1,-1,-1,-1],"split_conditions":[1.5482323E0,-1.0977043E0,3.196194E-1,3.098248E0,6.942044E0,2.3770195E-3,2.5460872E-1,6.406019E-1,9.813562E-2,1E0,-4.3447778E-1,1.312206E-1,-6.1879374E-2,1.6092067E0,1E0,-6.918926E-3,4.7155146E-2,1E0,-3.9667425E-1,-1.6109978E-1,3.000087E-1,-1.3836715E0,-1.14959E0,7.181746E-1,-5.77005E-2,5.4474396E-5,-2.9707864E-2,-3.2859407E-3,5.7703502E-2,-3.6784016E-2,2.161379E-2,7.239926E-2,9.772374E-3,-1.3370532E-2,-4.9110267E-2,3.1961154E-2,-3.8497068E-2,5.215738E-2,-1.2683891E-2,-4.0245634E-2,-2.0792733E-3],"split_indices":[10,7,4,5,1,0,0,3,0,23,2,1,10,4,17,0,0,17,10,1,10,9,9,7,1,0,0,0,0,0,0,0,0,0,0,0,0,0,0,0,0],"split_type":[0,0,0,0,0,0,0,0,0,0,0,0,0,0,0,0,0,0,0,0,0,0,0,0,0,0,0,0,0,0,0,0,0,0,0,0,0,0,0,0,0],"sum_hessian":[7.1286786E2,6.0791846E2,1.0494942E2,8.0421684E1,5.2749677E2,1.704567E0,1.0324485E2,7.911245E1,1.3092281E0,5.2531067E2,2.1860936E0,7.05809E1,8.531549E0,4.935935E2,3.1717161E1,1.1802886E0,1.0058049E0,6.6901886E1,3.6790187E0,3.0296466E0,5.5019026E0,4.8015884E2,1.34346695E1,4.2682915E0,2.744887E1,8.181289E0,5.8720596E1,1.9862105E0,1.6928084E0,2.0091722E0,1.0204744E0,3.3495157E0,2.1523871E0,1.5281979E0,4.7863065E2,1.9243081E0,1.1510362E1,2.7764373E0,1.491854E0,2.3608953E1,3.8399172E0],"tree_param":{"num_deleted":"0","num_feature":"33","num_nodes":"41","size_leaf_vector":"1"}},{"base_weights":[-3.4176402E-3,-8.4438354E-1,4.085954E0,-2.4573442E-1,-9.37805E-1,-1.9461451E-1,2.0875433E-1,-3.2403004E-1,9.2754446E-2,-9.570848E-1,-2.9739207E-1,-3.1544726E-2,1.9757288E-2,-3.901729E-1,5.12589E-1,-9.644371E-1,3.0635074E-1,-4.918584E-1,5.5309128E-2,-4.5101523E-1,7.2679594E-2,-2.1880406E-1,1.0593423E0,-9.797868E-1,-7.1449345E-1,-1.3017229E-2,4.1470934E-2,-7.053344E-1,3.1253085E-2,-3.098586E-3,-2.5502637E-2,-2.214932E-2,4.066347E-2,-2.645335E-3,-1.32278055E-2,1.7272454E-2,6.1993282E-2,-4.2229213E-2,-5.059401E-2,-4.1266073E-2,-7.023616E-3,-1.8816076E-2,-4.689233E-2],"categories":[],"categories_nodes":[],"categories_segments":[],"categories_sizes":[],"default_left":[0,0,0,0,0,0,0,0,0,0,0,0,0,0,0,0,0,0,0,0,0,0,0,0,0,0,0,0,0,0,0,0,0,0,0,0,0,0,0,0,0,0,0],"id":3,"left_children":[1,3,5,7,9,11,-1,13,-1,15,17,-1,-1,19,21,23,25,27,-1,29,31,33,35,37,39,-1,-1,41,-1,-1,-1,-1,-1,-1,-1,-1,-1,-1,-1,-1,-1,-1,-1],"loss_changes":[2.4461736E3,3.2764618E1,4.7102905E1,1.3923447E1,6.012024E0,1.131901E0,0E0,4.5679913E0,0E0,4.890106E0,5.0081534E0,0E0,0E0,2.108801E0,2.717342E0,1.187561E0,1.2891644E0,4.030997E0,0E0,1.468071E0,3.9599893E0,1.2474969E-2,5.212307E-2,1.144989E0,1.9300079E0,0E0,0E0,6.500344E-1,0E0,0E0,0E0,0E0,0E0,0E0,0E0,0E0,0E0,0E0,0E0,0E0,0E0,0E0,0E0],"parents":[2147483647,0,0,1,1,2,2,3,3,4,4,5,5,7,7,9,9,10,10,13,13,14,14,15,15,16,16,17,17,19,19,20,20,21,21,22,22,23,23,24,24,27,27],"right_children":[2,4,6,8,10,12,-1,14,-1,16,18,-1,-1,20,22,24,26,28,-1,30,32,34,36,38,40,-1,-1,42,-1,-1,-1,-1,-1,-1,-1,-1,-1,-1,-1,-1,-1,-1,-1],"split_conditions":[1.5482323E0,-1.0977043E0,3.196194E-1,2.6014163E0,1.6092067E0,-1.64482E-1,2.0875433E-1,1.02713324E-1,9.2754446E-2,6.942044E0,1E0,-3.1544726E-2,1.9757288E-2,1.7090511E0,-4.2508236E-1,1E0,1E0,1.8293403E0,5.5309128E-2,1E0,-1.2105235E-1,-5.603565E-1,-3.9667425E-1,-8.0652803E-1,5.148193E-1,-1.3017229E-2,4.1470934E-2,-1.2983239E-1,3.1253085E-2,-3.098586E-3,-2.5502637E-2,-2.214932E-2,4.066347E-2,-2.645335E-3,-1.32278055E-2,1.7272454E-2,6.1993282E-2,-4.2229213E-2,-5.059401E-2,-4.1266073E-2,-7.023616E-3,-1.8816076E-2,-4.689233E-2],"split_indices":[10,7,4,5,4,1,0,1,0,1,23,0,0,2,2,23,29,7,0,17,8,8,10,6,10,0,0,6,0,0,0,0,0,0,0,0,0,0,0,0,0,0,0],"split_type":[0,0,0,0,0,0,0,0,0,0,0,0,0,0,0,0,0,0,0,0,0,0,0,0,0,0,0,0,0,0,0,0,0,0,0,0,0,0,0,0,0,0,0],"sum_hessian":[7.092959E2,5.889697E2,1.2032618E2,7.999411E1,5.0897562E2,2.4302518E0,1.1789593E2,7.7935295E1,2.0588121E0,4.936206E2,1.5355012E1,1.3568003E0,1.0734515E0,7.271973E1,5.2155685E0,4.9099997E2,2.6206372E0,1.4056975E1,1.2980373E0,6.429383E1,8.425899E0,2.4876482E0,2.7279203E0,4.5983994E2,3.116003E1,1.4989445E0,1.1216927E0,1.2110757E1,1.9462183E0,8.741178E0,5.555265E1,5.2041454E0,3.2217534E0,1.0038948E0,1.4837533E0,1.1386484E0,1.589272E0,9.3454025E1,3.663859E2,2.5750515E1,5.4095163E0,6.0989833E0,6.011773E0],"tree_param":{"num_deleted":"0","num_feature":"33","num_nodes":"43","size_leaf_vector":"1"}},{"base_weights":[-2.6651593E-2,-8.405819E-1,3.513518E0,-9.238243E-1,-3.1539196E-1,-1.191285E-1,1.7878072E-1,-9.496202E-1,-5.248934E-1,-3.7613127E-1,8.2127474E-2,-2.93859E-2,2.2319127E-2,-9.5525396E-1,-6.605481E-3,-6.328006E-1,6.670218E-2,-4.535969E-1,7.073354E-1,-8.384469E-1,-9.825523E-1,2.1375267E-2,-1.6427906E-2,-7.79003E-1,1.483803E-1,-5.7459056E-1,-6.0864866E-2,9.077497E-2,3.4065012E-2,-1.7711094E-2,-4.3770596E-2,-4.9581032E-2,-2.4304781E-2,-3.769158E-3,-4.5162503E-2,-1.9035466E-2,5.2878678E-2,-1.704847E-2,-3.4946494E-2,-4.3785736E-2,1.1149569E-2,-2.3950674E-2,4.2033307E-2],"categories":[],"categories_nodes":[],"categories_segments":[],"categories_sizes":[],"default_left":[0,0,0,0,0,0,0,0,0,0,0,0,0,0,0,0,0,0,0,0,0,0,0,0,0,0,0,0,0,0,0,0,0,0,0,0,0,0,0,0,0,0,0],"id":4,"left_children":[1,3,5,7,9,11,-1,13,15,17,-1,-1,-1,19,21,23,-1,25,27,29,31,-1,-1,33,35,37,39,-1,41,-1,-1,-1,-1,-1,-1,-1,-1,-1,-1,-1,-1,-1,-1],"loss_changes":[2.0175872E3,2.4596466E1,2.9951904E1,4.5530396E0,1.006089E1,1.1017423E0,0E0,2.436615E0,7.2730446E0,6.8531256E0,0E0,0E0,0E0,6.33667E-1,6.628602E-1,3.652606E0,0E0,3.4454794E0,4.1043463E0,1.3618088E0,1.1598206E0,0E0,0E0,2.2264872E0,3.1553202E0,1.3847752E0,4.444084E0,0E0,2.2620025E0,0E0,0E0,0E0,0E0,0E0,0E0,0E0,0E0,0E0,0E0,0E0,0E0,0E0,0E0],"parents":[2147483647,0,0,1,1,2,2,3,3,4,4,5,5,7,7,8,8,9,9,13,13,14,14,15,15,17,17,18,18,19,19,20,20,23,23,24,24,25,25,26,26,28,28],"right_children":[2,4,6,8,10,12,-1,14,16,18,-1,-1,-1,20,22,24,-1,26,28,30,32,-1,-1,34,36,38,40,-1,42,-1,-1,-1,-1,-1,-1,-1,-1,-1,-1,-1,-1,-1,-1],"split_conditions":[1.5482323E0,1E0,1.1109216E0,1E0,9.096063E-1,-2.031157E-1,1.7878072E-1,6.942044E0,1.6077532E0,1E0,8.2127474E-2,-2.93859E-2,2.2319127E-2,-8.0652803E-1,-5.524411E-1,5.148193E-1,6.670218E-2,-2.2119376E-1,-4.2508236E-1,-2.9092565E-1,5.481999E-1,2.1375267E-2,-1.6427906E-2,-4.3695742E-1,1E0,-2.1653418E-1,-2.4420759E-1,9.077497E-2,1.3164367E-1,-1.7711094E-2,-4.3770596E-2,-4.9581032E-2,-2.4304781E-2,-3.769158E-3,-4.5162503E-2,-1.9035466E-2,5.2878678E-2,-1.704847E-2,-3.4946494E-2,-4.3785736E-2,1.1149569E-2,-2.3950674E-2,4.2033307E-2],"split_indices":[10,30,5,23,10,0,0,1,5,21,0,0,0,6,8,10,0,2,2,0,1,0,0,2,28,0,0,0,10,0,0,0,0,0,0,0,0,0,0,0,0,0,0],"split_type":[0,0,0,0,0,0,0,0,0,0,0,0,0,0,0,0,0,0,0,0,0,0,0,0,0,0,0,0,0,0,0,0,0,0,0,0,0,0,0,0,0,0,0],"sum_hessian":[6.981733E2,5.6828076E2,1.2989247E2,4.8987653E2,7.8404274E1,2.1676188E0,1.27724846E2,4.5882718E2,3.1049324E1,7.682878E1,1.5754902E0,1.1639153E0,1.0037036E0,4.5608945E2,2.7377512E0,2.9969263E1,1.0800595E0,7.2244774E1,4.5840044E0,9.240618E1,3.6368326E2,1.0262016E0,1.7115498E0,2.5246943E1,4.722321E0,5.4875546E1,1.736923E1,1.0912813E0,3.4927232E0,7.3044004E0,8.510178E1,3.561798E2,7.5034513E0,4.0302215E0,2.121672E1,3.3525994E0,1.3697217E0,2.0361174E1,3.4514374E1,3.948741E0,1.3420489E1,2.3830194E0,1.1097039E0],"tree_param":{"num_deleted":"0","num_feature":"33","num_nodes":"43","size_leaf_vector":"1"}},{"base_weights":[-7.7790953E-3,-8.090415E-1,3.0942175E0,-2.07638E-1,-9.042959E-1,-3.6920216E-2,1.5779553E-1,-2.683451E-1,8.321971E-2,-1.0024114E0,-8.175131E-1,4.8294306E-1,-3.8000774E-1,-5.049553E-2,-5.2286065E-1,-5.060894E-1,-8.6497754E-1,-8.6069226E-2,1.3247498E0,-2.5231266E-1,-8.1454015E-1,2.0600643E-2,-4.209804E-2,6.1469592E-2,-5.9885436E-1,-3.9089853E-1,-8.975281E-1,-2.0419983E-2,4.4313475E-2,2.5777982E-3,1.0865042E-1,-1.9288493E-2,2.67248E-2,-1.1246377E-2,-4.6073206E-2,-3.3253755E-2,2.5457466E-2,-3.286092E-2,5.7962712E-2,-4.5287646E-2,5.1253443E-3],"categories":[],"categories_nodes":[],"categories_segments":[],"categories_sizes":[],"default_left":[0,0,0,0,0,0,0,0,0,0,0,0,0,0,0,0,0,0,0,0,0,0,0,0,0,0,0,0,0,0,0,0,0,0,0,0,0,0,0,0,0],"id":5,"left_children":[1,3,5,7,9,-1,-1,11,-1,13,15,17,19,-1,21,23,25,27,29,31,33,-1,-1,-1,35,37,39,-1,-1,-1,-1,-1,-1,-1,-1,-1,-1,-1,-1,-1,-1],"loss_changes":[1.7238788E3,3.1387695E1,3.599475E1,9.158945E0,3.2294617E0,0E0,0E0,6.4850054E0,0E0,2.586975E-1,3.3722992E0,4.980643E0,3.4541864E0,0E0,1.9703287E0,6.6123495E0,3.0789185E0,2.5562468E0,4.3794003E0,5.7109966E0,7.088394E-1,0E0,0E0,0E0,2.9301453E0,7.3884854E0,1.7971344E0,0E0,0E0,0E0,0E0,0E0,0E0,0E0,0E0,0E0,0E0,0E0,0E0,0E0,0E0],"parents":[2147483647,0,0,1,1,2,2,3,3,4,4,7,7,9,9,10,10,11,11,12,12,14,14,15,15,16,16,17,17,18,18,19,19,20,20,24,24,25,25,26,26],"right_children":[2,4,6,8,10,-1,-1,12,-1,14,16,18,20,-1,22,24,26,28,30,32,34,-1,-1,-1,36,38,40,-1,-1,-1,-1,-1,-1,-1,-1,-1,-1,-1,-1,-1,-1],"split_conditions":[1.5482323E0,-1.1035525E0,3.196194E-1,2.6014163E0,-2.728195E-1,-3.6920216E-2,1.5779553E-1,1E0,8.321971E-2,2.898794E0,1E0,1.9400304E-2,2.707595E-1,-5.049553E-2,3.5435877E0,-7.175686E-1,-2.0508642E-1,-7.5094774E-2,-2.2681147E-1,-4.9813833E-2,-2.7802792E-1,2.0600643E-2,-4.209804E-2,6.1469592E-2,2.5829542E-1,6.335598E-1,4.188381E0,-2.0419983E-2,4.4313475E-2,2.5777982E-3,1.0865042E-1,-1.9288493E-2,2.67248E-2,-1.1246377E-2,-4.6073206E-2,-3.3253755E-2,2.5457466E-2,-3.286092E-2,5.7962712E-2,-4.5287646E-2,5.1253443E-3],"split_indices":[10,7,4,5,10,0,0,17,0,4,17,10,8,0,4,7,10,1,1,8,1,0,0,0,1,9,4,0,0,0,0,0,0,0,0,0,0,0,0,0,0],"split_type":[0,0,0,0,0,0,0,0,0,0,0,0,0,0,0,0,0,0,0,0,0,0,0,0,0,0,0,0,0,0,0,0,0,0,0,0,0,0,0,0,0],"sum_hessian":[6.9156335E2,5.501864E2,1.4137692E2,7.566209E1,4.7452432E2,2.0659041E0,1.3931102E2,7.4115295E1,1.5467886E0,2.1776802E2,2.5675632E2,9.159999E0,6.49553E1,2.1332608E2,4.4419384E0,3.5499496E1,2.2125682E2,6.001256E0,3.1587427E0,5.1424072E1,1.3531225E1,1.056251E0,3.3856876E0,1.1795369E0,3.431996E1,1.5051397E1,2.0620541E2,4.942724E0,1.0585318E0,1.6871674E0,1.4715754E0,4.4402325E1,7.021746E0,2.5535827E0,1.0977643E1,3.276169E1,1.5582734E0,1.3336231E1,1.7151659E0,2.0461682E2,1.5885872E0],"tree_param":{"num_deleted":"0","num_feature":"33","num_nodes":"41","size_leaf_vector":"1"}},{"base_weights":[-2.8570866E-2,-8.0700874E-1,2.8109753E0,-2.3421943E-1,-9.0175045E-1,3.9432975E-3,1.4207539E-1,-3.32776E-1,8.500289E-1,-9.073603E-1,1.4040743E-1,-5.503617E-1,-6.475351E-2,-4.507894E-2,7.716499E-2,-7.5958866E-1,-9.466914E-1,2.1157144E-2,-8.699385E-3,-4.3061838E-1,-4.781623E-2,-2.4114084E-1,1.061526E0,1.999077E-2,-2.9453177E-2,-7.817036E-1,9.087169E-2,-9.604379E-1,-6.471912E-1,-1.3477427E-2,-3.8573E-2,3.531925E-2,-1.756598E-2,1.987518E-2,7.9877846E-2,-1.4644441E-2,-4.1090015E-2,-1.0674851E-2,1.991475E-2,-8.3745895E-3,-4.814778E-2,1.3742718E-2,-3.874111E-2],"categories":[],"categories_nodes":[],"categories_segments":[],"categories_sizes":[],"default_left":[0,0,0,0,0,0,0,0,0,0,0,0,0,0,0,0,0,0,0,0,0,0,0,0,0,0,0,0,0,0,0,0,0,0,0,0,0,0,0,0,0,0,0],"id":6,"left_children":[1,3,5,7,9,-1,-1,11,13,15,17,19,21,23,-1,25,27,-1,-1,29,-1,31,33,-1,-1,35,37,39,41,-1,-1,-1,-1,-1,-1,-1,-1,-1,-1,-1,-1,-1,-1],"loss_changes":[1.4964044E3,2.8620514E1,1.1926392E1,8.485069E0,2.7906494E0,0E0,0E0,4.1095724E0,4.2130284E0,1.9151001E0,3.6740577E-1,1.4887829E0,6.8082023E0,1.1759689E0,0E0,1.9581108E0,8.3547974E-1,0E0,0E0,1.5494533E0,0E0,3.3102267E0,1.0204325E0,0E0,0E0,1.6780396E0,4.0680084E-1,5.100708E-1,2.4014378E0,0E0,0E0,0E0,0E0,0E0,0E0,0E0,0E0,0E0,0E0,0E0,0E0,0E0,0E0],"parents":[2147483647,0,0,1,1,2,2,3,3,4,4,7,7,8,8,9,9,10,10,11,11,12,12,13,13,15,15,16,16,19,19,21,21,22,22,25,25,26,26,27,27,28,28],"right_children":[2,4,6,8,10,-1,-1,12,14,16,18,20,22,24,-1,26,28,-1,-1,30,-1,32,34,-1,-1,36,38,40,42,-1,-1,-1,-1,-1,-1,-1,-1,-1,-1,-1,-1,-1,-1],"split_conditions":[1.5482323E0,-1.0977043E0,1.1109216E0,1.02713324E-1,6.942044E0,3.9432975E-3,1.4207539E-1,-3.0765364E-1,-3.9667425E-1,-5.679244E-1,-4.5448983E-1,-4.0441516E-1,1.1725846E-1,-5.534279E-1,7.716499E-2,1.6077532E0,1E0,2.1157144E-2,-8.699385E-3,1.6098558E0,-4.781623E-2,-2.6507857E-1,-1.1563382E-2,1.999077E-2,-2.9453177E-2,-2.9092565E-1,-1.9342893E-1,-1.3836715E0,1E0,-1.3477427E-2,-3.8573E-2,3.531925E-2,-1.756598E-2,1.987518E-2,7.9877846E-2,-1.4644441E-2,-4.1090015E-2,-1.0674851E-2,1.991475E-2,-8.3745895E-3,-4.814778E-2,1.3742718E-2,-3.874111E-2],"split_indices":[10,7,5,1,1,0,0,10,10,6,6,10,5,10,0,5,23,0,0,12,0,10,10,0,0,0,0,9,17,0,0,0,0,0,0,0,0,0,0,0,0,0,0],"split_type":[0,0,0,0,0,0,0,0,0,0,0,0,0,0,0,0,0,0,0,0,0,0,0,0,0,0,0,0,0,0,0,0,0,0,0,0,0,0,0,0,0,0,0],"sum_hessian":[6.7495404E2,5.302941E2,1.4465993E2,7.575665E1,4.545375E2,1.638361E0,1.4302156E2,7.0079605E1,5.6770506E0,4.5223248E2,2.3050058E0,3.8097733E1,3.198187E1,2.8859148E0,2.7911355E0,9.933418E1,3.5289832E2,1.031491E0,1.2735147E0,3.1011328E1,7.0864043E0,2.8330854E1,3.6510167E0,1.733339E0,1.152576E0,9.689541E1,2.4387722E0,3.3530173E2,1.7596584E1,2.2275526E1,8.735804E0,2.3874838E0,2.594337E1,2.40872E0,1.2422967E0,7.9751883E0,8.892022E1,1.3790009E0,1.0597713E0,1.2749614E0,3.3402676E2,1.9993262E0,1.5597258E1],"tree_param":{"num_deleted":"0","num_feature":"33","num_nodes":"43","size_leaf_vector":"1"}},{"base_weights":[-2.4794808E-2,-7.842031E-1,2.5566006E0,-1.68846E-1,-8.862889E-1,1.2973809E-1,1.4948871E0,-4.5457733E-1,1.7691146E-1,-9.1468996E-1,-6.608113E-1,-9.6948035E-3,1.838963E0,4.3658137E-1,-5.194569E-1,7.670426E-1,-2.389124E-1,-9.645414E-1,-8.380077E-1,-7.0439845E-1,2.0198278E-2,1.070736E-1,1.1854726E-2,-3.037693E-2,6.837479E-2,-4.1052803E-1,-4.6876468E-2,-1.19068004E-1,1.2785096E0,-3.8812444E-1,6.410009E-2,-6.2989956E-1,-4.9432073E-2,-8.8147306E-1,-6.358702E-1,-7.8235424E-1,-1.7067687E-1,-2.509881E-2,1.4064046E-2,-3.7404962E-2,2.0131936E-2,8.5914716E-2,-3.2522958E-2,-3.824139E-2,-2.4341082E-3,-3.7493464E-2,4.180252E-3,-4.438437E-2,-2.5098715E-3,-4.34695E-2,-1.1624591E-2,1.7928405E-2,-4.103315E-2,3.6786705E-2,-2.2749653E-2],"categories":[],"categories_nodes":[],"categories_segments":[],"categories_sizes":[],"default_left":[0,0,0,0,0,0,0,0,0,0,0,0,0,0,0,0,0,0,0,0,0,0,0,0,0,0,0,0,0,0,0,0,0,0,0,0,0,0,0,0,0,0,0,0,0,0,0,0,0,0,0,0,0,0,0],"id":7,"left_children":[1,3,5,7,9,-1,11,13,15,17,19,-1,21,23,25,27,29,31,33,35,-1,-1,-1,-1,-1,37,-1,39,41,43,-1,45,-1,47,49,51,53,-1,-1,-1,-1,-1,-1,-1,-1,-1,-1,-1,-1,-1,-1,-1,-1,-1,-1],"loss_changes":[1.3083518E3,3.224472E1,2.2680054E0,7.45157E0,2.2264404E0,0E0,4.786066E0,2.6049585E0,8.644204E0,6.8258667E-1,2.7469196E0,0E0,2.6072102E0,4.072074E0,1.3819542E0,6.719348E0,5.260903E0,1.230011E0,8.5647583E-1,2.0023136E0,0E0,0E0,0E0,0E0,0E0,2.2009077E0,0E0,2.3416667E0,8.9837055E0,2.5050406E0,0E0,1.6196547E0,0E0,6.2776184E-1,2.8245087E0,2.2397938E0,2.3503733E0,0E0,0E0,0E0,0E0,0E0,0E0,0E0,0E0,0E0,0E0,0E0,0E0,0E0,0E0,0E0,0E0,0E0,0E0],"parents":[2147483647,0,0,1,1,2,2,3,3,4,4,6,6,7,7,8,8,9,9,10,10,12,12,13,13,14,14,15,15,16,16,17,17,18,18,19,19,25,25,27,27,28,28,29,29,31,31,33,33,34,34,35,35,36,36],"right_children":[2,4,6,8,10,-1,12,14,16,18,20,-1,22,24,26,28,30,32,34,36,-1,-1,-1,-1,-1,38,-1,40,42,44,-1,46,-1,48,50,52,54,-1,-1,-1,-1,-1,-1,-1,-1,-1,-1,-1,-1,-1,-1,-1,-1,-1,-1],"split_conditions":[1.5482323E0,-1.0977043E0,-7.175686E-1,-3.0765364E-1,1E0,1.2973809E-1,-2.1811433E-1,-2.868651E-1,1.0849398E-1,-1.905734E-1,1.6806699E0,-9.6948035E-3,-5.953051E-1,-6.9491816E-1,-3.8893333E-1,-1.9229086E-1,1.1011941E0,-1.1263069E0,1.9497086E0,1.8182757E0,2.0198278E-2,1.070736E-1,1.1854726E-2,-3.037693E-2,6.837479E-2,-4.1796178E-1,-4.6876468E-2,-1.9347504E-1,1.9497086E0,4.9239042E-1,6.410009E-2,-1.1500531E0,-4.9432073E-2,2.2733533E0,-1.9304303E-2,-3.0270705E-1,-1.1820354E0,-2.509881E-2,1.4064046E-2,-3.7404962E-2,2.0131936E-2,8.5914716E-2,-3.2522958E-2,-3.824139E-2,-2.4341082E-3,-3.7493464E-2,4.180252E-3,-4.438437E-2,-2.5098715E-3,-4.34695E-2,-1.1624591E-2,1.7928405E-2,-4.103315E-2,3.6786705E-2,-2.2749653E-2],"split_indices":[10,7,7,10,18,0,1,0,8,1,0,0,6,8,10,8,10,8,13,3,0,0,0,0,0,10,0,10,13,8,0,8,0,8,10,0,6,0,0,0,0,0,0,0,0,0,0,0,0,0,0,0,0,0,0],"split_type":[0,0,0,0,0,0,0,0,0,0,0,0,0,0,0,0,0,0,0,0,0,0,0,0,0,0,0,0,0,0,0,0,0,0,0,0,0,0,0,0,0,0,0,0,0,0,0,0,0,0,0,0,0,0,0],"sum_hessian":[6.653903E2,5.1467633E2,1.5071396E2,7.361152E1,4.4106482E2,1.4409094E2,6.6230083E0,4.0132008E1,3.3479515E1,3.8900876E2,5.2056087E1,1.1948676E0,5.4281406E0,2.3346844E0,3.779732E1,1.3490029E1,1.9989485E1,2.2873119E2,1.6027756E2,5.0334087E1,1.7219974E0,4.2825365E0,1.1456045E0,1.264164E0,1.0705204E0,3.155707E1,6.240252E0,5.2176743E0,8.272355E0,1.8881855E1,1.1076303E0,1.7189045E1,2.1154214E2,1.2914659E2,3.1130972E1,4.3512737E1,6.821351E0,2.8115028E1,3.4420402E0,2.168785E0,3.0488894E0,6.8254423E0,1.4469128E0,8.355722E0,1.0526132E1,1.4671236E1,2.5178084E0,1.2812094E2,1.0256435E0,1.898506E1,1.2145913E1,1.1419786E0,4.2370758E1,1.2496588E0,5.571692E0],"tree_param":{"num_deleted":"0","num_feature":"33","num_nodes":"55","size_leaf_vector":"1"}},{"base_weights":[-2.2894016E-2,-7.679359E-1,2.3699074E0,-1.2653454E-1,-8.8013124E-1,-1.42885E-1,1.203834E-1,-1.9903283E-1,1.00691974E-1,-8.883803E-1,4.1823766E-1,-2.9651368E-2,2.046205E-2,-2.98602E-1,8.552377E-1,-9.0411115E-1,-3.6856642E-1,4.130224E-2,-7.821734E-3,-3.6661786E-1,5.414539E-1,2.8054465E-2,1.3847531E0,-6.829653E-1,-9.4076407E-1,-7.2412294E-1,1.6223793E-1,-2.2498025E-2,-9.227095E-5,-1.502256E-2,4.8560597E-2,2.1614095E-2,-1.4891602E-2,2.0945584E-2,7.898281E-2,6.6811144E-3,-3.530267E-2,-4.8209097E-2,-3.102625E-2,-4.535643E-2,-8.656233E-3,-2.0780882E-2,5.167182E-2],"categories":[],"categories_nodes":[],"categories_segments":[],"categories_sizes":[],"default_left":[0,0,0,0,0,0,0,0,0,0,0,0,0,0,0,0,0,0,0,0,0,0,0,0,0,0,0,0,0,0,0,0,0,0,0,0,0,0,0,0,0,0,0],"id":8,"left_children":[1,3,5,7,9,11,-1,13,-1,15,17,-1,-1,19,21,23,25,-1,-1,27,29,31,33,35,37,39,41,-1,-1,-1,-1,-1,-1,-1,-1,-1,-1,-1,-1,-1,-1,-1,-1],"loss_changes":[1.1667098E3,3.5800262E1,1.5088318E1,1.2110849E1,4.9188538E0,1.0490731E0,0E0,8.013062E0,0E0,3.1192627E0,9.1673684E-1,0E0,0E0,4.099014E0,2.8677864E0,2.673706E0,2.7767038E0,0E0,0E0,1.9372044E0,2.2879136E0,6.043946E-1,9.601641E-2,1.2598E0,2.0137024E0,7.122555E-1,3.6862135E0,0E0,0E0,0E0,0E0,0E0,0E0,0E0,0E0,0E0,0E0,0E0,0E0,0E0,0E0,0E0,0E0],"parents":[2147483647,0,0,1,1,2,2,3,3,4,4,5,5,7,7,9,9,10,10,13,13,14,14,15,15,16,16,19,19,20,20,21,21,22,22,23,23,24,24,25,25,26,26],"right_children":[2,4,6,8,10,12,-1,14,-1,16,18,-1,-1,20,22,24,26,-1,-1,28,30,32,34,36,38,40,42,-1,-1,-1,-1,-1,-1,-1,-1,-1,-1,-1,-1,-1,-1,-1,-1],"split_conditions":[1.5482323E0,-1.0977043E0,3.196194E-1,3.098248E0,6.942044E0,-1.5752715E-1,1.203834E-1,1.02713324E-1,1.00691974E-1,1.6092067E0,-4.5448983E-1,-2.9651368E-2,2.046205E-2,1E0,-4.2508236E-1,-1.1820354E0,-1.9581667E-1,4.130224E-2,-7.821734E-3,3.294692E-2,-2.1590509E-1,2.2978812E-1,-3.9667425E-1,-3.044871E-1,1E0,7.552199E-2,6.509198E-1,-2.2498025E-2,-9.227095E-5,-1.502256E-2,4.8560597E-2,2.1614095E-2,-1.4891602E-2,2.0945584E-2,7.898281E-2,6.6811144E-3,-3.530267E-2,-4.8209097E-2,-3.102625E-2,-4.535643E-2,-8.656233E-3,-2.0780882E-2,5.167182E-2],"split_indices":[10,7,4,5,1,0,0,1,0,4,6,0,0,21,2,6,0,0,0,10,0,1,10,0,23,10,7,0,0,0,0,0,0,0,0,0,0,0,0,0,0,0,0],"split_type":[0,0,0,0,0,0,0,0,0,0,0,0,0,0,0,0,0,0,0,0,0,0,0,0,0,0,0,0,0,0,0,0,0,0,0,0,0,0,0,0,0,0,0],"sum_hessian":[6.5242773E2,4.9803473E2,1.5439302E2,7.446412E1,4.2357062E2,2.244537E0,1.5214848E2,7.290182E1,1.5623046E0,4.2121027E2,2.3603427E0,1.1956538E0,1.0488834E0,6.7265755E1,5.636057E0,4.0812024E2,1.3090024E1,1.1247574E0,1.2355852E0,6.2748825E1,4.516933E0,2.6107116E0,3.0253453E0,6.0816517E1,3.473037E2,7.6209626E0,5.4690614E0,5.088839E1,1.1860436E1,1.6281788E0,2.888754E0,1.0195671E0,1.5911443E0,1.0368035E0,1.988542E0,1.5405996E0,5.9275917E1,3.2176352E2,2.5540207E1,5.2356763E0,2.3852863E0,3.6025012E0,1.8665602E0],"tree_param":{"num_deleted":"0","num_feature":"33","num_nodes":"43","size_leaf_vector":"1"}},{"base_weights":[6.4173136E-3,-7.6410365E-1,2.0353374E0,-2.2454108E-1,-8.637241E-1,-4.5803374E-1,2.2428327E0,5.4226655E-1,-3.5291243E-1,-8.701319E-1,2.165144E-1,2.9408703E-2,-6.1883897E-1,-3.9521074E-3,1.12937644E-1,-4.697171E-1,8.718639E-1,-5.245353E-1,1.6089283E-1,-8.887144E-1,-5.8417803E-1,2.079974E-2,-4.27043E-3,-7.99328E-2,-8.5538626E-1,-2.893903E-3,-3.125708E-2,-5.1163625E-2,1.3505017E0,-2.6186234E-1,-6.798397E-1,-4.1048754E-2,4.42009E-1,-7.8708684E-1,-9.3118834E-1,-8.9892113E-1,-3.0611917E-1,2.0590647E-1,-2.8646355E-2,-4.718894E-2,-1.0633761E-2,-3.364504E-2,3.3201825E-2,1.1386924E-1,3.951807E-3,-2.1188168E-2,2.623255E-2,-3.8888443E-2,4.6965643E-3,5.116887E-2,5.932091E-3,-4.1011516E-2,-1.768163E-2,-2.8230935E-2,-4.728624E-2,-7.073128E-3,-4.8601326E-2,1.166802E-2,-2.443414E-2,-1.8018043E-2,4.5269664E-2],"categories":[],"categories_nodes":[],"categories_segments":[],"categories_sizes":[],"default_left":[0,0,0,0,0,0,0,0,0,0,0,0,0,0,0,0,0,0,0,0,0,0,0,0,0,0,0,0,0,0,0,0,0,0,0,0,0,0,0,0,0,0,0,0,0,0,0,0,0,0,0,0,0,0,0,0,0,0,0,0,0],"id":9,"left_children":[1,3,5,7,9,11,13,15,17,19,21,-1,23,-1,-1,25,27,29,31,33,35,-1,-1,37,39,-1,-1,41,43,45,47,-1,49,51,53,55,57,59,-1,-1,-1,-1,-1,-1,-1,-1,-1,-1,-1,-1,-1,-1,-1,-1,-1,-1,-1,-1,-1,-1,-1],"loss_changes":[1.00377924E3,2.4819824E1,9.245856E1,7.4638577E0,2.9051208E0,2.787832E0,6.215576E0,4.07484E0,5.718382E0,1.5550842E0,2.2314797E-1,0E0,1.5856762E0,0E0,0E0,1.7822611E-1,3.8858933E0,1.7853432E0,4.9897532E0,8.410034E-1,2.0648327E0,0E0,0E0,8.3116716E-1,3.057046E-1,0E0,0E0,2.1870866E0,6.56769E0,2.7065768E0,2.3174505E0,0E0,2.4507048E0,1.346756E0,8.0718994E-1,5.283804E-1,1.6615602E0,1.8865952E0,0E0,0E0,0E0,0E0,0E0,0E0,0E0,0E0,0E0,0E0,0E0,0E0,0E0,0E0,0E0,0E0,0E0,0E0,0E0,0E0,0E0,0E0,0E0],"parents":[2147483647,0,0,1,1,2,2,3,3,4,4,5,5,6,6,7,7,8,8,9,9,10,10,12,12,15,15,16,16,17,17,18,18,19,19,20,20,23,23,24,24,27,27,28,28,29,29,30,30,32,32,33,33,34,34,35,35,36,36,37,37],"right_children":[2,4,6,8,10,12,14,16,18,20,22,-1,24,-1,-1,26,28,30,32,34,36,-1,-1,38,40,-1,-1,42,44,46,48,-1,50,52,54,56,58,60,-1,-1,-1,-1,-1,-1,-1,-1,-1,-1,-1,-1,-1,-1,-1,-1,-1,-1,-1,-1,-1,-1,-1],"split_conditions":[1.6092067E0,-1.1327937E0,7.417252E-1,1E0,6.942044E0,-1.14959E0,-8.245403E-2,-1.9229086E-1,-2.2119376E-1,1E0,-3.5059866E-1,2.9408703E-2,-4.5448983E-1,-3.9521074E-3,1.12937644E-1,-4.2183718E-1,-2.1590509E-1,-2.1653418E-1,-2.4420759E-1,-6.883119E-1,-4.060064E-1,2.079974E-2,-4.27043E-3,-1.8833317E-1,-1.6676956E-1,-2.893903E-3,-3.125708E-2,-4.0556043E-1,-4.0556043E-1,-2.2875166E-1,2.875134E-1,-4.1048754E-2,-2.0796767E-1,1E0,-1.2054609E0,-1.13818E0,-9.730618E-2,-5.761873E-1,-2.8646355E-2,-4.718894E-2,-1.0633761E-2,-3.364504E-2,3.3201825E-2,1.1386924E-1,3.951807E-3,-2.1188168E-2,2.623255E-2,-3.8888443E-2,4.6965643E-3,5.116887E-2,5.932091E-3,-4.1011516E-2,-1.768163E-2,-2.8230935E-2,-4.728624E-2,-7.073128E-3,-4.8601326E-2,1.166802E-2,-2.443414E-2,-1.8018043E-2,4.5269664E-2],"split_indices":[4,7,8,17,1,9,9,8,2,23,8,0,6,0,0,8,0,0,0,9,8,0,0,8,2,0,0,2,2,0,0,0,1,19,8,8,8,8,0,0,0,0,0,0,0,0,0,0,0,0,0,0,0,0,0,0,0,0,0,0,0],"split_type":[0,0,0,0,0,0,0,0,0,0,0,0,0,0,0,0,0,0,0,0,0,0,0,0,0,0,0,0,0,0,0,0,0,0,0,0,0,0,0,0,0,0,0,0,0,0,0,0,0,0,0,0,0,0,0,0,0,0,0,0,0],"sum_hessian":[6.400847E2,4.6435898E2,1.7572574E2,7.288026E1,3.914787E2,1.3407447E1,1.623183E2,9.988886E0,6.2891373E1,3.8936356E2,2.1151512E0,1.4321458E0,1.1975301E1,1.0783713E0,1.6123993E2,2.349609E0,7.6392775E0,4.7128483E1,1.5762891E1,3.6362582E2,2.5737745E1,1.0461458E0,1.0690053E0,4.0611143E0,7.9141865E0,1.0197897E0,1.3298192E0,2.9136207E0,4.7256565E0,1.85092E1,2.8619282E1,3.0810716E0,1.2681819E1,1.12935684E2,2.5069012E2,1.1025176E1,1.471257E1,2.9392595E0,1.1218547E0,6.5455394E0,1.3686472E0,1.5902925E0,1.3233284E0,2.2756128E0,2.4500437E0,1.5732029E1,2.7771704E0,2.5399527E1,3.2197545E0,3.7589695E0,8.92285E0,1.0408469E2,8.851003E0,1.1081662E1,2.3960846E2,1.2287642E0,9.796412E0,3.6496203E0,1.1062949E1,1.8922311E0,1.0470284E0],"tree_param":{"num_deleted":"0","num_feature":"33","num_nodes":"61","size_leaf_vector":"1"}},{"base_weights":[-2.411441E-2,-7.542299E-1,2.0857341E0,-1.8216217E-1,-8.6209613E-1,-1.6653908E-2,1.0573272E-1,6.985305E-1,-3.4779808E-1,-8.813084E-1,-2.6471755E-1,2.9627544E-1,1.1082876E-1,-4.707618E-1,4.3561837E-1,-8.9950013E-1,-5.917588E-1,-4.2717463E-1,3.9815947E-2,-4.385625E-1,5.367824E-1,-6.343023E-1,-3.6600867E-1,-3.9821017E-1,7.2810215E-1,-7.3361444E-1,-9.2845E-1,-7.300685E-1,5.1814515E-2,2.1263314E-2,-6.014963E-1,-2.709692E-3,-2.9586835E-2,6.821365E-2,1.1327312E-3,-2.6151529E-2,-4.334574E-2,1.4882639E-2,-2.1398421E-2,-2.3256363E-3,-2.7559692E-2,5.1072884E-2,-1.2494103E-2,-4.161073E-2,-2.04991E-2,-3.1854223E-2,-4.6988633E-2,2.274581E-3,-4.019547E-2,4.520483E-2,-1.8265657E-2,-1.1185476E-2,-4.4304345E-2],"categories":[],"categories_nodes":[],"categories_segments":[],"categories_sizes":[],"default_left":[0,0,0,0,0,0,0,0,0,0,0,0,0,0,0,0,0,0,0,0,0,0,0,0,0,0,0,0,0,0,0,0,0,0,0,0,0,0,0,0,0,0,0,0,0,0,0,0,0,0,0,0,0],"id":10,"left_children":[1,3,5,7,9,-1,-1,11,13,15,17,19,-1,21,23,25,27,29,-1,31,33,35,37,39,41,43,45,47,49,-1,51,-1,-1,-1,-1,-1,-1,-1,-1,-1,-1,-1,-1,-1,-1,-1,-1,-1,-1,-1,-1,-1,-1],"loss_changes":[9.592459E2,2.8388336E1,1.1903198E1,1.1133242E1,4.2305603E0,0E0,0E0,6.762871E0,6.3226075E0,1.4503479E0,2.67553E0,2.1369865E0,0E0,7.164049E-1,2.5177317E0,1.0103455E0,2.278532E0,2.0984533E0,0E0,1.5653932E-1,3.6091375E0,7.08313E-2,1.6124644E0,1.3677418E-1,2.2968495E0,1.4808903E0,3.7817383E-1,1.2269602E0,2.2452881E0,0E0,9.531591E-1,0E0,0E0,0E0,0E0,0E0,0E0,0E0,0E0,0E0,0E0,0E0,0E0,0E0,0E0,0E0,0E0,0E0,0E0,0E0,0E0,0E0,0E0],"parents":[2147483647,0,0,1,1,2,2,3,3,4,4,7,7,8,8,9,9,10,10,11,11,13,13,14,14,15,15,16,16,17,17,19,19,20,20,21,21,22,22,23,23,24,24,25,25,26,26,27,27,28,28,30,30],"right_children":[2,4,6,8,10,-1,-1,12,14,16,18,20,-1,22,24,26,28,30,-1,32,34,36,38,40,42,44,46,48,50,-1,52,-1,-1,-1,-1,-1,-1,-1,-1,-1,-1,-1,-1,-1,-1,-1,-1,-1,-1,-1,-1,-1,-1],"split_conditions":[1.5482323E0,-1.0977043E0,3.196194E-1,1E0,1.6092067E0,-1.6653908E-2,1.0573272E-1,5.5932957E-1,6.406019E-1,1E0,1E0,-3.3668208E-1,1.1082876E-1,-5.9597576E-1,-1.9347504E-1,-1.1820354E0,5.148193E-1,-1.14959E0,3.9815947E-2,-4.6537185E-1,1.3509293E-2,-5.8245635E-1,-5.4056805E-1,-1.0431954E0,3.000087E-1,5.176502E-2,-1.2054609E0,-1.0511107E0,4.1323653E-1,2.1263314E-2,-1.2983239E-1,-2.709692E-3,-2.9586835E-2,6.821365E-2,1.1327312E-3,-2.6151529E-2,-4.334574E-2,1.4882639E-2,-2.1398421E-2,-2.3256363E-3,-2.7559692E-2,5.1072884E-2,-1.2494103E-2,-4.161073E-2,-2.04991E-2,-3.1854223E-2,-4.6988633E-2,2.274581E-3,-4.019547E-2,4.520483E-2,-1.8265657E-2,-1.1185476E-2,-4.4304345E-2],"split_indices":[10,7,4,17,4,0,0,10,3,23,23,10,0,8,10,6,10,9,0,8,8,10,8,8,10,3,8,8,8,0,6,0,0,0,0,0,0,0,0,0,0,0,0,0,0,0,0,0,0,0,0,0,0],"split_type":[0,0,0,0,0,0,0,0,0,0,0,0,0,0,0,0,0,0,0,0,0,0,0,0,0,0,0,0,0,0,0,0,0,0,0,0,0,0,0,0,0,0,0,0,0,0,0,0,0,0,0,0,0],"sum_hessian":[6.206906E2,4.6159695E2,1.5909363E2,7.365531E1,3.8794165E2,1.7554334E0,1.573382E2,1.1150485E1,6.2504826E1,3.7539334E2,1.2548315E1,9.759546E0,1.3909384E0,5.437008E1,8.134746E0,3.512204E2,2.4172926E1,1.1400208E1,1.1481066E0,2.2035112E0,7.5560355E0,1.9254604E1,3.5115475E1,2.0185828E0,6.1161623E0,5.610031E1,2.951201E2,1.9786276E1,4.386649E0,1.6911001E0,9.709108E0,1.0136662E0,1.189845E0,2.2619119E0,5.2941236E0,1.5221706E1,4.032898E0,2.6736436E0,3.244183E1,1.0071837E0,1.0113991E0,4.6706924E0,1.4454696E0,4.1795204E1,1.4305109E1,1.3181686E1,2.8193842E2,1.7534536E0,1.8032824E1,1.0578333E0,3.328816E0,4.9389086E0,4.7702E0],"tree_param":{"num_deleted":"0","num_feature":"33","num_nodes":"53","size_leaf_vector":"1"}},{"base_weights":[-2.2067036E-2,-7.3920816E-1,1.9717238E0,-2.0788807E-1,-8.412795E-1,9.9977076E-2,1.0870028E0,-3.1944585E-1,9.1338646E-1,-8.504212E-1,4.4139948E-1,1.4869763E0,-3.1142889E-2,-5.003347E-1,2.4612997E-1,-6.4829686E-3,1.4215037E0,-8.774612E-1,-4.610415E-1,4.5506638E-2,-8.695579E-3,9.154463E-3,8.711388E-2,-7.268947E-1,-3.095043E-1,1.0318815E0,-1.2589037E-1,1.8295623E-2,9.673304E-2,-7.5292337E-1,-9.3089074E-1,-6.476002E-1,3.112937E-1,-1.12198675E-2,-3.9008584E-2,-2.0908263E-2,2.9875664E-2,7.5702E-2,-2.8272403E-2,4.615454E-2,-3.1662237E-2,2.069014E-3,-3.8314573E-2,-4.6858083E-2,-2.2472344E-2,-4.3720376E-2,-1.0522564E-3,-1.7143985E-2,6.235183E-2],"categories":[],"categories_nodes":[],"categories_segments":[],"categories_sizes":[],"default_left":[0,0,0,0,0,0,0,0,0,0,0,0,0,0,0,0,0,0,0,0,0,0,0,0,0,0,0,0,0,0,0,0,0,0,0,0,0,0,0,0,0,0,0,0,0,0,0,0,0],"id":11,"left_children":[1,3,5,7,9,-1,11,13,15,17,19,21,-1,23,25,-1,27,29,31,-1,-1,-1,-1,33,35,37,39,-1,-1,41,43,45,47,-1,-1,-1,-1,-1,-1,-1,-1,-1,-1,-1,-1,-1,-1,-1,-1],"loss_changes":[8.702711E2,2.4100677E1,1.7891846E0,9.480961E0,4.7744446E0,0E0,5.7815294E0,7.034529E0,3.8447661E0,3.5210571E0,1.1138513E0,1.6945696E0,0E0,2.002242E0,5.111218E0,0E0,1.8530674E0,1.6115417E0,3.9935932E0,0E0,0E0,0E0,0E0,4.356184E-1,3.1773927E0,5.157013E0,7.213952E0,0E0,0E0,1.1951141E0,3.0026245E-1,3.0400333E0,3.9753027E0,0E0,0E0,0E0,0E0,0E0,0E0,0E0,0E0,0E0,0E0,0E0,0E0,0E0,0E0,0E0,0E0],"parents":[2147483647,0,0,1,1,2,2,3,3,4,4,6,6,7,7,8,8,9,9,10,10,11,11,13,13,14,14,16,16,17,17,18,18,23,23,24,24,25,25,26,26,29,29,30,30,31,31,32,32],"right_children":[2,4,6,8,10,-1,12,14,16,18,20,22,-1,24,26,-1,28,30,32,-1,-1,-1,-1,34,36,38,40,-1,-1,42,44,46,48,-1,-1,-1,-1,-1,-1,-1,-1,-1,-1,-1,-1,-1,-1,-1,-1],"split_conditions":[1.5482323E0,-1.0977043E0,-7.175686E-1,9.063397E-2,6.942044E0,9.9977076E-2,-5.953051E-1,-1.1563382E-2,-4.2508236E-1,1E0,9.932318E0,-2.2075205E-1,-3.1142889E-2,-5.603565E-1,1E0,-6.4829686E-3,-1.685447E-1,-6.883119E-1,5.148193E-1,4.5506638E-2,-8.695579E-3,9.154463E-3,8.711388E-2,-2.9204E-1,5.176502E-2,1.6098558E0,2.707595E-1,1.8295623E-2,9.673304E-2,-3.044871E-1,7.443686E-1,1.6098558E0,1E0,-1.12198675E-2,-3.9008584E-2,-2.0908263E-2,2.9875664E-2,7.5702E-2,-2.8272403E-2,4.615454E-2,-3.1662237E-2,2.069014E-3,-3.8314573E-2,-4.6858083E-2,-2.2472344E-2,-4.3720376E-2,-1.0522564E-3,-1.7143985E-2,6.235183E-2],"split_indices":[10,7,7,1,1,0,6,10,2,23,14,0,0,8,17,0,8,9,10,0,0,0,0,1,3,12,8,0,0,0,1,12,28,0,0,0,0,0,0,0,0,0,0,0,0,0,0,0,0],"split_type":[0,0,0,0,0,0,0,0,0,0,0,0,0,0,0,0,0,0,0,0,0,0,0,0,0,0,0,0,0,0,0,0,0,0,0,0,0,0,0,0,0,0,0,0,0,0,0,0,0],"sum_hessian":[6.066344E2,4.466201E2,1.6001431E2,7.2462395E1,3.741577E2,1.539148E2,6.0995197E0,6.655573E1,5.906655E0,3.7184454E2,2.3131528E0,5.048839E0,1.0506808E0,5.051486E1,1.6040878E1,2.1788368E0,3.7278183E0,3.4652692E2,2.531764E1,1.040997E0,1.2721558E0,1.1078625E0,3.9409766E0,2.181101E1,2.8703848E1,4.584385E0,1.1456493E1,1.7797794E0,1.9480388E0,1.0856553E2,2.379614E2,2.052202E1,4.79562E0,2.5904386E0,1.9220572E1,2.6114313E1,2.5895343E0,3.5614839E0,1.0229009E0,3.4676106E0,7.9888825E0,1.7622278E0,1.068033E2,2.3396732E2,3.9940648E0,1.477722E1,5.7448006E0,3.1953447E0,1.6002752E0],"tree_param":{"num_deleted":"0","num_feature":"33","num_nodes":"49","size_leaf_vector":"1"}},{"base_weights":[-1.3337728E-2,-7.209973E-1,1.8729125E0,-1.9206783E-1,-8.360189E-1,-1.2247196E-1,9.5039256E-2,-2.5356048E-1,1.3154248E0,-8.5980743E-1,-1.0433983E-1,-2.9112766E-2,2.1568416E-2,-3.6026818E-1,1.9194514E-1,-6.524896E-3,1.052406E-1,-8.716619E-1,-4.0067485E-1,-4.202339E-2,2.939232E-1,2.898701E-1,-4.030904E-1,-3.8579252E-1,1.0505304E0,-8.925803E-1,-5.5819297E-1,4.00448E-2,-6.375973E-1,-1.9786921E-1,9.2630184E-1,4.288549E-2,-3.0626273E-2,-2.2828469E-2,1.016889E-2,-2.5749046E-2,1.575239E-2,9.554639E-2,-1.10621E-2,-3.5037484E-2,-4.638889E-2,-3.533327E-2,6.900746E-3,-2.6752714E-3,-3.952761E-2,1.6257105E-2,-3.660988E-2,-5.3962166E-3,6.878086E-2],"categories":[],"categories_nodes":[],"categories_segments":[],"categories_sizes":[],"default_left":[0,0,0,0,0,0,0,0,0,0,0,0,0,0,0,0,0,0,0,0,0,0,0,0,0,0,0,0,0,0,0,0,0,0,0,0,0,0,0,0,0,0,0,0,0,0,0,0,0],"id":12,"left_children":[1,3,5,7,9,11,-1,13,15,17,19,-1,-1,21,23,-1,-1,25,27,-1,29,31,33,35,37,39,41,-1,43,45,47,-1,-1,-1,-1,-1,-1,-1,-1,-1,-1,-1,-1,-1,-1,-1,-1,-1,-1],"loss_changes":[7.988715E2,2.6315948E1,9.313721E0,7.6598053E0,6.1269226E0,1.0631838E0,0E0,3.7188606E0,3.994574E0,1.5327301E0,3.8778696E0,0E0,0E0,1.8508902E0,8.087793E0,0E0,0E0,1.7064667E0,3.515082E0,0E0,2.9130888E0,2.795721E0,2.001708E0,1.0666944E0,7.5334096E0,1.4667511E0,2.5476112E0,0E0,7.950187E-1,1.8482031E0,2.0146394E0,0E0,0E0,0E0,0E0,0E0,0E0,0E0,0E0,0E0,0E0,0E0,0E0,0E0,0E0,0E0,0E0,0E0,0E0],"parents":[2147483647,0,0,1,1,2,2,3,3,4,4,5,5,7,7,8,8,9,9,10,10,13,13,14,14,17,17,18,18,20,20,21,21,22,22,23,23,24,24,25,25,26,26,28,28,29,29,30,30],"right_children":[2,4,6,8,10,12,-1,14,16,18,20,-1,-1,22,24,-1,-1,26,28,-1,30,32,34,36,38,40,42,-1,44,46,48,-1,-1,-1,-1,-1,-1,-1,-1,-1,-1,-1,-1,-1,-1,-1,-1,-1,-1],"split_conditions":[1.5482323E0,-9.3687767E-1,3.196194E-1,9.096063E-1,1.6092067E0,-1.64482E-1,9.5039256E-2,5.176502E-2,-1.2921028E-1,5.481999E-1,-2.4565525E-1,-2.9112766E-2,2.1568416E-2,-3.0315298E-1,-1.9229086E-1,-6.524896E-3,1.052406E-1,1E0,9.3860465E-1,-4.202339E-2,6.509198E-1,-2.2109965E-2,1E0,-4.5621146E-2,3.000087E-1,-1.1820354E0,5.148193E-1,4.00448E-2,-7.661567E-1,2.6014163E0,-1.9806857E-1,4.288549E-2,-3.0626273E-2,-2.2828469E-2,1.016889E-2,-2.5749046E-2,1.575239E-2,9.554639E-2,-1.10621E-2,-3.5037484E-2,-4.638889E-2,-3.533327E-2,6.900746E-3,-2.6752714E-3,-3.952761E-2,1.6257105E-2,-3.660988E-2,-5.3962166E-3,6.878086E-2],"split_indices":[10,7,4,10,4,1,0,3,1,1,1,0,0,1,8,0,0,23,1,0,7,8,19,1,10,6,10,0,8,5,0,0,0,0,0,0,0,0,0,0,0,0,0,0,0,0,0,0,0],"split_type":[0,0,0,0,0,0,0,0,0,0,0,0,0,0,0,0,0,0,0,0,0,0,0,0,0,0,0,0,0,0,0,0,0,0,0,0,0,0,0,0,0,0,0,0,0,0,0,0,0],"sum_hessian":[5.964733E2,4.341952E2,1.622781E2,7.803222E1,3.56163E2,2.1888022E0,1.6008931E2,7.577313E1,2.259088E0,3.4477835E2,1.138464E1,1.1679205E0,1.0208818E0,6.1285362E1,1.4487767E1,1.0925485E0,1.1665397E0,3.3522458E2,9.553752E0,3.607113E0,7.777527E0,3.4306812E0,5.7854683E1,8.989466E0,5.498301E0,3.12522E2,2.2702581E1,1.1814617E0,8.372291E0,4.7615986E0,3.0159285E0,2.1360645E0,1.2946167E0,5.339355E1,4.461132E0,7.8142347E0,1.175231E0,2.9797966E0,2.5185044E0,5.1693752E1,2.6082825E2,1.8699688E1,4.002892E0,2.0175693E0,6.354721E0,2.6041238E0,2.1574748E0,1.1435435E0,1.8723849E0],"tree_param":{"num_deleted":"0","num_feature":"33","num_nodes":"49","size_leaf_vector":"1"}},{"base_weights":[-2.3863727E-2,-7.106303E-1,1.7891694E0,-1.3882484E-1,-8.2657087E-1,-3.4004547E-2,9.096388E-2,-3.9233354E-1,3.4476152E-1,-8.363416E-1,4.884834E-1,-4.9217343E-1,6.72504E-1,1.4449888E-1,1.1436566E-1,-8.549273E-1,-2.541596E-1,4.4982176E-2,-6.337038E-3,-3.2794762E-1,-4.888482E-2,-1.21583454E-1,7.285019E-2,-7.154056E-1,3.8332343E-1,-3.716919E-1,-8.674302E-1,-5.1658934E-1,5.3183343E-2,-1.915324E-2,2.5585553E-2,-2.781244E-2,1.7368263E-2,-4.2443942E-2,-3.5511882E-3,3.34966E-2,-4.185636E-2,-3.0223185E-2,3.3771094E-2,-4.4855345E-2,-3.341953E-2,-3.243123E-2,1.2944548E-2],"categories":[],"categories_nodes":[],"categories_segments":[],"categories_sizes":[],"default_left":[0,0,0,0,0,0,0,0,0,0,0,0,0,0,0,0,0,0,0,0,0,0,0,0,0,0,0,0,0,0,0,0,0,0,0,0,0,0,0,0,0,0,0],"id":13,"left_children":[1,3,5,7,9,-1,-1,11,13,15,17,19,21,23,-1,25,27,-1,-1,29,-1,31,-1,33,35,37,39,41,-1,-1,-1,-1,-1,-1,-1,-1,-1,-1,-1,-1,-1,-1,-1],"loss_changes":[7.2395264E2,2.783989E1,1.3113037E1,8.997143E0,4.910614E0,0E0,0E0,5.4226475E0,9.548206E0,3.5499573E0,9.27372E-1,3.216815E0,2.9979937E0,5.2210975E0,0E0,1.7135162E0,4.7666483E0,0E0,0E0,1.7998955E0,0E0,8.400515E-1,0E0,4.200418E-1,7.3828945E0,2.90621E0,1.3361969E0,1.2780588E0,0E0,0E0,0E0,0E0,0E0,0E0,0E0,0E0,0E0,0E0,0E0,0E0,0E0,0E0,0E0],"parents":[2147483647,0,0,1,1,2,2,3,3,4,4,7,7,8,8,9,9,10,10,11,11,12,12,13,13,15,15,16,16,19,19,21,21,23,23,24,24,25,25,26,26,27,27],"right_children":[2,4,6,8,10,-1,-1,12,14,16,18,20,22,24,-1,26,28,-1,-1,30,-1,32,-1,34,36,38,40,42,-1,-1,-1,-1,-1,-1,-1,-1,-1,-1,-1,-1,-1,-1,-1],"split_conditions":[1.5482323E0,-1.0977043E0,3.196194E-1,-1.5477043E-1,6.942044E0,-3.4004547E-2,9.096388E-2,1.14309505E-1,2.6014163E0,1.6092067E0,9.932318E0,-9.254364E-2,-3.9667425E-1,-2.4359992E-1,1.1436566E-1,-4.3695742E-1,-1.6676956E-1,4.4982176E-2,-6.337038E-3,-1.5095311E-1,-4.888482E-2,2.8631952E-1,7.285019E-2,6.2512743E-1,1.9497086E0,-1.2513548E-1,1.8182757E0,1E0,5.3183343E-2,-1.915324E-2,2.5585553E-2,-2.781244E-2,1.7368263E-2,-4.2443942E-2,-3.5511882E-3,3.34966E-2,-4.185636E-2,-3.0223185E-2,3.3771094E-2,-4.4855345E-2,-3.341953E-2,-3.243123E-2,1.2944548E-2],"split_indices":[10,7,4,10,1,0,0,1,5,4,14,0,10,0,0,2,2,0,0,1,0,1,0,10,13,0,3,26,0,0,0,0,0,0,0,0,0,0,0,0,0,0,0],"split_type":[0,0,0,0,0,0,0,0,0,0,0,0,0,0,0,0,0,0,0,0,0,0,0,0,0,0,0,0,0,0,0,0,0,0,0,0,0,0,0,0,0,0,0],"sum_hessian":[5.7940594E2,4.2066754E2,1.5873842E2,7.12868E1,3.4938077E2,1.6521475E0,1.5708626E2,4.689297E1,2.4393827E1,3.4716537E2,2.2153876E0,4.336485E1,3.5281236E0,2.3088013E1,1.3058162E0,3.3597125E2,1.11941E1,1.0508156E0,1.1645721E0,3.365624E1,9.70861E0,2.1732903E0,1.3548331E0,4.584755E0,1.8503258E1,9.248447E0,3.267228E2,9.84215E0,1.3519504E0,3.209334E1,1.5628971E0,1.0312607E0,1.1420296E0,3.5351517E0,1.0496033E0,1.5349649E1,3.1536078E0,7.912291E0,1.3361568E0,2.8127737E2,4.544544E1,8.54999E0,1.29216E0],"tree_param":{"num_deleted":"0","num_feature":"33","num_nodes":"43","size_leaf_vector":"1"}},{"base_weights":[-2.893565E-2,-6.921822E-1,1.7276947E0,-1.549722E-1,-8.156935E-1,-8.22181E-2,8.763292E-2,-2.0082298E-1,6.9025844E-2,-8.3761066E-1,-1.702197E-1,-2.770747E-2,2.2142466E-2,3.512755E-1,-3.0855468E-1,-8.482106E-1,4.3674102E-1,-4.061815E-2,1.4279726E-1,4.375601E-2,7.670396E-2,-4.2114332E-1,3.7310317E-2,-9.375122E-1,-7.673785E-1,4.0268015E-2,-6.386516E-3,-5.9584856E-1,6.698997E-1,-2.541376E-2,3.8202778E-2,1.5754284E-2,-2.5413627E-2,-1.1356938E-2,4.9221393E-2,-4.8562065E-2,-3.7012834E-2,8.989532E-3,-3.9278295E-2,-3.712293E-2,-3.7012696E-3,6.5817215E-2,-3.7402037E-4],"categories":[],"categories_nodes":[],"categories_segments":[],"categories_sizes":[],"default_left":[0,0,0,0,0,0,0,0,0,0,0,0,0,0,0,0,0,0,0,0,0,0,0,0,0,0,0,0,0,0,0,0,0,0,0,0,0,0,0,0,0,0,0],"id":14,"left_children":[1,3,5,7,9,11,-1,13,-1,15,17,-1,-1,19,21,23,25,-1,27,29,-1,31,33,35,37,-1,-1,39,41,-1,-1,-1,-1,-1,-1,-1,-1,-1,-1,-1,-1,-1,-1],"loss_changes":[6.5940594E2,2.713211E1,7.153076E0,5.770872E0,4.579529E0,1.0050776E0,0E0,4.666898E0,0E0,4.727768E0,2.571586E0,0E0,0E0,4.654521E0,2.5336165E0,1.5922699E0,7.9390717E-1,0E0,3.928023E0,4.8941917E0,0E0,3.2945166E0,4.4309325E0,2.6335144E-1,3.1318893E0,0E0,0E0,2.742902E-1,2.5320768E0,0E0,0E0,0E0,0E0,0E0,0E0,0E0,0E0,0E0,0E0,0E0,0E0,0E0,0E0],"parents":[2147483647,0,0,1,1,2,2,3,3,4,4,5,5,7,7,9,9,10,10,13,13,14,14,15,15,16,16,18,18,19,19,21,21,22,22,23,23,24,24,27,27,28,28],"right_children":[2,4,6,8,10,12,-1,14,-1,16,18,-1,-1,20,22,24,26,-1,28,30,-1,32,34,36,38,-1,-1,40,42,-1,-1,-1,-1,-1,-1,-1,-1,-1,-1,-1,-1,-1,-1],"split_conditions":[1.5482323E0,-9.3687767E-1,3.196194E-1,4.188381E0,1.6092067E0,-1.5385216E-1,8.763292E-2,1E0,6.9025844E-2,6.942044E0,-2.4565525E-1,-2.770747E-2,2.2142466E-2,3.0038577E-2,-1.6676956E-1,-2.6507857E-1,-3.5670143E-1,-4.061815E-2,-4.3586698E-1,1.9400304E-2,7.670396E-2,-2.9204E-1,-7.5094774E-2,9.6620895E-2,-1.2054609E0,4.0268015E-2,-6.386516E-3,1.3164367E-1,2.6014163E0,-2.541376E-2,3.8202778E-2,1.5754284E-2,-2.5413627E-2,-1.1356938E-2,4.9221393E-2,-4.8562065E-2,-3.7012834E-2,8.989532E-3,-3.9278295E-2,-3.712293E-2,-3.7012696E-3,6.5817215E-2,-3.7402037E-4],"split_indices":[10,7,4,4,4,1,0,17,0,1,1,0,0,0,2,10,6,0,2,10,0,1,1,8,8,0,0,10,5,0,0,0,0,0,0,0,0,0,0,0,0,0,0],"split_type":[0,0,0,0,0,0,0,0,0,0,0,0,0,0,0,0,0,0,0,0,0,0,0,0,0,0,0,0,0,0,0,0,0,0,0,0,0,0,0,0,0,0,0],"sum_hessian":[5.6394885E2,4.0982007E2,1.5412877E2,7.703081E1,3.3278928E2,2.0657225E0,1.5206305E2,7.564132E1,1.3894905E0,3.2157254E2,1.12167225E1,1.0587391E0,1.0069833E0,1.1980998E1,6.366032E1,3.1925143E2,2.3211012E0,3.1530607E0,8.063662E0,1.0331804E1,1.649193E0,4.7862198E1,1.5798122E1,1.4664392E2,1.7260753E2,1.1459831E0,1.1751181E0,3.3036819E0,4.7599797E0,6.0157456E0,4.316059E0,4.7880015E0,4.3074196E1,1.2944116E1,2.8540072E0,1.21879715E2,2.4764198E1,3.0845268E0,1.6952301E2,2.248994E0,1.0546879E0,1.9529408E0,2.8070388E0],"tree_param":{"num_deleted":"0","num_feature":"33","num_nodes":"43","size_leaf_vector":"1"}},{"base_weights":[-3.7181117E-2,-6.8156093E-1,1.6635103E0,-1.9347163E-1,-7.9666895E-1,8.426033E-2,9.3135744E-1,-2.6404524E-1,1.3225005E0,-8.069815E-1,4.020632E-1,7.490536E-2,-8.972094E-2,-3.7205693E-1,1.5643892E-1,1.9257431E-3,1.14389576E-1,-9.001799E-1,-7.165388E-1,3.4843665E-2,-5.1803947E-3,2.5227487E-2,-2.993193E-2,3.47118E-1,-4.2009544E-1,7.4517924E-1,-1.8344456E-1,-5.9996426E-1,-9.3291324E-1,6.926324E-1,-7.4205935E-1,-3.221074E-2,5.537178E-2,-2.5135888E-2,1.0316096E-5,-1.8404588E-2,1.11507356E-1,1.3770877E-2,-2.5490496E-2,-3.706622E-2,2.6286839E-2,-6.43605E-3,-4.696096E-2,-1.0453285E-2,7.1530744E-2,-1.8688228E-2,-4.0125746E-2],"categories":[],"categories_nodes":[],"categories_segments":[],"categories_sizes":[],"default_left":[0,0,0,0,0,0,0,0,0,0,0,0,0,0,0,0,0,0,0,0,0,0,0,0,0,0,0,0,0,0,0,0,0,0,0,0,0,0,0,0,0,0,0,0,0,0,0],"id":15,"left_children":[1,3,5,7,9,-1,11,13,15,17,19,-1,21,23,25,-1,-1,27,29,-1,-1,-1,-1,31,33,35,37,39,41,43,45,-1,-1,-1,-1,-1,-1,-1,-1,-1,-1,-1,-1,-1,-1,-1,-1],"loss_changes":[5.970864E2,2.2043106E1,8.087158E-1,8.556795E0,4.272537E0,0E0,3.921649E0,3.425274E0,4.3476744E0,2.0268555E0,5.778033E-1,0E0,1.2938554E0,2.193859E0,3.3094692E0,0E0,0E0,9.360733E-1,6.4755707E0,0E0,0E0,0E0,0E0,3.9238396E0,1.9455175E0,1.0741325E1,1.7659947E0,3.2168784E0,5.6596375E-1,2.6054916E0,3.3361206E0,0E0,0E0,0E0,0E0,0E0,0E0,0E0,0E0,0E0,0E0,0E0,0E0,0E0,0E0,0E0,0E0],"parents":[2147483647,0,0,1,1,2,2,3,3,4,4,6,6,7,7,8,8,9,9,10,10,12,12,13,13,14,14,17,17,18,18,23,23,24,24,25,25,26,26,27,27,28,28,29,29,30,30],"right_children":[2,4,6,8,10,-1,12,14,16,18,20,-1,22,24,26,-1,-1,28,30,-1,-1,-1,-1,32,34,36,38,40,42,44,46,-1,-1,-1,-1,-1,-1,-1,-1,-1,-1,-1,-1,-1,-1,-1,-1],"split_conditions":[1.5482323E0,-9.3687767E-1,-7.175686E-1,9.096063E-1,6.942044E0,8.426033E-2,-1.2954699E0,5.176502E-2,-7.09897E-2,-2.2637396E-1,-4.5448983E-1,7.490536E-2,1.8182757E0,-2.868651E-1,-2.3309273E-1,1.9257431E-3,1.14389576E-1,-1.13818E0,-2.1282734E-1,3.4843665E-2,-5.1803947E-3,2.5227487E-2,-2.993193E-2,-2.9193366E-1,-2.2119376E-1,-2.4420759E-1,-4.8332762E-2,-1.1619262E0,-1.3836715E0,-1.736623E-1,1E0,-3.221074E-2,5.537178E-2,-2.5135888E-2,1.0316096E-5,-1.8404588E-2,1.11507356E-1,1.3770877E-2,-2.5490496E-2,-3.706622E-2,2.6286839E-2,-6.43605E-3,-4.696096E-2,-1.0453285E-2,7.1530744E-2,-1.8688228E-2,-4.0125746E-2],"split_indices":[10,7,7,10,1,0,6,3,0,10,6,0,3,0,1,0,0,8,10,0,0,0,0,0,2,0,10,8,9,1,17,0,0,0,0,0,0,0,0,0,0,0,0,0,0,0,0],"split_type":[0,0,0,0,0,0,0,0,0,0,0,0,0,0,0,0,0,0,0,0,0,0,0,0,0,0,0,0,0,0,0,0,0,0,0,0,0,0,0,0,0,0,0,0,0,0,0],"sum_hessian":[5.428064E2,3.9408835E2,1.4871802E2,7.571536E1,3.18373E2,1.4317358E2,5.5444336E0,7.313644E1,2.5789235E0,3.1598145E2,2.39155E0,3.2650084E0,2.279425E0,5.8280758E1,1.4855678E1,1.5530405E0,1.0258831E0,1.5121057E2,1.6477087E2,1.2719045E0,1.1196456E0,1.0554929E0,1.223932E0,3.2593803E0,5.5021378E1,5.000845E0,9.854833E0,1.6766298E1,1.3444427E2,2.4659894E0,1.6230489E2,1.4810417E0,1.7783387E0,4.5818382E1,9.202996E0,3.2879848E0,1.71286E0,4.160863E0,5.6939692E0,1.51991205E1,1.5671773E0,1.212618E0,1.3323166E2,1.4324582E0,1.0335313E0,2.3898413E1,1.3840646E2],"tree_param":{"num_deleted":"0","num_feature":"33","num_nodes":"47","size_leaf_vector":"1"}},{"base_weights":[-1.6993567E-2,-6.523794E-1,1.6080304E0,-1.7075906E-2,-7.9081315E-1,1.0783545E-3,8.134976E-2,7.5590503E-1,-1.6900484E-1,-9.186752E-1,-6.767376E-1,-3.911561E-1,1.0368108E0,-2.5572374E-1,7.358932E-1,-7.2382003E-1,-4.844041E-2,3.0194744E-1,-7.123727E-1,-2.7096326E-2,-2.2157219E-3,6.8803036E-1,9.3360044E-2,-3.6424118E-1,1.6575E-1,-1.8100856E-2,1.4178445E0,-7.6284796E-1,-1.4174055E-1,-2.6907554E-1,6.793729E-2,-3.3305112E-1,-7.7876455E-1,6.377022E-2,8.025001E-3,7.6493355E-3,-2.4202686E-2,-2.6192367E-2,3.3146355E-2,-3.7733123E-3,1.03063144E-1,-3.9281473E-2,-2.2081828E-3,2.0417899E-2,-2.9389193E-2,-3.584875E-2,1.4211858E-2,3.573077E-2,-2.3473559E-2,-2.998744E-2,-4.2360403E-2],"categories":[],"categories_nodes":[],"categories_segments":[],"categories_sizes":[],"default_left":[0,0,0,0,0,0,0,0,0,0,0,0,0,0,0,0,0,0,0,0,0,0,0,0,0,0,0,0,0,0,0,0,0,0,0,0,0,0,0,0,0,0,0,0,0,0,0,0,0,0,0],"id":16,"left_children":[1,3,5,7,9,-1,-1,11,13,15,17,19,21,23,25,27,-1,29,31,-1,-1,33,-1,35,37,-1,39,41,43,45,-1,47,49,-1,-1,-1,-1,-1,-1,-1,-1,-1,-1,-1,-1,-1,-1,-1,-1,-1,-1],"loss_changes":[5.504204E2,3.3689713E1,4.47348E0,8.299822E0,3.967514E0,0E0,0E0,4.147511E0,4.815898E0,7.206497E-1,6.1466904E0,1.3341898E-1,1.4964504E0,2.5556958E0,4.567752E0,6.583595E-1,0E0,4.3952007E0,3.88089E0,0E0,0E0,2.3813033E0,0E0,2.782136E0,4.4128604E0,0E0,3.5604877E0,4.7927284E-1,1.0615916E0,1.4850202E0,0E0,4.085185E0,1.1970062E0,0E0,0E0,0E0,0E0,0E0,0E0,0E0,0E0,0E0,0E0,0E0,0E0,0E0,0E0,0E0,0E0,0E0,0E0],"parents":[2147483647,0,0,1,1,2,2,3,3,4,4,7,7,8,8,9,9,10,10,11,11,12,12,13,13,14,14,15,15,17,17,18,18,21,21,23,23,24,24,26,26,27,27,28,28,29,29,31,31,32,32],"right_children":[2,4,6,8,10,-1,-1,12,14,16,18,20,22,24,26,28,-1,30,32,-1,-1,34,-1,36,38,-1,40,42,44,46,-1,48,50,-1,-1,-1,-1,-1,-1,-1,-1,-1,-1,-1,-1,-1,-1,-1,-1,-1,-1],"split_conditions":[1.5482323E0,-1.0977043E0,6.1409E-1,1E0,-2.418558E-1,1.0783545E-3,8.134976E-2,-3.4248778E-1,1.02713324E-1,-1.0463188E0,-2.0508642E-1,-2.011569E-1,6.5222067E-1,5.176502E-2,-4.2376748E-1,1E0,-4.844041E-2,-6.7218035E-3,1E0,-2.7096326E-2,-2.2157219E-3,-1.0445444E-1,9.3360044E-2,-2.7561206E-1,-1.1800106E-1,-1.8100856E-2,-4.2508236E-1,4.8196355E-1,-4.2023084E-1,-2.2056827E-1,6.793729E-2,-8.89726E-2,-1.1820354E0,6.377022E-2,8.025001E-3,7.6493355E-3,-2.4202686E-2,-2.6192367E-2,3.3146355E-2,-3.7733123E-3,1.03063144E-1,-3.9281473E-2,-2.2081828E-3,2.0417899E-2,-2.9389193E-2,-3.584875E-2,1.4211858E-2,3.573077E-2,-2.3473559E-2,-2.998744E-2,-4.2360403E-2],"split_indices":[10,7,5,17,10,0,0,10,1,9,10,0,10,3,10,19,0,9,17,0,0,10,0,1,10,0,2,0,2,10,0,10,6,0,0,0,0,0,0,0,0,0,0,0,0,0,0,0,0,0,0],"split_type":[0,0,0,0,0,0,0,0,0,0,0,0,0,0,0,0,0,0,0,0,0,0,0,0,0,0,0,0,0,0,0,0,0,0,0,0,0,0,0,0,0,0,0,0,0,0,0,0,0,0,0],"sum_hessian":[5.310699E2,3.8222006E2,1.4884985E2,6.858615E1,3.136339E2,1.7836043E0,1.4706624E2,1.0613191E1,5.797296E1,1.4455527E2,1.6907866E2,2.0105898E0,8.602601E0,5.355777E1,4.41519E0,3.274013E1,1.1181513E2,5.6775284E0,1.6340112E2,1.0093638E0,1.0012262E0,7.3457866E0,1.2568142E0,4.2699627E1,1.0858144E1,1.8714259E0,2.5437644E0,3.0391829E1,2.3483026E0,4.1698217E0,1.5077063E0,2.5235815E1,1.3816531E2,2.8049505E0,4.5408363E0,7.9787335E0,3.4720894E1,4.526345E0,6.331799E0,1.0317905E0,1.5119739E0,2.9367754E1,1.0240744E0,1.0893328E0,1.2589698E0,2.1409578E0,2.0288641E0,2.419144E0,2.2816671E1,4.0914627E1,9.725068E1],"tree_param":{"num_deleted":"0","num_feature":"33","num_nodes":"51","size_leaf_vector":"1"}},{"base_weights":[-2.749688E-2,-6.57843E-1,1.5551089E0,-1.8528932E-1,-7.733654E-1,-1.2643089E-3,7.8797E-2,-3.4352985E-1,3.7897837E-1,-8.059608E-1,-3.27227E-1,-4.0057415E-1,3.8555916E-2,-5.667781E-1,6.3079965E-1,-8.321867E-1,-2.1319807E-1,-5.522633E-1,5.5818796E-1,-2.989765E-1,-4.774005E-2,-3.56805E-2,-4.6292315E-3,-3.5298284E-2,8.9955914E-1,-6.1144227E-1,-8.714145E-1,4.2374622E-2,-3.847714E-1,2.6063055E-1,-6.7416E-1,-3.869156E-1,6.784035E-2,-1.7071474E-2,3.8371757E-2,5.7796467E-2,-3.187291E-2,-3.626054E-2,-9.2130145E-3,-2.5133658E-2,-4.4328302E-2,-3.0959485E-2,1.5328944E-2,2.3158235E-2,-3.1273898E-3,4.291736E-3,-4.128046E-2,-2.2791866E-3,-2.6899917E-2],"categories":[],"categories_nodes":[],"categories_segments":[],"categories_sizes":[],"default_left":[0,0,0,0,0,0,0,0,0,0,0,0,0,0,0,0,0,0,0,0,0,0,0,0,0,0,0,0,0,0,0,0,0,0,0,0,0,0,0,0,0,0,0,0,0,0,0,0,0],"id":17,"left_children":[1,3,5,7,9,-1,-1,11,13,15,17,19,-1,21,23,25,27,29,31,33,-1,-1,-1,-1,35,37,39,-1,41,43,45,47,-1,-1,-1,-1,-1,-1,-1,-1,-1,-1,-1,-1,-1,-1,-1,-1,-1],"loss_changes":[5.1614984E2,2.005458E1,4.891815E0,6.7373104E0,4.0551605E0,0E0,0E0,4.0167713E0,4.3304834E0,4.1145782E0,4.6728125E0,2.8753061E0,0E0,2.148397E-1,5.5380936E0,1.7536621E0,2.6995535E0,1.9561791E0,4.250861E0,2.4755425E0,0E0,0E0,0E0,0E0,5.3875704E0,1.9656162E0,7.938385E-1,0E0,2.1206503E0,2.2954047E-1,1.901442E0,1.3219362E-1,0E0,0E0,0E0,0E0,0E0,0E0,0E0,0E0,0E0,0E0,0E0,0E0,0E0,0E0,0E0,0E0,0E0],"parents":[2147483647,0,0,1,1,2,2,3,3,4,4,7,7,8,8,9,9,10,10,11,11,13,13,14,14,15,15,16,16,17,17,18,18,19,19,24,24,25,25,26,26,28,28,29,29,30,30,31,31],"right_children":[2,4,6,8,10,-1,-1,12,14,16,18,20,-1,22,24,26,28,30,32,34,-1,-1,-1,-1,36,38,40,-1,42,44,46,48,-1,-1,-1,-1,-1,-1,-1,-1,-1,-1,-1,-1,-1,-1,-1,-1,-1],"split_conditions":[1.5482323E0,-1.04507E0,3.196194E-1,5.176502E-2,1E0,-1.2643089E-3,7.8797E-2,6.96731E-1,-2.5733766E-1,2.244029E-1,5.148193E-1,6.97163E-2,3.8555916E-2,-7.463682E-1,-2.5141367E-1,-1.1820354E0,-4.364717E-1,1E0,-4.2023084E-1,9.4832927E-1,-4.774005E-2,-3.56805E-2,-4.6292315E-3,-3.5298284E-2,8.406676E-1,1.9497086E0,-1.2054609E0,4.2374622E-2,2.554984E-1,-2.0849167E-1,-4.3695742E-1,7.683345E-1,6.784035E-2,-1.7071474E-2,3.8371757E-2,5.7796467E-2,-3.187291E-2,-3.626054E-2,-9.2130145E-3,-2.5133658E-2,-4.4328302E-2,-3.0959485E-2,1.5328944E-2,2.3158235E-2,-3.1273898E-3,4.291736E-3,-4.128046E-2,-2.2791866E-3,-2.6899917E-2],"split_indices":[10,7,4,3,23,0,0,10,10,0,10,10,0,8,0,6,2,17,2,0,0,0,0,0,8,13,8,0,10,0,2,10,0,0,0,0,0,0,0,0,0,0,0,0,0,0,0,0,0],"split_type":[0,0,0,0,0,0,0,0,0,0,0,0,0,0,0,0,0,0,0,0,0,0,0,0,0,0,0,0,0,0,0,0,0,0,0,0,0,0,0,0,0,0,0,0,0,0,0,0,0],"sum_hessian":[5.1537164E2,3.6898898E2,1.4638263E2,7.299618E1,2.9599283E2,1.9015604E0,1.4448108E2,5.7314396E1,1.5681781E1,2.75088E2,2.0904814E1,5.513346E1,2.180935E0,3.0344996E0,1.2647281E1,2.6304602E2,1.2041989E1,1.6968405E1,3.9364095E0,4.7893375E1,7.2400866E0,1.9315212E0,1.1029785E0,1.8447989E0,1.0802483E1,4.219445E1,2.2085156E2,1.1281394E0,1.091385E1,2.0642676E0,1.4904137E1,2.038968E0,1.8974414E0,4.6713577E1,1.1797955E0,9.470731E0,1.331751E0,3.276951E1,9.424944E0,1.0065492E1,2.1078607E2,8.228249E0,2.6856015E0,1.002716E0,1.0615518E0,2.5485218E0,1.2355615E1,1.0249884E0,1.0139797E0],"tree_param":{"num_deleted":"0","num_feature":"33","num_nodes":"49","size_leaf_vector":"1"}},{"base_weights":[6.643236E-3,-6.496137E-1,1.4117965E0,-7.650414E-1,-1.418773E-1,-2.5711516E-1,1.5358387E0,-7.7632654E-1,4.1497508E-1,-2.1565156E-1,5.7657605E-1,3.5424847E-2,-4.3499503E-1,-1.1036254E-2,7.769593E-2,-6.652199E-1,-4.5244735E-2,-8.757453E-3,4.308034E-2,-4.0513498E-1,5.2712377E-2,6.6274755E-2,8.665977E-2,-5.6869924E-1,2.107854E-2,-7.0503205E-1,-1.21366374E-1,3.1245255E-1,-5.071479E-1,7.960531E-1,-2.8585023E-1,-3.395578E-2,6.428427E-1,-7.894212E-2,-6.892629E-1,2.248271E-2,-3.5817206E-2,4.846229E-2,-1.8559175E-2,4.036502E-2,-3.0827159E-2,-7.7723153E-3,-3.0779097E-2,5.691572E-2,-3.0513763E-2,1.6304037E-2,-2.7661348E-2,-1.0746538E-2,6.315583E-2,-2.802349E-2,2.2954049E-2,-4.4669833E-2,2.6466742E-3],"categories":[],"categories_nodes":[],"categories_segments":[],"categories_sizes":[],"default_left":[0,0,0,0,0,0,0,0,0,0,0,0,0,0,0,0,0,0,0,0,0,0,0,0,0,0,0,0,0,0,0,0,0,0,0,0,0,0,0,0,0,0,0,0,0,0,0,0,0,0,0,0,0],"id":18,"left_children":[1,3,5,7,9,11,13,15,17,19,21,-1,23,-1,-1,25,-1,-1,-1,27,29,-1,31,33,-1,35,37,39,41,43,45,-1,47,49,51,-1,-1,-1,-1,-1,-1,-1,-1,-1,-1,-1,-1,-1,-1,-1,-1,-1,-1],"loss_changes":[4.7686523E2,2.055069E1,3.4475433E1,4.143814E0,3.6502154E0,2.411617E0,5.2141724E0,3.4636993E0,1.039198E0,3.1260257E0,2.2578816E0,0E0,1.4950364E0,0E0,0E0,3.30188E0,0E0,0E0,0E0,2.786601E0,6.809373E0,0E0,2.5573502E0,5.305376E-1,0E0,2.2235336E0,3.5963762E0,2.836461E0,1.1176052E0,4.7611136E0,3.2407656E0,0E0,2.0794878E0,1.0568764E0,1.2321122E0,0E0,0E0,0E0,0E0,0E0,0E0,0E0,0E0,0E0,0E0,0E0,0E0,0E0,0E0,0E0,0E0,0E0,0E0],"parents":[2147483647,0,0,1,1,2,2,3,3,4,4,5,5,6,6,7,7,8,8,9,9,10,10,12,12,15,15,19,19,20,20,22,22,23,23,25,25,26,26,27,27,28,28,29,29,30,30,32,32,33,33,34,34],"right_children":[2,4,6,8,10,12,14,16,18,20,22,-1,24,-1,-1,26,-1,-1,-1,28,30,-1,32,34,-1,36,38,40,42,44,46,-1,48,50,52,-1,-1,-1,-1,-1,-1,-1,-1,-1,-1,-1,-1,-1,-1,-1,-1,-1,-1],"split_conditions":[1.6092067E0,1E0,5.082212E-1,6.942044E0,1.02713324E-1,1.6077532E0,-6.7218035E-3,1.674443E-1,-4.2023084E-1,-1.13136955E-1,3.2107034E-1,3.5424847E-2,1E0,-1.1036254E-2,7.769593E-2,4.4415016E-2,-4.5244735E-2,-8.757453E-3,4.308034E-2,-2.7529815E-1,9.6620895E-2,6.6274755E-2,-4.2508236E-1,-8.294798E-1,2.107854E-2,-3.0996317E-1,1E0,-3.25176E-1,-8.809298E-1,1.9497086E0,1E0,-3.395578E-2,7.6314414E-1,-2.219745E-1,1E0,2.248271E-2,-3.5817206E-2,4.846229E-2,-1.8559175E-2,4.036502E-2,-3.0827159E-2,-7.7723153E-3,-3.0779097E-2,5.691572E-2,-3.0513763E-2,1.6304037E-2,-2.7661348E-2,-1.0746538E-2,6.315583E-2,-2.802349E-2,2.2954049E-2,-4.4669833E-2,2.6466742E-3],"split_indices":[4,30,8,1,1,5,9,6,2,8,0,0,26,0,0,0,0,0,0,0,8,0,2,8,0,0,17,2,8,13,17,0,0,0,30,0,0,0,0,0,0,0,0,0,0,0,0,0,0,0,0,0,0],"split_type":[0,0,0,0,0,0,0,0,0,0,0,0,0,0,0,0,0,0,0,0,0,0,0,0,0,0,0,0,0,0,0,0,0,0,0,0,0,0,0,0,0,0,0,0,0,0,0,0,0,0,0,0,0],"sum_hessian":[5.151335E2,3.515055E2,1.6362796E2,2.8598376E2,6.552173E1,1.1246088E1,1.5238188E2,2.8361353E2,2.3702424E0,6.0054848E1,5.4668827E0,1.2853924E0,9.960695E0,1.4382607E0,1.5094362E2,1.5545001E2,1.281635E2,1.2829521E0,1.0872904E0,3.4901993E1,2.5152855E1,1.4874746E0,3.9794083E0,8.906518E0,1.054177E0,1.4457053E2,1.0879483E1,4.0873756E0,3.0814617E1,7.4482865E0,1.7704569E1,1.5812498E0,2.3981583E0,2.086294E0,6.8202243E0,1.0266324E0,1.435439E2,1.490905E0,9.388578E0,2.7523036E0,1.3350722E0,7.835152E0,2.2979464E1,6.143666E0,1.3046206E0,5.31678E0,1.2387789E1,1.2806478E0,1.1175107E0,1.0789336E0,1.0073603E0,5.189252E0,1.6309724E0],"tree_param":{"num_deleted":"0","num_feature":"33","num_nodes":"53","size_leaf_vector":"1"}},{"base_weights":[-1.6557826E-2,-6.3123226E-1,1.4735438E0,-1.714771E-1,-7.533144E-1,2.2689898E-3,7.452606E-2,-2.71691E-1,8.371889E-1,-7.9553056E-1,-4.6732047E-1,-3.640427E-1,1.8498422E-1,-8.80546E-3,1.0919287E0,-6.7346734E-1,-4.6684783E-2,6.961275E-2,-5.5870277E-1,-2.4326564E-1,-8.163597E-1,-3.6623873E-2,4.5147827E-1,6.337256E-1,7.711921E-2,-7.173582E-1,1.4240451E-1,-6.6952515E-1,1.2518972E-1,-1.7027417E-2,4.2310357E-2,-1.3622102E-2,-4.7921468E-2,4.6040203E-2,-4.241438E-3,5.7600703E-2,-3.450372E-3,-3.7179492E-2,2.3629101E-2,-1.0983872E-2,4.758556E-2,-1.6870541E-2,-3.9184693E-2,4.5109525E-2,-1.1356183E-2],"categories":[],"categories_nodes":[],"categories_segments":[],"categories_sizes":[],"default_left":[0,0,0,0,0,0,0,0,0,0,0,0,0,0,0,0,0,0,0,0,0,0,0,0,0,0,0,0,0,0,0,0,0,0,0,0,0,0,0,0,0,0,0,0,0],"id":19,"left_children":[1,3,5,7,9,-1,-1,11,13,15,17,19,21,-1,23,25,-1,-1,27,29,31,-1,33,35,-1,37,39,41,43,-1,-1,-1,-1,-1,-1,-1,-1,-1,-1,-1,-1,-1,-1,-1,-1],"loss_changes":[4.5336118E2,1.9538284E1,3.4372864E0,7.79016E0,2.9676208E0,0E0,0E0,2.9694147E0,2.0008802E0,3.4118195E0,7.2352915E0,2.9465933E0,3.322792E0,0E0,2.0684814E-1,4.785797E0,0E0,0E0,2.88305E0,5.255165E0,6.4367056E-1,0E0,2.6207647E0,1.7337408E0,0E0,4.230774E0,2.4101737E0,9.4668007E-1,1.8454407E0,0E0,0E0,0E0,0E0,0E0,0E0,0E0,0E0,0E0,0E0,0E0,0E0,0E0,0E0,0E0,0E0],"parents":[2147483647,0,0,1,1,2,2,3,3,4,4,7,7,8,8,9,9,10,10,11,11,12,12,14,14,15,15,18,18,19,19,20,20,22,22,23,23,25,25,26,26,27,27,28,28],"right_children":[2,4,6,8,10,-1,-1,12,14,16,18,20,22,-1,24,26,-1,-1,28,30,32,-1,34,36,-1,38,40,42,44,-1,-1,-1,-1,-1,-1,-1,-1,-1,-1,-1,-1,-1,-1,-1,-1],"split_conditions":[1.5482323E0,-9.3687767E-1,1.1109216E0,2.528484E-1,1.8182757E0,2.2689898E-3,7.452606E-2,1E0,-7.067912E-1,1.674443E-1,-9.5015013E-1,2.707595E-1,-3.2894117E-1,-8.80546E-3,9.158638E-1,1.8000108E-1,-4.6684783E-2,6.961275E-2,1E0,8.90686E-2,-4.356251E-1,-3.6623873E-2,6.97163E-2,-1.566716E-1,7.711921E-2,2.1045847E0,2.9846334E-1,-3.8258967E-1,-1.1820354E0,-1.7027417E-2,4.2310357E-2,-1.3622102E-2,-4.7921468E-2,4.6040203E-2,-4.241438E-3,5.7600703E-2,-3.450372E-3,-3.7179492E-2,2.3629101E-2,-1.0983872E-2,4.758556E-2,-1.6870541E-2,-3.9184693E-2,4.5109525E-2,-1.1356183E-2],"split_indices":[10,7,5,0,3,0,0,18,8,6,10,8,10,0,8,0,0,0,18,10,2,0,10,8,0,5,8,2,6,0,0,0,0,0,0,0,0,0,0,0,0,0,0,0,0],"split_type":[0,0,0,0,0,0,0,0,0,0,0,0,0,0,0,0,0,0,0,0,0,0,0,0,0,0,0,0,0,0,0,0,0,0,0,0,0,0,0,0,0,0,0,0,0],"sum_hessian":[4.929595E2,3.494047E2,1.4355481E2,7.381724E1,2.7558746E2,1.7296133E0,1.418252E2,6.781069E1,6.0065475E0,2.385874E2,3.700006E1,5.6572994E1,1.1237701E1,1.2686825E0,4.737865E0,1.2979405E2,1.0879335E2,1.066285E0,3.5933777E1,4.5864212E1,1.0708779E1,2.1358883E0,9.101812E0,3.5419004E0,1.1959647E0,1.2328265E2,6.5113955E0,3.0940916E1,4.992859E0,4.2735622E1,3.1285892E0,2.8220701E0,7.886709E0,4.4716806E0,4.6301317E0,1.6705109E0,1.8713896E0,1.2099058E2,2.292075E0,5.0020504E0,1.509345E0,8.927216E0,2.20137E1,1.0707153E0,3.9221437E0],"tree_param":{"num_deleted":"0","num_feature":"33","num_nodes":"45","size_leaf_vector":"1"}},{"base_weights":[-2.3113111E-2,-6.3432115E-1,1.4383719E0,-1.4250979E-1,-7.526094E-1,2.3994935E-3,7.275203E-2,-5.232692E-1,6.6404164E-2,-7.8151697E-1,-2.2949396E-2,-8.1600803E-1,-3.523674E-1,-2.403285E-2,1.195188E0,-8.067959E-1,-2.8942493E-1,-4.3300736E-1,7.328852E-1,-1.1950045E-2,-4.5420785E-2,2.0986116E-1,-5.7666504E-1,-2.6127863E-1,2.539007E-1,1.5102717E-2,7.71054E-2,-5.77067E-1,-8.472053E-1,-4.4989192E-1,4.3292474E-2,-7.219825E-1,1.5176946E-2,-9.430633E-3,1.2038926E0,-2.9888986E-2,2.960509E-2,-4.373416E-2,-1.4248788E-2,3.611815E-2,-1.894555E-2,3.1286944E-2,-1.4381416E-2,5.051285E-3,-3.2075472E-2,-4.352976E-2,-2.7426813E-2,-2.7353538E-2,1.1051512E-2,-1.1473709E-2,-4.1528616E-2,7.198931E-2,1.8961491E-2],"categories":[],"categories_nodes":[],"categories_segments":[],"categories_sizes":[],"default_left":[0,0,0,0,0,0,0,0,0,0,0,0,0,0,0,0,0,0,0,0,0,0,0,0,0,0,0,0,0,0,0,0,0,0,0,0,0,0,0,0,0,0,0,0,0,0,0,0,0,0,0,0,0],"id":20,"left_children":[1,3,5,7,9,-1,-1,11,13,15,17,19,21,23,25,27,29,31,33,-1,-1,35,37,39,41,-1,-1,43,45,47,-1,49,-1,-1,51,-1,-1,-1,-1,-1,-1,-1,-1,-1,-1,-1,-1,-1,-1,-1,-1,-1,-1],"loss_changes":[4.3044058E2,1.9657684E1,3.2234802E0,5.3726707E0,5.7539062E0,0E0,0E0,9.075241E-1,4.542652E0,3.0404053E0,3.868667E0,2.1184444E-1,2.2449164E0,2.830367E0,5.565729E-1,1.8297424E0,3.0625243E0,1.9339983E0,2.1374164E0,0E0,0E0,2.06302E0,8.204775E-1,2.9474099E0,4.169141E0,0E0,0E0,1.8344889E0,9.9131775E-1,9.8926234E-1,0E0,1.3470864E-1,0E0,0E0,4.6943188E-2,0E0,0E0,0E0,0E0,0E0,0E0,0E0,0E0,0E0,0E0,0E0,0E0,0E0,0E0,0E0,0E0,0E0,0E0],"parents":[2147483647,0,0,1,1,2,2,3,3,4,4,7,7,8,8,9,9,10,10,11,11,12,12,13,13,14,14,15,15,16,16,17,17,18,18,21,21,22,22,23,23,24,24,27,27,28,28,29,29,31,31,34,34],"right_children":[2,4,6,8,10,-1,-1,12,14,16,18,20,22,24,26,28,30,32,34,-1,-1,36,38,40,42,-1,-1,44,46,48,-1,50,-1,-1,52,-1,-1,-1,-1,-1,-1,-1,-1,-1,-1,-1,-1,-1,-1,-1,-1,-1,-1],"split_conditions":[1.5482323E0,-1.1035525E0,3.196194E-1,-4.5666638E-1,1.6092067E0,2.3994935E-3,7.275203E-2,-2.3612218E-1,2.2540004E0,1.8000108E-1,-1.1374871E-1,-2.868651E-1,-2.0796767E-1,-1.6480474E-1,4.9239042E-1,-1.1820354E0,6.5222067E-1,1.6098558E0,-4.70213E-1,-1.1950045E-2,-4.5420785E-2,-1.0154915E0,-9.561767E-2,-2.8897402E-1,1.0849398E-1,1.5102717E-2,7.71054E-2,-2.9287016E-1,1E0,6.748683E-1,4.3292474E-2,-2.760264E-1,1.5176946E-2,-9.430633E-3,-2.6008813E-2,-2.9888986E-2,2.960509E-2,-4.373416E-2,-1.4248788E-2,3.611815E-2,-1.894555E-2,3.1286944E-2,-1.4381416E-2,5.051285E-3,-3.2075472E-2,-4.352976E-2,-2.7426813E-2,-2.7353538E-2,1.1051512E-2,-1.1473709E-2,-4.1528616E-2,7.198931E-2,1.8961491E-2],"split_indices":[10,7,4,10,4,0,0,0,4,0,1,0,1,0,8,6,10,12,10,0,0,8,0,0,8,0,0,0,23,9,0,7,0,0,0,0,0,0,0,0,0,0,0,0,0,0,0,0,0,0,0,0,0],"split_type":[0,0,0,0,0,0,0,0,0,0,0,0,0,0,0,0,0,0,0,0,0,0,0,0,0,0,0,0,0,0,0,0,0,0,0,0,0,0,0,0,0,0,0,0,0,0,0,0,0,0,0,0,0],"sum_hessian":[4.798485E2,3.38747E2,1.411015E2,6.61049E1,2.726421E2,1.7175212E0,1.3938399E2,2.2887043E1,4.3217854E1,2.6218387E2,1.0458244E1,7.044963E0,1.584208E1,4.0918236E1,2.2996185E0,2.4876517E2,1.3418688E1,7.0568514E0,3.4013934E0,1.467576E0,5.577387E0,4.536121E0,1.130596E1,2.2107265E1,1.881097E1,1.1666898E0,1.1329286E0,3.949801E1,2.0926715E2,1.2318264E1,1.1004244E0,5.0825477E0,1.9743037E0,1.353299E0,2.0480943E0,1.2760521E0,3.260069E0,4.603696E0,6.7022634E0,1.812265E0,2.0295E1,1.1060696E1,7.750275E0,3.3786469E0,3.611936E1,1.9229306E2,1.69741E1,1.0921021E1,1.397242E0,1.4805852E0,3.6019623E0,1.0125474E0,1.0355469E0],"tree_param":{"num_deleted":"0","num_feature":"33","num_nodes":"53","size_leaf_vector":"1"}},{"base_weights":[1.2059399E-3,-6.20587E-1,1.3144922E0,-3.860959E-2,-7.652444E-1,-1.7781384E-1,1.4232696E0,-7.939792E-2,3.921425E-2,-7.7813315E-1,5.045234E-1,-3.833747E-1,4.0750968E-1,-1.2980714E-2,7.219746E-2,-1.5656802E-1,3.241125E-1,-4.531238E-1,-8.214217E-1,-6.063077E-3,4.6174996E-2,2.850823E-1,-7.311951E-1,-2.7902735E-2,5.608358E-2,-5.0478466E-2,-5.470971E-1,-3.326903E-2,5.768887E-1,-5.6360465E-1,4.8773667E-1,-5.872691E-1,-8.6360735E-1,-1.2527928E-2,3.815132E-2,-4.306528E-2,-2.283128E-3,8.245065E-3,-2.194936E-2,-4.5106348E-2,-3.969447E-3,4.239395E-2,-8.066844E-3,-3.3197038E-2,1.4701058E-2,5.0983336E-2,-1.1494987E-2,7.3970193E-3,-3.305584E-2,-4.5252167E-2,-3.4313366E-2],"categories":[],"categories_nodes":[],"categories_segments":[],"categories_sizes":[],"default_left":[0,0,0,0,0,0,0,0,0,0,0,0,0,0,0,0,0,0,0,0,0,0,0,0,0,0,0,0,0,0,0,0,0,0,0,0,0,0,0,0,0,0,0,0,0,0,0,0,0,0,0],"id":21,"left_children":[1,3,5,7,9,11,13,15,-1,17,19,21,23,-1,-1,25,27,29,31,-1,-1,33,35,-1,-1,37,39,-1,41,43,45,47,49,-1,-1,-1,-1,-1,-1,-1,-1,-1,-1,-1,-1,-1,-1,-1,-1,-1,-1],"loss_changes":[3.8501102E2,2.6909172E1,2.484607E1,2.2357535E0,4.585968E0,1.5016274E0,5.292877E0,2.00021E0,0E0,3.202057E0,9.461065E-1,2.2523427E0,2.9643197E0,0E0,0E0,2.1777062E0,2.979248E0,3.61059E0,1.6951752E0,0E0,0E0,1.1456099E0,5.0143147E-1,0E0,0E0,3.667105E0,1.79965E0,0E0,1.8974099E0,2.7063513E0,1.7263528E0,2.1154556E0,7.5154114E-1,0E0,0E0,0E0,0E0,0E0,0E0,0E0,0E0,0E0,0E0,0E0,0E0,0E0,0E0,0E0,0E0,0E0,0E0],"parents":[2147483647,0,0,1,1,2,2,3,3,4,4,5,5,6,6,7,7,9,9,10,10,11,11,12,12,15,15,16,16,17,17,18,18,21,21,22,22,25,25,26,26,28,28,29,29,30,30,31,31,32,32],"right_children":[2,4,6,8,10,12,14,16,-1,18,20,22,24,-1,-1,26,28,30,32,-1,-1,34,36,-1,-1,38,40,-1,42,44,46,48,50,-1,-1,-1,-1,-1,-1,-1,-1,-1,-1,-1,-1,-1,-1,-1,-1,-1,-1],"split_conditions":[1.6092067E0,-1.1327937E0,5.082212E-1,9.4832927E-1,6.942044E0,5.176502E-2,-6.7218035E-3,1.7090511E0,3.921425E-2,1E0,-4.2023084E-1,-4.5448983E-1,-5.841027E-1,-1.2980714E-2,7.219746E-2,-4.5110676E-2,-2.5212142E-1,1E0,-1.1820354E0,-6.063077E-3,4.6174996E-2,-4.3586698E-1,1.8234922E0,-2.7902735E-2,5.608358E-2,1.3509293E-2,-2.7540246E-1,-3.326903E-2,1.6098558E0,4.4415016E-2,-2.1424894E-1,-2.9287016E-1,-1.1407613E-1,-1.2527928E-2,3.815132E-2,-4.306528E-2,-2.283128E-3,8.245065E-3,-2.194936E-2,-4.5106348E-2,-3.969447E-3,4.239395E-2,-8.066844E-3,-3.3197038E-2,1.4701058E-2,5.0983336E-2,-1.1494987E-2,7.3970193E-3,-3.305584E-2,-4.5252167E-2,-3.4313366E-2],"split_indices":[4,7,8,0,1,3,9,2,0,17,2,6,8,0,0,0,0,23,6,0,0,2,7,0,0,8,8,0,12,0,1,0,0,0,0,0,0,0,0,0,0,0,0,0,0,0,0,0,0,0,0],"split_type":[0,0,0,0,0,0,0,0,0,0,0,0,0,0,0,0,0,0,0,0,0,0,0,0,0,0,0,0,0,0,0,0,0,0,0,0,0,0,0,0,0,0,0,0,0,0,0,0,0,0,0],"sum_hessian":[4.6948608E2,3.1898557E2,1.5050052E2,6.375542E1,2.5523015E2,1.0181873E1,1.4031865E2,6.160535E1,2.1500716E0,2.5304878E2,2.1813726E0,7.790821E0,2.391052E0,1.5630592E0,1.387556E2,5.2228752E1,9.376599E0,3.109037E1,2.219584E2,1.1597469E0,1.0216259E0,2.7281377E0,5.0626836E0,1.1095293E0,1.2815228E0,4.195947E1,1.0269284E1,1.5758067E0,7.8007927E0,2.818205E1,2.9083185E0,3.6161934E1,1.8579648E2,1.5107592E0,1.2173785E0,4.0395875E0,1.0230961E0,2.7364698E1,1.4594768E1,5.309842E0,4.9594417E0,5.597505E0,2.2032874E0,2.5432474E1,2.7495773E0,1.4285635E0,1.4797549E0,3.209141E0,3.2952793E1,1.4728056E2,3.8515907E1],"tree_param":{"num_deleted":"0","num_feature":"33","num_nodes":"51","size_leaf_vector":"1"}},{"base_weights":[-2.2934731E-2,-6.1843216E-1,1.2777563E0,-1.7498629E-1,-7.2863436E-1,-2.9781175E-1,1.3903899E0,-3.853749E-1,1.0200232E-1,-7.410435E-1,3.5504043E-1,9.7873144E-2,-6.904168E-1,-2.6446714E-3,7.010845E-2,-4.394975E-1,1.6239685E-1,6.762359E-1,-2.5835472E-1,-7.699246E-1,-3.3851308E-1,-6.052036E-3,3.212857E-2,-5.280338E-1,8.2221055E-1,-4.12568E-2,-3.0397435E-3,1.7572066E-1,-4.8978934E-1,-1.1714905E-2,2.3883617E-2,8.4864706E-1,-1.2932176E-2,-4.4970647E-1,3.72936E-2,-8.1696784E-1,-5.0411725E-1,4.7419882E-1,-5.2620584E-1,-3.4127835E-2,-2.3566948E-3,-4.4577615E-3,6.620341E-2,-2.9668866E-2,4.6925206E-2,1.1101563E-3,-2.7006363E-2,2.1833211E-2,7.3220275E-2,-3.114984E-2,1.5963117E-2,-1.3258154E-2,-4.2179458E-2,-4.5244318E-2,-1.93733E-2,-2.8009756E-2,5.4277755E-2,-3.1299453E-2,2.0745642E-2],"categories":[],"categories_nodes":[],"categories_segments":[],"categories_sizes":[],"default_left":[0,0,0,0,0,0,0,0,0,0,0,0,0,0,0,0,0,0,0,0,0,0,0,0,0,0,0,0,0,0,0,0,0,0,0,0,0,0,0,0,0,0,0,0,0,0,0,0,0,0,0,0,0,0,0,0,0,0,0],"id":22,"left_children":[1,3,5,7,9,11,13,15,17,19,21,23,25,-1,-1,27,29,31,33,35,37,-1,-1,39,41,-1,-1,43,45,-1,-1,47,-1,49,-1,51,53,55,57,-1,-1,-1,-1,-1,-1,-1,-1,-1,-1,-1,-1,-1,-1,-1,-1,-1,-1,-1,-1],"loss_changes":[3.521388E2,1.5111168E1,2.5752579E1,3.7330728E0,3.6175232E0,1.6753911E0,2.3425903E0,1.1455498E0,6.000249E0,2.6102142E0,5.569034E-1,3.1681974E0,4.0102792E-1,0E0,0E0,1.1146569E0,6.10718E-1,2.0136876E0,3.7983475E0,2.4595184E0,3.0435238E0,0E0,0E0,2.5347626E-1,1.5754836E0,0E0,0E0,2.4624536E0,8.108425E-1,0E0,0E0,1.8039384E0,0E0,2.2990775E0,0E0,2.6185913E0,1.3857079E0,3.1139235E0,1.7015924E0,0E0,0E0,0E0,0E0,0E0,0E0,0E0,0E0,0E0,0E0,0E0,0E0,0E0,0E0,0E0,0E0,0E0,0E0,0E0,0E0],"parents":[2147483647,0,0,1,1,2,2,3,3,4,4,5,5,6,6,7,7,8,8,9,9,10,10,11,11,12,12,15,15,16,16,17,17,18,18,19,19,20,20,23,23,24,24,27,27,28,28,31,31,33,33,35,35,36,36,37,37,38,38],"right_children":[2,4,6,8,10,12,14,16,18,20,22,24,26,-1,-1,28,30,32,34,36,38,-1,-1,40,42,-1,-1,44,46,-1,-1,48,-1,50,-1,52,54,56,58,-1,-1,-1,-1,-1,-1,-1,-1,-1,-1,-1,-1,-1,-1,-1,-1,-1,-1,-1,-1],"split_conditions":[1.6077532E0,-1.1327937E0,6.66529E-1,-1.685447E-1,6.942044E0,-4.155659E-1,7.5895175E-2,1.14309505E-1,1.0849398E-1,1E0,-4.2023084E-1,-4.3586698E-1,1.7090511E0,-2.6446714E-3,7.010845E-2,-2.868651E-1,-4.2508236E-1,1.9497086E0,1.9250761E0,1.8182757E0,-2.823765E-1,-6.052036E-3,3.212857E-2,-6.7218035E-3,-3.783706E-1,-4.12568E-2,-3.0397435E-3,-7.384528E-1,-4.3586698E-1,-1.1714905E-2,2.3883617E-2,5.176502E-2,-1.2932176E-2,1E0,3.72936E-2,-1.2054609E0,-2.6981395E-1,-3.0315298E-1,1.303718E0,-3.4127835E-2,-2.3566948E-3,-4.4577615E-3,6.620341E-2,-2.9668866E-2,4.6925206E-2,1.1101563E-3,-2.7006363E-2,2.1833211E-2,7.3220275E-2,-3.114984E-2,1.5963117E-2,-1.3258154E-2,-4.2179458E-2,-4.5244318E-2,-1.93733E-2,-2.8009756E-2,5.4277755E-2,-3.1299453E-2,2.0745642E-2],"split_indices":[5,7,8,8,1,2,9,1,8,23,2,2,2,0,0,0,2,13,8,3,1,0,0,9,7,0,0,8,2,0,0,3,0,21,0,8,1,1,8,0,0,0,0,0,0,0,0,0,0,0,0,0,0,0,0,0,0,0,0],"split_type":[0,0,0,0,0,0,0,0,0,0,0,0,0,0,0,0,0,0,0,0,0,0,0,0,0,0,0,0,0,0,0,0,0,0,0,0,0,0,0,0,0,0,0,0,0,0,0,0,0,0,0,0,0,0,0,0,0,0,0],"sum_hessian":[4.526116E2,3.1082886E2,1.4178273E2,6.2384777E1,2.4844409E2,9.349789E0,1.3243294E2,3.5232437E1,2.7152342E1,2.4594395E2,2.50013E0,5.030517E0,4.319271E0,1.0438138E0,1.3138913E2,3.224421E1,2.9882264E0,1.0131344E1,1.7020998E1,2.2862749E2,1.7316477E1,1.1594304E0,1.3406996E0,2.8440003E0,2.1865168E0,3.3021822E0,1.0170889E0,2.2481887E0,2.9996021E1,1.4369864E0,1.5512398E0,8.631716E0,1.4996285E0,1.4760605E1,2.2603931E0,1.9248712E2,3.614036E1,2.9624724E0,1.4354005E1,1.8350344E0,1.008966E0,1.0684953E0,1.1180215E0,1.2300477E0,1.0181409E0,2.735177E0,2.7260845E1,6.195601E0,2.4361148E0,1.2200907E1,2.5596979E0,9.363415E0,1.831237E2,6.6243725E0,2.951599E1,1.1315734E0,1.830899E0,1.3280745E1,1.0732605E0],"tree_param":{"num_deleted":"0","num_feature":"33","num_nodes":"59","size_leaf_vector":"1"}},{"base_weights":[-1.7998492E-2,-5.9054273E-1,1.3460791E0,-7.501172E-1,-5.3024073E-3,-1.5759287E-2,6.851571E-2,-7.8257525E-1,-3.226648E-1,-9.1932215E-2,8.27767E-1,-6.1856943E-1,-8.572832E-1,-5.895724E-1,5.977929E-1,-3.0019072E-1,1.833228E-1,-9.496567E-3,1.114468E0,-7.3232067E-1,-3.5409778E-1,-9.5734274E-1,-7.509659E-1,-7.797099E-1,-3.5619877E-2,-1.6210163E-2,6.286069E-2,-1.541523E-1,-8.098195E-1,7.8748584E-1,-1.7458524E-1,8.305577E-2,5.5629265E-1,-4.1220794E-3,-4.0205307E-2,3.0133074E-2,-3.1755578E-2,-4.840487E-2,-2.0307738E-2,-3.9422277E-2,9.215491E-4,-4.614497E-2,-1.4072527E-2,2.8430462E-2,-3.409946E-2,-1.4643773E-2,3.1577524E-2,-2.8081841E-3,-4.5860372E-2,7.32237E-2,2.2029998E-2,2.0969382E-2,-2.5072232E-2,-7.962274E-3,4.462999E-2],"categories":[],"categories_nodes":[],"categories_segments":[],"categories_sizes":[],"default_left":[0,0,0,0,0,0,0,0,0,0,0,0,0,0,0,0,0,0,0,0,0,0,0,0,0,0,0,0,0,0,0,0,0,0,0,0,0,0,0,0,0,0,0,0,0,0,0,0,0,0,0,0,0,0,0],"id":23,"left_children":[1,3,5,7,9,-1,-1,11,13,15,17,19,21,23,25,27,29,-1,31,33,35,37,39,41,43,-1,-1,45,47,49,51,-1,53,-1,-1,-1,-1,-1,-1,-1,-1,-1,-1,-1,-1,-1,-1,-1,-1,-1,-1,-1,-1,-1,-1],"loss_changes":[3.4990973E2,2.9465324E1,5.764862E0,3.1874695E0,5.027835E0,0E0,0E0,2.2845917E0,5.0694056E0,3.6693518E0,2.1265655E0,2.0117455E0,9.326172E-1,1.5929341E0,3.3334928E0,2.5747664E0,6.144035E0,0E0,6.8272734E-1,2.3526325E0,7.007577E0,5.9326172E-2,2.318863E0,5.5412817E-1,2.3326747E0,0E0,0E0,3.3925433E0,5.833273E-1,1.8241544E0,3.755894E0,0E0,1.130946E0,0E0,0E0,0E0,0E0,0E0,0E0,0E0,0E0,0E0,0E0,0E0,0E0,0E0,0E0,0E0,0E0,0E0,0E0,0E0,0E0,0E0,0E0],"parents":[2147483647,0,0,1,1,2,2,3,3,4,4,7,7,8,8,9,9,10,10,11,11,12,12,13,13,14,14,15,15,16,16,18,18,19,19,20,20,21,21,22,22,23,23,24,24,27,27,28,28,29,29,30,30,32,32],"right_children":[2,4,6,8,10,-1,-1,12,14,16,18,20,22,24,26,28,30,-1,32,34,36,38,40,42,44,-1,-1,46,48,50,52,-1,54,-1,-1,-1,-1,-1,-1,-1,-1,-1,-1,-1,-1,-1,-1,-1,-1,-1,-1,-1,-1,-1,-1],"split_conditions":[1.5482323E0,1E0,3.196194E-1,1E0,2.528484E-1,-1.5759287E-2,6.851571E-2,-6.883119E-1,5.148193E-1,-1.3688312E-1,-7.2262204E-1,-1.6740693E-1,-2.728195E-1,1.6098558E0,-4.2023084E-1,-7.740942E-2,1.0849398E-1,-9.496567E-3,3.6995456E-1,-2.9092565E-1,-1.3593033E-1,2.898794E0,2.244029E-1,1E0,9.654942E-2,-1.6210163E-2,6.286069E-2,-1.3201988E-1,-1.03528E0,-4.356251E-1,1E0,8.305577E-2,-4.2508236E-1,-4.1220794E-3,-4.0205307E-2,3.0133074E-2,-3.1755578E-2,-4.840487E-2,-2.0307738E-2,-3.9422277E-2,9.215491E-4,-4.614497E-2,-1.4072527E-2,2.8430462E-2,-3.409946E-2,-1.4643773E-2,3.1577524E-2,-2.8081841E-3,-4.5860372E-2,7.32237E-2,2.2029998E-2,2.0969382E-2,-2.5072232E-2,-7.962274E-3,4.462999E-2],"split_indices":[10,30,4,23,0,0,0,9,10,8,8,0,10,12,2,0,8,0,0,0,0,4,0,21,9,0,0,0,8,2,17,0,2,0,0,0,0,0,0,0,0,0,0,0,0,0,0,0,0,0,0,0,0,0,0],"split_type":[0,0,0,0,0,0,0,0,0,0,0,0,0,0,0,0,0,0,0,0,0,0,0,0,0,0,0,0,0,0,0,0,0,0,0,0,0,0,0,0,0,0,0,0,0,0,0,0,0,0,0,0,0,0,0],"sum_hessian":[4.4601303E2,3.1455286E2,1.3146019E2,2.4693942E2,6.761342E1,1.7175821E0,1.297426E2,2.287396E2,1.8199839E1,6.205051E1,5.562906E0,7.449066E1,1.5424893E2,1.4387373E1,3.8124669E0,3.52726E1,2.677791E1,1.2968885E0,4.266017E0,5.0850483E1,2.3640177E1,7.533939E1,7.890954E1,1.0407565E1,3.9798076E0,1.8016988E0,2.010768E0,2.842862E1,6.8439803E0,9.515359E0,1.7262552E1,1.1569692E0,3.109048E0,5.2719097E0,4.557857E1,5.10721E0,1.8532967E1,7.315562E1,2.1837785E0,7.522056E1,3.6889787E0,7.422301E0,2.9852645E0,2.119134E0,1.8606737E0,2.469562E1,3.7329986E0,1.0435151E0,5.800465E0,2.1322503E0,7.383109E0,6.0270467E0,1.1235505E1,1.1623923E0,1.9466558E0],"tree_param":{"num_deleted":"0","num_feature":"33","num_nodes":"55","size_leaf_vector":"1"}},{"base_weights":[-2.6997572E-2,-5.856321E-1,1.3297178E0,-7.6090686E-2,-7.3638874E-1,5.0196936E-3,6.724366E-2,-1.7320466E-1,8.4382665E-1,-4.3228057E-1,-7.788625E-1,-6.1860878E-2,-4.6436524E-1,-5.682039E-3,1.0522637E0,-5.022453E-1,3.087622E-2,-7.96189E-1,-1.2661731E-1,-1.5440783E-1,3.6962485E-1,4.8541647E-1,-6.3290197E-1,1.6815566E-2,1.1581795E0,2.2566525E-2,-5.762609E-1,-8.2759935E-1,-4.3932596E-1,3.724956E-2,-4.7563758E-1,-1.2566553E-2,3.3925727E-2,-3.1200355E-2,3.176283E-2,3.9065983E-2,-3.4537923E-3,-3.981294E-2,4.2770866E-2,7.6490775E-2,2.837561E-2,-3.4476724E-2,-3.496091E-3,-3.092258E-2,-4.362795E-2,-2.8111352E-2,2.7556604E-2,-3.982197E-2,1.7813463E-2],"categories":[],"categories_nodes":[],"categories_segments":[],"categories_sizes":[],"default_left":[0,0,0,0,0,0,0,0,0,0,0,0,0,0,0,0,0,0,0,0,0,0,0,0,0,0,0,0,0,0,0,0,0,0,0,0,0,0,0,0,0,0,0,0,0,0,0,0,0],"id":24,"left_children":[1,3,5,7,9,-1,-1,11,13,15,17,19,21,-1,23,25,-1,27,29,31,33,35,37,-1,39,-1,41,43,45,-1,47,-1,-1,-1,-1,-1,-1,-1,-1,-1,-1,-1,-1,-1,-1,-1,-1,-1,-1],"loss_changes":[3.2535278E2,2.3299332E1,2.1977692E0,6.447302E0,2.6923676E0,0E0,0E0,2.0664172E0,1.4976792E0,2.5860672E0,2.210518E0,1.969977E0,3.144351E0,0E0,4.790163E-2,2.3493538E0,0E0,1.8674774E0,2.3260846E0,3.4117093E0,2.7070994E0,5.85091E-1,4.4464254E0,0E0,1.4501381E-1,0E0,1.5524855E0,1.1699371E0,2.5293703E0,0E0,1.6818004E0,0E0,0E0,0E0,0E0,0E0,0E0,0E0,0E0,0E0,0E0,0E0,0E0,0E0,0E0,0E0,0E0,0E0,0E0],"parents":[2147483647,0,0,1,1,2,2,3,3,4,4,7,7,8,8,9,9,10,10,11,11,12,12,14,14,15,15,17,17,18,18,19,19,20,20,21,21,22,22,24,24,26,26,27,27,28,28,30,30],"right_children":[2,4,6,8,10,-1,-1,12,14,16,18,20,22,-1,24,26,-1,28,30,32,34,36,38,-1,40,-1,42,44,46,-1,48,-1,-1,-1,-1,-1,-1,-1,-1,-1,-1,-1,-1,-1,-1,-1,-1,-1,-1],"split_conditions":[1.5482323E0,-9.3687767E-1,3.196194E-1,1.14309505E-1,1E0,5.0196936E-3,6.724366E-2,1.6098558E0,-7.2262204E-1,1.1747329E0,2.898794E0,1.7090511E0,-2.826115E-1,-5.682039E-3,-3.9667425E-1,-2.9778147E-1,3.087622E-2,3.4102593E-2,2.6014163E0,1E0,-2.526719E-1,-2.8249565E-1,1.0979178E0,1.6815566E-2,-1.4875622E-1,2.2566525E-2,1.8234922E0,-9.3952024E-1,6.5222067E-1,3.724956E-2,-1.1664775E-1,-1.2566553E-2,3.3925727E-2,-3.1200355E-2,3.176283E-2,3.9065983E-2,-3.4537923E-3,-3.981294E-2,4.2770866E-2,7.6490775E-2,2.837561E-2,-3.4476724E-2,-3.496091E-3,-3.092258E-2,-4.362795E-2,-2.8111352E-2,2.7556604E-2,-3.982197E-2,1.7813463E-2],"split_indices":[10,7,4,1,17,0,0,12,8,10,4,2,0,0,10,0,0,1,5,19,0,10,8,0,8,0,7,6,10,0,1,0,0,0,0,0,0,0,0,0,0,0,0,0,0,0,0,0,0],"split_type":[0,0,0,0,0,0,0,0,0,0,0,0,0,0,0,0,0,0,0,0,0,0,0,0,0,0,0,0,0,0,0,0,0,0,0,0,0,0,0,0,0,0,0,0,0,0,0,0,0],"sum_hessian":[4.2724997E2,3.0304E2,1.2420994E2,6.953247E1,2.3350755E2,1.6054988E0,1.2260444E2,6.3627182E1,5.9052863E0,2.998623E1,2.0352132E2,4.6903217E1,1.6723965E1,1.1370369E0,4.7682495E0,2.8601645E1,1.3845876E0,1.980398E2,5.4815254E0,3.91486E1,7.754615E0,2.2370396E0,1.4486926E1,1.1525695E0,3.6156797E0,1.6929427E0,2.69087E1,1.808065E2,1.7233297E1,1.2429597E0,4.2385654E0,3.5693386E1,3.4552162E0,1.3511838E0,6.4034314E0,1.1919087E0,1.0451307E0,1.3473121E1,1.0138055E0,1.2433875E0,2.3722923E0,2.1693766E1,5.214935E0,3.460113E1,1.4620537E2,1.5715585E1,1.5177132E0,3.0897305E0,1.148835E0],"tree_param":{"num_deleted":"0","num_feature":"33","num_nodes":"49","size_leaf_vector":"1"}},{"base_weights":[7.509374E-4,-5.6148154E-1,1.2138492E0,-6.876106E-1,-1.0402013E-1,-1.2230277E-1,1.3196673E0,-7.014732E-1,4.5946726E-1,-1.8802786E-1,6.24226E-1,4.7155818E-1,-4.1112953E-1,-7.7075697E-3,6.681943E-2,-8.402681E-1,-5.849818E-1,-6.8707033E-3,4.357133E-2,-3.0335942E-1,1.9918533E-1,-2.0053916E-1,5.582228E-2,-1.27482135E-2,5.274248E-2,3.6197018E-2,-7.4802995E-1,-6.2567043E-1,-8.992136E-1,4.235739E-1,-6.5135205E-1,3.5573223E-1,-3.636445E-1,-4.7768298E-1,3.8647738E-1,-3.0169377E-2,1.5987996E-2,-4.337282E-2,-3.1327044E-3,-3.397212E-2,4.921762E-4,-9.694696E-3,-4.550795E-2,-1.18378345E-2,8.4421255E-2,-3.7931558E-2,-1.8928373E-2,-3.0503243E-2,4.9566474E-2,-9.143213E-3,-4.344758E-2,-2.780196E-3,-3.1975877E-2,5.6840863E-2,-4.541505E-3],"categories":[],"categories_nodes":[],"categories_segments":[],"categories_sizes":[],"default_left":[0,0,0,0,0,0,0,0,0,0,0,0,0,0,0,0,0,0,0,0,0,0,0,0,0,0,0,0,0,0,0,0,0,0,0,0,0,0,0,0,0,0,0,0,0,0,0,0,0,0,0,0,0,0,0],"id":25,"left_children":[1,3,5,7,9,11,13,15,17,19,21,23,25,-1,-1,27,29,-1,-1,31,33,35,-1,-1,-1,-1,37,39,41,43,45,47,49,51,53,-1,-1,-1,-1,-1,-1,-1,-1,-1,-1,-1,-1,-1,-1,-1,-1,-1,-1,-1,-1],"loss_changes":[2.8445657E2,1.637188E1,1.8836212E1,3.871727E0,3.957591E0,2.0133646E0,3.224228E0,3.0807877E0,9.237059E-1,2.6080394E0,2.9534423E0,1.9372642E0,3.474988E0,0E0,0E0,6.837387E-1,8.5370865E0,0E0,0E0,1.8915997E0,1.9208499E0,8.9733845E-1,0E0,0E0,0E0,0E0,4.7008848E-1,8.4458065E-1,4.0260315E-1,7.27036E0,3.112976E0,3.1966336E0,3.598248E0,1.9774598E-1,4.143175E0,0E0,0E0,0E0,0E0,0E0,0E0,0E0,0E0,0E0,0E0,0E0,0E0,0E0,0E0,0E0,0E0,0E0,0E0,0E0,0E0],"parents":[2147483647,0,0,1,1,2,2,3,3,4,4,5,5,6,6,7,7,8,8,9,9,10,10,11,11,12,12,15,15,16,16,19,19,20,20,21,21,26,26,27,27,28,28,29,29,30,30,31,31,32,32,33,33,34,34],"right_children":[2,4,6,8,10,12,14,16,18,20,22,24,26,-1,-1,28,30,-1,-1,32,34,36,-1,-1,-1,-1,38,40,42,44,46,48,50,52,54,-1,-1,-1,-1,-1,-1,-1,-1,-1,-1,-1,-1,-1,-1,-1,-1,-1,-1,-1,-1],"split_conditions":[1.6092067E0,1E0,4.9239042E-1,6.942044E0,1.02713324E-1,-4.5448983E-1,-6.7218035E-3,-2.4959673E-1,1E0,5.176502E-2,-4.2508236E-1,-5.28695E-1,-1.14959E0,-7.7075697E-3,6.681943E-2,-1.0463188E0,-1.8766935E-1,-6.8707033E-3,4.357133E-2,-2.868651E-1,-2.5141367E-1,-3.387256E-1,5.582228E-2,-1.27482135E-2,5.274248E-2,3.6197018E-2,5.176502E-2,5.5362254E-2,-1.3637687E0,-1.3425748E-1,6.406019E-1,-2.9543662E-1,1.6098558E0,-2.5957167E-1,-2.1183306E-1,-3.0169377E-2,1.5987996E-2,-4.337282E-2,-3.1327044E-3,-3.397212E-2,4.921762E-4,-9.694696E-3,-4.550795E-2,-1.18378345E-2,8.4421255E-2,-3.7931558E-2,-1.8928373E-2,-3.0503243E-2,4.9566474E-2,-9.143213E-3,-4.344758E-2,-2.780196E-3,-3.1975877E-2,5.6840863E-2,-4.541505E-3],"split_indices":[4,30,8,1,1,6,9,10,29,3,2,8,9,0,0,9,10,0,0,0,0,8,0,0,0,0,3,1,8,0,3,0,12,8,1,0,0,0,0,0,0,0,0,0,0,0,0,0,0,0,0,0,0,0,0],"split_type":[0,0,0,0,0,0,0,0,0,0,0,0,0,0,0,0,0,0,0,0,0,0,0,0,0,0,0,0,0,0,0,0,0,0,0,0,0,0,0,0,0,0,0,0,0,0,0,0,0,0,0,0,0,0,0],"sum_hessian":[4.1506604E2,2.8398514E2,1.3108093E2,2.2221419E2,6.177094E1,9.607869E0,1.2147306E2,2.1994461E2,2.2695796E0,5.6047337E1,5.7236023E0,2.9368014E0,6.671068E0,1.2705096E0,1.2020255E2,9.752923E1,1.22415375E2,1.1989205E0,1.0706593E0,4.3351604E1,1.2695732E1,2.3606572E0,3.3629448E0,1.5584949E0,1.3783064E0,1.2639152E0,5.4071527E0,2.3519249E1,7.400998E1,7.226114E0,1.1518926E2,3.2222443E0,4.012936E1,2.4155457E0,1.0280187E1,1.2404945E0,1.1201628E0,4.3785305E0,1.0286224E0,2.1620754E1,1.898495E0,1.4169456E0,7.259303E1,5.2816067E0,1.944507E0,8.139692E1,3.3792343E1,1.2948604E0,1.927384E0,3.0558533E1,9.570828E0,1.0418619E0,1.3736839E0,3.4597073E0,6.8204794E0],"tree_param":{"num_deleted":"0","num_feature":"33","num_nodes":"55","size_leaf_vector":"1"}},{"base_weights":[-1.5347514E-2,-5.4432297E-1,1.27087E0,-1.022056E-1,-6.704177E-1,-5.780153E-4,6.458197E-2,-1.9140066E-1,6.747302E-1,-7.0107883E-1,8.4804066E-2,3.064482E-1,-2.9965672E-1,9.231436E-1,-1.2562409E-2,-8.388951E-1,-5.910148E-1,-3.7528884E-2,4.819089E-1,-3.4750882E-1,1.0955478E0,6.537153E-2,-3.895964E-1,-1.5682574E-4,1.3671424E0,-4.8011567E-2,-6.3566005E-1,-2.6807392E-2,-6.400864E-1,-4.417628E-1,1.0148138E0,-3.747397E-2,-2.5904944E-4,1.2192697E-3,8.0157384E-2,-1.7865624E-2,5.9413195E-2,-2.2822943E-2,-2.2636193E-3,8.8186674E-2,2.8878883E-2,-3.3712428E-2,1.0452722E-2,-2.0583287E-2,8.159615E-2,-2.2228304E-2,-3.5973277E-2,-2.9734556E-2,-2.3264885E-3,7.348659E-2,-7.6926835E-3],"categories":[],"categories_nodes":[],"categories_segments":[],"categories_sizes":[],"default_left":[0,0,0,0,0,0,0,0,0,0,0,0,0,0,0,0,0,0,0,0,0,0,0,0,0,0,0,0,0,0,0,0,0,0,0,0,0,0,0,0,0,0,0,0,0,0,0,0,0,0,0],"id":26,"left_children":[1,3,5,7,9,-1,-1,11,13,15,17,19,21,23,-1,25,27,-1,29,31,33,35,37,-1,39,-1,41,43,45,47,49,-1,-1,-1,-1,-1,-1,-1,-1,-1,-1,-1,-1,-1,-1,-1,-1,-1,-1,-1,-1],"loss_changes":[2.765053E2,1.5984222E1,3.169464E0,4.639106E0,5.243332E0,0E0,0E0,3.2801018E0,1.8244E0,2.769127E0,3.5550723E0,6.088282E0,1.6373329E0,2.3372169E0,0E0,1.6876068E0,3.389801E0,0E0,3.9597216E0,9.3283767E-1,2.817134E0,5.437559E0,8.895159E-1,0E0,1.8274212E-1,0E0,1.3729448E0,7.6236773E0,1.4364853E0,1.7219102E-1,2.7924109E0,0E0,0E0,0E0,0E0,0E0,0E0,0E0,0E0,0E0,0E0,0E0,0E0,0E0,0E0,0E0,0E0,0E0,0E0,0E0,0E0],"parents":[2147483647,0,0,1,1,2,2,3,3,4,4,7,7,8,8,9,9,10,10,11,11,12,12,13,13,15,15,16,16,18,18,19,19,20,20,21,21,22,22,24,24,26,26,27,27,28,28,29,29,30,30],"right_children":[2,4,6,8,10,-1,-1,12,14,16,18,20,22,24,-1,26,28,-1,30,32,34,36,38,-1,40,-1,42,44,46,48,50,-1,-1,-1,-1,-1,-1,-1,-1,-1,-1,-1,-1,-1,-1,-1,-1,-1,-1,-1,-1],"split_conditions":[1.5482323E0,-1.0977043E0,3.196194E-1,1.02713324E-1,1.6092067E0,-5.780153E-4,6.458197E-2,1E0,1.9497086E0,-2.728195E-1,-2.4565525E-1,1.9400304E-2,-2.7561206E-1,-4.2376748E-1,-1.2562409E-2,1.262061E0,-1.8766935E-1,-3.7528884E-2,-4.3586698E-1,-4.3536034E-1,-2.3067686E-1,-2.8430918E-1,1.7090511E0,-1.5682574E-4,2.5829542E-1,-4.8011567E-2,6.110126E-1,4.666512E-2,-1.1820354E0,-1.2196267E-1,-9.683761E-2,-3.747397E-2,-2.5904944E-4,1.2192697E-3,8.0157384E-2,-1.7865624E-2,5.9413195E-2,-2.2822943E-2,-2.2636193E-3,8.8186674E-2,2.8878883E-2,-3.3712428E-2,1.0452722E-2,-2.0583287E-2,8.159615E-2,-2.2228304E-2,-3.5973277E-2,-2.9734556E-2,-2.3264885E-3,7.348659E-2,-7.6926835E-3],"split_indices":[10,7,4,1,4,0,0,17,13,10,1,10,1,10,0,7,10,0,2,2,1,1,2,0,1,0,1,1,6,1,1,0,0,0,0,0,0,0,0,0,0,0,0,0,0,0,0,0,0,0,0],"split_type":[0,0,0,0,0,0,0,0,0,0,0,0,0,0,0,0,0,0,0,0,0,0,0,0,0,0,0,0,0,0,0,0,0,0,0,0,0,0,0,0,0,0,0,0,0,0,0,0,0,0,0],"sum_hessian":[4.0438315E2,2.869483E2,1.1743482E2,6.407991E1,2.2286841E2,1.8786473E0,1.15556175E2,5.8156933E1,5.9229813E0,2.1424213E2,8.62627E0,1.0060385E1,4.8096546E1,4.6725354E0,1.250446E0,9.218773E1,1.22054405E2,2.4925716E0,6.133699E0,5.8072815E0,4.2531033E0,9.561895E0,3.8534653E1,1.8357302E0,2.836805E0,5.539239E1,3.6795338E1,9.889928E0,1.12164474E2,2.3066554E0,3.8270435E0,2.1239367E0,3.683345E0,1.7044113E0,2.548692E0,7.4422455E0,2.1196496E0,3.1995876E1,6.5387754E0,1.0670377E0,1.7697674E0,3.5380856E1,1.4144787E0,8.637643E0,1.2522856E0,3.4294205E1,7.787027E1,1.2992679E0,1.0073875E0,2.5692995E0,1.2577442E0],"tree_param":{"num_deleted":"0","num_feature":"33","num_nodes":"51","size_leaf_vector":"1"}},{"base_weights":[-4.051781E-2,-5.609201E-1,1.2455661E0,-1.2422005E-1,-6.889602E-1,-1.5148403E-2,6.3564315E-2,-1.7140001E-1,5.294759E-2,-7.031452E-1,4.7039732E-1,3.17232E-1,-2.8175887E-1,-7.430001E-1,-2.2470151E-1,4.644246E-2,-7.7975267E-3,3.3058148E-2,6.330789E-2,-4.0603268E-1,3.3744413E-2,-7.876495E-1,-5.5670136E-1,-3.7932423E-1,4.5813758E-2,1.9840097E-2,-2.4305094E-2,1.4702113E-2,-2.3405747E-2,-3.9481383E-2,1.3625753E-2,-4.0905558E-2,-2.6839036E-2,-3.9091416E-2,-5.043426E-3,-2.7045256E-3,-3.4210667E-2],"categories":[],"categories_nodes":[],"categories_segments":[],"categories_sizes":[],"default_left":[0,0,0,0,0,0,0,0,0,0,0,0,0,0,0,0,0,0,0,0,0,0,0,0,0,0,0,0,0,0,0,0,0,0,0,0,0],"id":27,"left_children":[1,3,5,7,9,-1,-1,11,-1,13,15,17,19,21,23,-1,-1,25,-1,27,29,31,33,35,-1,-1,-1,-1,-1,-1,-1,-1,-1,-1,-1,-1,-1],"loss_changes":[2.6616092E2,1.5742096E1,4.9483795E0,3.832141E0,3.926857E0,0E0,0E0,3.5271325E0,0E0,3.9599228E0,1.075876E0,3.252283E0,2.0735283E0,1.2197495E0,3.5365083E0,0E0,0E0,2.162028E0,0E0,1.7790442E0,3.3152745E0,7.713165E-1,4.2261705E0,1.6116028E0,0E0,0E0,0E0,0E0,0E0,0E0,0E0,0E0,0E0,0E0,0E0,0E0,0E0],"parents":[2147483647,0,0,1,1,2,2,3,3,4,4,7,7,9,9,10,10,11,11,12,12,13,13,14,14,17,17,19,19,20,20,21,21,22,22,23,23],"right_children":[2,4,6,8,10,-1,-1,12,-1,14,16,18,20,22,24,-1,-1,26,-1,28,30,32,34,36,-1,-1,-1,-1,-1,-1,-1,-1,-1,-1,-1,-1,-1],"split_conditions":[1.5482323E0,-1.0977043E0,3.196194E-1,4.188381E0,6.942044E0,-1.5148403E-2,6.3564315E-2,1E0,5.294759E-2,1E0,9.932318E0,4.780499E-1,-2.2119376E-1,1.9497086E0,9.6441305E-1,4.644246E-2,-7.7975267E-3,-3.25176E-1,6.330789E-2,-2.868651E-1,-2.4420759E-1,2.4637334E0,-1.7511183E-1,-2.0072006E-1,4.5813758E-2,1.9840097E-2,-2.4305094E-2,1.4702113E-2,-2.3405747E-2,-3.9481383E-2,1.3625753E-2,-4.0905558E-2,-2.6839036E-2,-3.9091416E-2,-5.043426E-3,-2.7045256E-3,-3.4210667E-2],"split_indices":[10,7,4,4,1,0,0,17,0,23,14,10,2,13,4,0,0,2,0,0,0,2,1,1,0,0,0,0,0,0,0,0,0,0,0,0,0],"split_type":[0,0,0,0,0,0,0,0,0,0,0,0,0,0,0,0,0,0,0,0,0,0,0,0,0,0,0,0,0,0,0,0,0,0,0,0,0],"sum_hessian":[3.9563794E2,2.8206622E2,1.1357171E2,6.439782E1,2.176684E2,1.6794215E0,1.1189229E2,6.2750717E1,1.6471016E0,2.1542612E2,2.2422788E0,1.1215907E1,5.1534813E1,1.9835036E2,1.7075768E1,1.0158052E0,1.2264736E0,9.4275E0,1.7884067E0,3.6766068E1,1.4768744E1,1.5739925E2,4.0951107E1,1.5625744E1,1.450023E0,5.6820903E0,3.7454097E0,2.6904702E0,3.4075596E1,2.8013995E0,1.1967345E1,1.3834026E2,1.9058994E1,2.6933842E1,1.4017263E1,8.130318E0,7.495426E0],"tree_param":{"num_deleted":"0","num_feature":"33","num_nodes":"37","size_leaf_vector":"1"}},{"base_weights":[-5.639682E-3,-4.995104E-1,1.2345493E0,-6.6681616E-2,-6.2684375E-1,3.339192E-3,6.261822E-2,-1.5121824E-1,7.1450317E-1,-6.557698E-1,8.775412E-3,-2.941603E-1,1.9701564E-1,7.1814105E-2,1.4273703E-1,-8.114194E-1,-5.3259563E-1,6.285941E-2,-2.9438978E-1,1.4966798E-1,-3.923459E-1,-1.7323721E-2,6.555608E-2,-2.0222982E-2,3.1566847E-2,-8.9691013E-1,-6.584489E-1,1.5746287E-1,-5.988635E-1,4.2412442E-1,-4.2743076E-2,2.193007E-2,-3.3095203E-2,-3.6614597E-2,-1.2875321E-2,-3.591483E-2,6.8302727E-3,-8.909148E-3,-4.5627072E-2,-7.944508E-3,-3.5545953E-2,-2.0029454E-2,6.181414E-2,-1.1710432E-2,-3.3171337E-2,-4.4658496E-3,4.5591153E-2],"categories":[],"categories_nodes":[],"categories_segments":[],"categories_sizes":[],"default_left":[0,0,0,0,0,0,0,0,0,0,0,0,0,0,0,0,0,0,0,0,0,0,0,0,0,0,0,0,0,0,0,0,0,0,0,0,0,0,0,0,0,0,0,0,0,0,0],"id":28,"left_children":[1,3,5,7,9,-1,-1,11,13,15,17,19,21,-1,23,25,27,-1,29,31,33,35,-1,-1,-1,37,39,41,43,45,-1,-1,-1,-1,-1,-1,-1,-1,-1,-1,-1,-1,-1,-1,-1,-1,-1],"loss_changes":[2.3333215E2,1.4973801E1,2.173584E0,4.2718344E0,3.8741074E0,0E0,0E0,2.931059E0,2.407927E0,3.426262E0,4.209697E0,1.8594713E0,4.1769032E0,0E0,1.4967645E0,5.4712677E-1,5.3648415E0,0E0,3.97603E0,2.215357E0,1.3751245E0,1.7788271E0,0E0,0E0,0E0,4.333496E-1,8.031521E-1,7.0516615E0,2.3252945E0,1.2334206E0,0E0,0E0,0E0,0E0,0E0,0E0,0E0,0E0,0E0,0E0,0E0,0E0,0E0,0E0,0E0,0E0,0E0],"parents":[2147483647,0,0,1,1,2,2,3,3,4,4,7,7,8,8,9,9,10,10,11,11,12,12,14,14,15,15,16,16,18,18,19,19,20,20,21,21,25,25,26,26,27,27,28,28,29,29],"right_children":[2,4,6,8,10,-1,-1,12,14,16,18,20,22,-1,24,26,28,-1,30,32,34,36,-1,-1,-1,38,40,42,44,46,-1,-1,-1,-1,-1,-1,-1,-1,-1,-1,-1,-1,-1,-1,-1,-1,-1],"split_conditions":[1.5482323E0,-1.0977043E0,3.196194E-1,1.02713324E-1,1.6092067E0,3.339192E-3,6.261822E-2,-3.2850917E-2,2.0273037E-1,-2.728195E-1,-1.14959E0,-2.6398858E-1,1.1725846E-1,7.1814105E-2,7.6314414E-1,1.262061E0,-1.8766935E-1,6.285941E-2,-4.5448983E-1,-2.6507857E-1,-2.2543457E-1,-2.618225E-1,6.555608E-2,-2.0222982E-2,3.1566847E-2,-1.342363E0,1E0,-1.3425748E-1,1E0,-1.1374871E-1,-4.2743076E-2,2.193007E-2,-3.3095203E-2,-3.6614597E-2,-1.2875321E-2,-3.591483E-2,6.8302727E-3,-8.909148E-3,-4.5627072E-2,-7.944508E-3,-3.5545953E-2,-2.0029454E-2,6.181414E-2,-1.1710432E-2,-3.3171337E-2,-4.4658496E-3,4.5591153E-2],"split_indices":[10,7,4,1,4,0,0,10,1,10,9,0,5,0,0,7,10,0,6,10,0,0,0,0,0,9,17,0,17,1,0,0,0,0,0,0,0,0,0,0,0,0,0,0,0,0,0],"split_type":[0,0,0,0,0,0,0,0,0,0,0,0,0,0,0,0,0,0,0,0,0,0,0,0,0,0,0,0,0,0,0,0,0,0,0,0,0,0,0,0,0,0,0,0,0,0,0],"sum_hessian":[3.78948E2,2.7144843E2,1.0749956E2,6.2050713E1,2.0939772E2,1.6866972E0,1.0581286E2,5.6719215E1,5.331497E0,2.0025284E2,9.1448965E0,4.0322876E1,1.639634E1,1.6882704E0,3.6432266E0,8.599601E1,1.1425682E2,1.1719625E0,7.972934E0,7.2094884E0,3.3113384E1,1.4576469E1,1.819871E0,1.799794E0,1.8434327E0,5.204585E1,3.395016E1,9.890384E0,1.0436644E2,3.6004705E0,4.372463E0,5.655574E0,1.5539148E0,8.1458645E0,2.4967522E1,1.9644082E0,1.26120615E1,1.3717542E0,5.0674095E1,3.6098309E0,3.0340328E1,6.932842E0,2.9575412E0,1.6394958E1,8.797148E1,2.151873E0,1.4485976E0],"tree_param":{"num_deleted":"0","num_feature":"33","num_nodes":"47","size_leaf_vector":"1"}},{"base_weights":[3.990444E-3,-4.749141E-1,1.2073222E0,-9.28613E-3,-6.2868553E-1,-1.5345573E-2,1.2348906E0,-1.002963E-1,7.9529685E-1,-6.5772283E-1,-8.069063E-2,6.2151354E-2,1.4107431E-2,-3.7889516E-1,5.180789E-2,-2.9910684E-3,1.1521196E0,-3.8303104E-1,-7.1249306E-1,-3.8416773E-2,2.375497E-1,2.7594036E-1,-5.521047E-1,1.2423763E0,-5.7775855E-2,7.757108E-2,6.0823953E-1,-5.597566E-1,-8.209219E-2,-7.395452E-1,2.442602E-2,-5.0764394E-1,6.8379074E-1,4.313173E-2,-3.2893814E-2,2.2448523E-2,-3.68418E-2,1.4120348E-2,8.374106E-2,-4.215094E-2,2.896953E-3,-1.2419251E-2,5.976181E-2,2.0639244E-2,-3.168682E-2,-3.804237E-2,7.887363E-3,-3.9128106E-2,-1.3915795E-2,-2.7935177E-2,3.6041837E-2,-3.3195138E-2,-2.2650803E-3,5.1690903E-2,-3.9520278E-4],"categories":[],"categories_nodes":[],"categories_segments":[],"categories_sizes":[],"default_left":[0,0,0,0,0,0,0,0,0,0,0,0,0,0,0,0,0,0,0,0,0,0,0,0,0,0,0,0,0,0,0,0,0,0,0,0,0,0,0,0,0,0,0,0,0,0,0,0,0,0,0,0,0,0,0],"id":29,"left_children":[1,3,5,7,9,-1,11,13,15,17,19,-1,-1,21,23,-1,25,27,29,-1,31,33,35,37,39,-1,41,43,45,47,49,51,53,-1,-1,-1,-1,-1,-1,-1,-1,-1,-1,-1,-1,-1,-1,-1,-1,-1,-1,-1,-1,-1,-1],"loss_changes":[2.1412311E2,1.9024738E1,4.7946167E0,4.985822E0,3.1260452E0,0E0,4.5613098E-1,2.6079192E0,2.1805382E0,2.5795593E0,2.632088E0,0E0,0E0,2.6125724E0,5.341143E0,0E0,1.2752151E-1,1.7453413E0,3.1461945E0,0E0,3.1457577E0,3.4185746E0,3.56461E0,9.586477E-1,3.4962275E0,0E0,2.1739635E0,1.7759733E0,2.3394058E0,2.7858734E0,3.052263E0,2.3911446E-1,1.385781E0,0E0,0E0,0E0,0E0,0E0,0E0,0E0,0E0,0E0,0E0,0E0,0E0,0E0,0E0,0E0,0E0,0E0,0E0,0E0,0E0,0E0,0E0],"parents":[2147483647,0,0,1,1,2,2,3,3,4,4,6,6,7,7,8,8,9,9,10,10,13,13,14,14,16,16,17,17,18,18,20,20,21,21,22,22,23,23,24,24,26,26,27,27,28,28,29,29,30,30,31,31,32,32],"right_children":[2,4,6,8,10,-1,12,14,16,18,20,-1,-1,22,24,-1,26,28,30,-1,32,34,36,38,40,-1,42,44,46,48,50,52,54,-1,-1,-1,-1,-1,-1,-1,-1,-1,-1,-1,-1,-1,-1,-1,-1,-1,-1,-1,-1,-1,-1],"split_conditions":[1.5482323E0,-9.3687767E-1,1.1109216E0,1.02713324E-1,1.1109216E0,-1.5345573E-2,-4.5448983E-1,-2.2875166E-1,-4.2376748E-1,-1.1820354E0,-2.4565525E-1,6.2151354E-2,1.4107431E-2,-2.868651E-1,-2.2075205E-1,-2.9910684E-3,-1.4875622E-1,-4.155659E-1,5.481999E-1,-3.8416773E-2,-4.3586698E-1,-2.9204E-1,-9.165491E-1,-2.7540246E-1,-9.600837E-1,7.757108E-2,9.158638E-1,-3.0315298E-1,-2.7029714E-1,1E0,-3.9384985E-1,5.076379E-1,2.6014163E0,4.313173E-2,-3.2893814E-2,2.2448523E-2,-3.68418E-2,1.4120348E-2,8.374106E-2,-4.215094E-2,2.896953E-3,-1.2419251E-2,5.976181E-2,2.0639244E-2,-3.168682E-2,-3.804237E-2,7.887363E-3,-3.9128106E-2,-1.3915795E-2,-2.7935177E-2,3.6041837E-2,-3.3195138E-2,-2.2650803E-3,5.1690903E-2,-3.9520278E-4],"split_indices":[10,7,5,1,5,0,6,0,10,6,1,0,0,0,0,0,8,2,1,0,2,1,8,8,8,0,8,1,1,23,2,7,5,0,0,0,0,0,0,0,0,0,0,0,0,0,0,0,0,0,0,0,0,0,0],"split_type":[0,0,0,0,0,0,0,0,0,0,0,0,0,0,0,0,0,0,0,0,0,0,0,0,0,0,0,0,0,0,0,0,0,0,0,0,0,0,0,0,0,0,0,0,0,0,0,0,0,0,0,0,0,0,0],"sum_hessian":[3.6956525E2,2.647892E2,1.0477604E2,6.5999535E1,1.9878967E2,1.6922816E0,1.03083755E2,6.0079052E1,5.920481E0,1.8859605E2,1.0193618E1,1.0190877E2,1.1749848E0,2.0690554E1,3.9388496E1,1.988186E0,3.932295E0,3.2681324E1,1.5591473E2,2.7775786E0,7.416039E0,4.2039623E0,1.6486591E1,2.4485953E0,3.6939903E1,1.1992975E0,